tree
version=v4
num_class=1
num_tree_per_iteration=1
label_index=0
max_feature_idx=45
objective=regression
feature_names=Column_0 Column_1 Column_2 Column_3 Column_4 Column_5 Column_6 Column_7 Column_8 Column_9 Column_10 Column_11 Column_12 Column_13 Column_14 Column_15 Column_16 Column_17 Column_18 Column_19 Column_20 Column_21 Column_22 Column_23 Column_24 Column_25 Column_26 Column_27 Column_28 Column_29 Column_30 Column_31 Column_32 Column_33 Column_34 Column_35 Column_36 Column_37 Column_38 Column_39 Column_40 Column_41 Column_42 Column_43 Column_44 Column_45
feature_infos=[1192.5833740234375:2427.449951171875] [18.656051635742188:242.84609985351562] [633:2290] [1582:2613] [-4.0533785820007324:4.378140926361084] [734:2610] [75.546333312988281:90.483169555664062] [0.14651030302047729:0.39047405123710632] [74.669998168945312:89.870002746582031] [76.129997253417969:90.879997253417969] [-0.0046105287037789822:0.010557990521192551] [76.120002746582031:90.760002136230469] [29.520166397094727:32.329082489013672] [0.068887993693351746:0.22405877709388733] [29.280000686645508:31.920000076293945] [29.739999771118164:32.669998168945312] [-0.0039029447361826897:0.0053491909056901932] [29.319999694824219:32.540000915527344] [16.231582641601562:33.65191650390625] [0.35422602295875549:3.4899840354919434] [9.369999885559082:31.25] [21.670000076293945:35.889999389648438] [-0.08358108252286911:0.087283387780189514] [11.380000114440918:35.200000762939453] [2.8203332424163818:15.336000442504883] [0.075968563556671143:0.92700517177581787] [2.5899999141693115:13.859999656677246] [3:17.200000762939453] [-0.011469719931483269:0.016421036794781685] [2.630000114440918:16.600000381469727] [2.1345832347869873:2.9289999008178711] [0.030874297022819519:0.47206002473831177] [1.4500000476837158:2.6400001049041748] [2.2100000381469727:3.5399999618530273] [-0.0046542119234800339:0.0041570593602955341] [1.7300000190734863:3.2799999713897705] [-0.74820417165756226:0.6732785701751709] [-0.76989072561264038:0.76195967197418213] [-0.65815532207489014:0.59783017635345459] [-0.80482602119445801:0.74082386493682861] [-0.83023172616958618:0.79936820268630981] [-0.77525538206100464:0.76074022054672241] [0:1] none none [67.995201110839844:84.162025451660156]
tree_sizes=396 486 574 571 821 904 905 811 820 892 893 896 799 975 895 902 808 893 870 894 886 976 885 894 975 813 974 892 976 881 964 892 971 890 973 980 973 975 901 899 981 978 901 989 904 892 979 816 974 897 894 893 895 893 897 893 894 979 895 1063 894 980 899 1070 900 984 983 810 895 902 990 1067 983 982 906 901 899 893 901 984 812 986 983 897 825 835 907 911 898 898 992 913 901 912 828 903 906 912 906 828

Tree=0
num_leaves=3
num_cat=0
split_feature=42 37
split_gain=119270 2405.95
threshold=1.0000000180025095e-35 -0.5562365949153899
decision_type=2 2
left_child=1 -1
right_child=-2 -3
leaf_value=46.245000014179631 43.880000064247533 46.830000016563815
leaf_weight=20 46 145
leaf_count=20 46 145
internal_value=46.1314 46.7591
internal_weight=211 165
internal_count=211 165
is_linear=0
shrinkage=1


Tree=1
num_leaves=4
num_cat=0
split_feature=42 37 1
split_gain=118445 457.273 3.63798e-12
threshold=1.0000000180025095e-35 -0.52892550826072682 208.25702667236331
decision_type=2 2 2
left_child=1 -1 -3
right_child=-2 2 -4
leaf_value=0.41519318710673936 -2.1440000534057617 0.65850000381469731 0.65850000381469731
leaf_weight=22 49 121 37
leaf_count=22 49 121 37
internal_value=0.035464 0.628763 0.6585
internal_weight=229 180 158
internal_count=229 180 158
is_linear=0
shrinkage=0.05


Tree=2
num_leaves=5
num_cat=0
split_feature=42 37 37 0
split_gain=105803 1747.82 0.0609868 3.63798e-12
threshold=1.0000000180025095e-35 -0.5562365949153899 -0.43728499114513392 1854.5250244140627
decision_type=2 2 2 2
left_child=1 -1 -3 -4
right_child=-2 2 3 -5
leaf_value=0.12949032902717592 -2.0368000030517579 0.62847151983351945 0.62557501792907722 0.62557501792907722
leaf_weight=20 50 21 112 23
leaf_count=20 50 21 112 23
internal_value=-0.00707816 0.569547 0.625965 0.625575
internal_weight=226 176 156 135
internal_count=226 176 156 135
is_linear=0
shrinkage=0.05


Tree=3
num_leaves=5
num_cat=0
split_feature=42 38 37 37
split_gain=92615 257.56 14.2673 2.1352e-05
threshold=1.0000000180025095e-35 -0.38374771177768702 -0.48361994326114649 -0.33608345687389368
decision_type=2 2 2 2
left_child=1 -1 -3 -4
right_child=-2 2 3 -5
leaf_value=0.40922195434570319 -1.9349599838256837 0.63972135305404665 0.59424107869466147 0.59429626464843754
leaf_weight=20 47 20 21 106
leaf_count=20 47 20 21 106
internal_value=0.0257487 0.577565 0.600469 0.594287
internal_weight=214 167 147 127
internal_count=214 167 147 127
is_linear=0
shrinkage=0.05


Tree=4
num_leaves=8
num_cat=0
split_feature=42 37 38 36 34 37 23
split_gain=89456.4 1575.62 0.49969 0.00519234 0.00160864 0.00228291 0.0010288
threshold=1.0000000180025095e-35 -0.5562365949153899 -0.3755293190479278 0.35639065504074102 -0.00093391901464201499 -0.17191017419099805 21.000000000000004
decision_type=2 2 2 2 2 2 2
left_child=1 -1 -3 4 6 -6 -4
right_child=-2 2 3 -5 5 -7 -8
leaf_value=0.12334168682927671 -1.8382120132446289 0.57294693447294687 0.56456128075009304 0.56542177438735963 0.56397302037193664 0.56458144187927251 0.56506235599517829
leaf_weight=23 52 21 21 20 21 58 20
leaf_count=23 52 21 21 20 21 58 20
internal_value=-0.00704938 0.510453 0.565755 0.564676 0.564552 0.56442 0.564806
internal_weight=236 184 161 140 120 79 41
internal_count=236 184 161 140 120 79 41
is_linear=0
shrinkage=0.05


Tree=5
num_leaves=9
num_cat=0
split_feature=42 37 38 37 7 37 32 34
split_gain=75467.8 1331.42 0.517771 0.0152081 7.54965e-06 1.78262e-06 1.21264e-06 3.15067e-08
threshold=1.0000000180025095e-35 -0.5562365949153899 -0.38374771177768702 -0.43728499114513392 0.288089469075203 -0.17191017419099805 2.0849999189376835 0.00047609208559151744
decision_type=2 2 2 2 2 2 2 2
left_child=1 -1 -3 -4 5 -5 -7 -8
right_child=-2 2 3 4 -6 6 7 -9
leaf_value=0.11375075521923246 -1.7463014602661133 0.54518056631088263 0.53780650865463986 0.53636349201202393 0.53631710097903296 0.53633868447665511 0.53635288752042332 0.53635024785995478
leaf_weight=21 48 20 21 20 21 29 26 20
leaf_count=21 48 20 21 20 21 29 26 20
internal_value=0.0131848 0.487653 0.537665 0.536568 0.536344 0.53635 0.536347 0.536352
internal_weight=226 178 157 137 116 95 75 46
internal_count=226 178 157 137 116 95 75 46
is_linear=0
shrinkage=0.05


Tree=6
num_leaves=9
num_cat=0
split_feature=42 38 37 37 26 34 40 0
split_gain=70857.9 804.008 45.5471 0.0021623 1.65508e-05 1.35576e-06 3.45493e-07 7.27596e-12
threshold=1.0000000180025095e-35 -0.38374771177768702 -0.5058416575193404 -0.33608345687389368 2.8449999094009404 -0.0010028821416199205 -0.075766697525978075 1796.291687011719
decision_type=2 2 2 2 2 2 2 2
left_child=1 -1 -3 -4 -5 -6 -7 -2
right_child=7 2 3 4 5 6 -8 -9
leaf_value=0.20276408817457114 -1.658986282348633 0.59048653364181525 0.50895710945129391 0.50948350212790749 0.50952266057332352 0.50953981953282512 0.50953229268391931 -1.658986282348633
leaf_weight=23 30 20 20 22 27 31 30 20
leaf_count=23 30 20 20 22 27 31 30 20
internal_value=-0.00111845 0.478034 0.520242 0.509435 0.509522 0.509532 0.509536 -1.65899
internal_weight=223 173 150 130 110 88 61 50
internal_count=223 173 150 130 110 88 61 50
is_linear=0
shrinkage=0.05


Tree=7
num_leaves=8
num_cat=0
split_feature=42 38 21 37 21 38 10
split_gain=65993 837.12 15.452 29.7485 0.0347957 0.000169846 4.38929e-06
threshold=1.0000000180025095e-35 -0.43166750669479365 23.204999923706058 -0.49053911864757532 23.840000152587894 -0.11634777113795279 0.0022157614585012202
decision_type=2 2 2 2 2 2 2
left_child=1 -1 -3 -4 -5 -6 -7
right_child=-2 2 3 4 5 6 -8
leaf_value=0.14285115003585816 -1.5760370254516602 0.45019631060686982 0.55141182422637935 0.48630210558573411 0.48388064146041876 0.48406749421899975 0.48403899329049249
leaf_weight=20 54 22 20 21 20 22 35
leaf_count=20 54 22 20 21 20 22 35
internal_value=-0.0646524 0.44544 0.488667 0.495839 0.484498 0.484006 0.48405
internal_weight=214 160 140 118 98 77 57
internal_count=214 160 140 118 98 77 57
is_linear=0
shrinkage=0.05


Tree=8
num_leaves=8
num_cat=0
split_feature=42 37 38 21 37 21 38
split_gain=53880.9 1276.91 9.85302 0.0189222 0.00830398 2.91461e-05 1.82467e-06
threshold=1.0000000180025095e-35 -0.5562365949153899 -0.38374771177768702 23.275000572204593 -0.41248673200607294 24.474999427795414 0.12295630946755411
decision_type=2 2 2 2 2 2 2
left_child=1 -1 -3 -4 -5 -6 -7
right_child=-2 2 3 4 5 6 -8
leaf_value=0.064953211079473092 -1.4972352027893068 0.49681031817481636 0.46125221479506728 0.45871950785319016 0.45979201861790248 0.45985937776236696 0.45984051953191341
leaf_weight=23 47 21 21 21 35 29 23
leaf_count=23 47 21 21 21 35 29 23
internal_value=0.00400576 0.411857 0.465049 0.459879 0.459612 0.459827 0.459851
internal_weight=220 173 150 129 108 87 52
internal_count=220 173 150 129 108 87 52
is_linear=0
shrinkage=0.05


Tree=9
num_leaves=9
num_cat=0
split_feature=42 38 9 14 37 30 18 40
split_gain=50952.4 1250.22 28.6258 13.6832 3.58189 0.00451335 0.00146157 2.45259e-05
threshold=1.0000000180025095e-35 -0.38374771177768702 88.83499908447267 30.525000572204593 -0.41248673200607294 2.8955416679382329 22.065999984741214 -0.12891560792922971
decision_type=2 2 2 2 2 2 2 2
left_child=1 -1 3 4 -3 6 -6 -8
right_child=-2 2 -4 -5 5 -7 7 -9
leaf_value=0.056647713979085294 -1.422373390197754 0.46054479122161873 0.49178604896251976 0.39738557338714603 0.43728059078085013 0.43784198306855704 0.43678086825779511 0.43685728481837682
leaf_weight=24 49 20 26 21 29 21 21 21
leaf_count=24 49 20 26 21 29 21 21 21
internal_value=0.00960301 0.393028 0.443803 0.434423 0.441367 0.437198 0.437008 0.436819
internal_weight=232 183 159 133 112 92 71 42
internal_count=232 183 159 133 112 92 71 42
is_linear=0
shrinkage=0.05


Tree=10
num_leaves=9
num_cat=0
split_feature=42 38 9 35 37 10 22 38
split_gain=44118.1 650.043 23.76 14.2749 3.34103 0.0094652 0.00137084 0.00162054
threshold=1.0000000180025095e-35 -0.38374771177768702 88.83499908447267 2.1350001096725468 -0.34529471397399897 -0.0022172720637172456 0.0166090177372098 -0.022382828406989571
decision_type=2 2 2 2 2 2 2 2
left_child=1 -1 3 -3 -5 -6 7 -7
right_child=-2 2 -4 4 5 6 -8 -9
leaf_value=0.11834200739860534 -1.3512547492980957 0.37380834817886355 0.46679669022560122 0.43817552089691159 0.41655523560263896 0.41582121019778051 0.41504039114171809 0.41524504514840938
leaf_weight=20 46 20 24 20 22 23 22 26
leaf_count=20 46 20 24 20 22 23 22 26
internal_value=0.0282838 0.386808 0.421007 0.412745 0.419636 0.415649 0.415368 0.415515
internal_weight=223 177 157 133 113 93 71 49
internal_count=223 177 157 133 113 93 71 49
is_linear=0
shrinkage=0.05


Tree=11
num_leaves=9
num_cat=0
split_feature=42 37 38 37 27 15 21 34
split_gain=40667.5 761.279 38.0944 0.143077 0.0205355 0.0178152 0.0057117 0.00402858
threshold=1.0000000180025095e-35 -0.5562365949153899 -0.38374771177768702 -0.41248673200607294 14.339999675750734 31.000000000000004 23.355000495910648 -7.840822581783867e-05
decision_type=2 2 2 2 2 2 2 2
left_child=1 -1 -3 -4 5 6 -5 -8
right_child=-2 2 3 4 -6 -7 7 -9
leaf_value=0.09031615474007347 -1.2836919784545899 0.46355401122051743 0.39031948501413521 0.39538414239883424 0.39326432347297668 0.39631240822020031 0.39487784604231518 0.39400873263676961
leaf_weight=22 47 23 22 20 20 21 24 30
leaf_count=22 47 23 22 20 20 21 24 30
internal_value=0.0274894 0.366091 0.40401 0.394014 0.394721 0.395027 0.394662 0.394395
internal_weight=229 182 160 137 115 95 74 54
internal_count=229 182 160 137 115 95 74 54
is_linear=0
shrinkage=0.05


Tree=12
num_leaves=8
num_cat=0
split_feature=42 37 12 4 21 37 39
split_gain=39565.8 491.475 5.57119 4.33243 2.50776 0.0971436 0.0253367
threshold=1.0000000180025095e-35 -0.5562365949153899 30.451250076293949 0.44948086142539984 23.770000457763675 -0.391519084572792 0.12550450861454013
decision_type=2 2 2 2 2 2 2
left_child=1 -1 3 4 -3 -4 -7
right_child=-2 2 5 -5 -6 6 -8
leaf_value=0.1303263458338651 -1.21950740814209 0.39779136538505555 0.37093957901000979 0.40993773174285891 0.37460996508598332 0.37586183197358075 0.37378837603789111
leaf_weight=22 52 20 20 25 28 34 26
leaf_count=22 52 20 20 25 28 34 26
internal_value=-0.0085342 0.351298 0.383072 0.39306 0.384269 0.373957 0.374963
internal_weight=227 175 153 73 48 80 60
internal_count=227 175 153 73 48 80 60
is_linear=0
shrinkage=0.05


Tree=13
num_leaves=10
num_cat=0
split_feature=42 37 38 11 17 37 25 40 0
split_gain=32801 971.798 23.7773 0.0850403 0.0296387 0.0176013 0.00322308 0.0012693 3.63798e-12
threshold=1.0000000180025095e-35 -0.5562365949153899 -0.36858513951301569 88.125000000000014 30.675000190734867 -0.34529471397399897 0.12735945731401446 -0.18374563753604886 1789.6916503906252
decision_type=2 2 2 2 2 2 2 2 2
left_child=1 -1 -3 4 5 -4 -7 -8 -2
right_child=8 2 3 -5 -6 6 7 -9 -10
leaf_value=0.01559641983198083 -1.1585320472717286 0.41243639332907539 0.35414137482643127 0.3524121975898743 0.35718345712212957 0.3563265171918002 0.35531637343493377 0.35584216614564262 -1.1585320472717286
leaf_weight=23 27 21 20 20 34 22 22 24 20
leaf_count=23 27 21 20 20 34 22 22 24 20
internal_value=0.0216332 0.319847 0.362778 0.355434 0.35593 0.355445 0.355829 0.355591 -1.15853
internal_weight=233 186 163 142 122 88 68 46 47
internal_count=233 186 163 142 122 88 68 46 47
is_linear=0
shrinkage=0.05


Tree=14
num_leaves=9
num_cat=0
split_feature=42 38 37 37 4 40 14 25
split_gain=32075.8 598.123 45.4284 0.110278 0.0719304 0.0197112 0.0178984 0.0138406
threshold=1.0000000180025095e-35 -0.4046053141355514 -0.52892550826072682 -0.391519084572792 -1.1369001269340513 0.32745063304901129 30.355000495910648 0.13738178461790088
decision_type=2 2 2 2 2 2 2 2
left_child=1 -1 -3 -4 -5 6 7 -6
right_child=-2 2 3 4 5 -7 -8 -9
leaf_value=0.079823320110638946 -1.1006053924560548 0.41855479001998908 0.33430884122848514 0.34097721122560049 0.33858250890459335 0.33662761875561309 0.33945840358734136 0.33680709133977477
leaf_weight=24 52 20 20 21 21 28 20 23
leaf_count=24 52 20 20 21 21 28 20 23
internal_value=-0.00884886 0.311893 0.348296 0.337731 0.338337 0.337734 0.338218 0.337654
internal_weight=229 177 153 133 113 92 64 44
internal_count=229 177 153 133 113 92 64 44
is_linear=0
shrinkage=0.05


Tree=15
num_leaves=9
num_cat=0
split_feature=42 37 38 37 29 14 35 28
split_gain=29190.2 978.802 26.7835 0.105926 0.0197776 0.0126564 0.0099778 0.00238063
threshold=1.0000000180025095e-35 -0.54929873347282399 -0.36858513951301569 -0.42138743400573725 13.184999942779543 30.404999732971195 2.1650000810623173 -0.0022818772122263904
decision_type=2 2 2 2 2 2 2 2
left_child=1 -1 -3 -4 5 6 -5 -8
right_child=-2 2 3 4 -6 -7 7 -9
leaf_value=-0.042218173742294314 -1.0455751419067383 0.37981735684654933 0.31710325121879579 0.32200657248497011 0.31959826111793521 0.32244566202163699 0.32033127943674722 0.32097416652573485
leaf_weight=20 53 22 20 20 20 20 24 36
leaf_count=20 53 22 20 20 20 20 24 36
internal_value=-0.0129267 0.28779 0.328531 0.320472 0.321034 0.321321 0.321039 0.320717
internal_weight=235 182 162 140 120 100 80 60
internal_count=235 182 162 140 120 100 80 60
is_linear=0
shrinkage=0.05


Tree=16
num_leaves=8
num_cat=0
split_feature=42 38 9 22 41 30 45
split_gain=26286.1 540.197 67.6372 24.8556 4.40982 0.729224 0.0895555
threshold=1.0000000180025095e-35 -0.43166750669479365 88.83499908447267 0.015852871816605333 0.36060592532157904 2.1919167041778569 73.748279571533217
decision_type=2 2 2 2 2 2 2
left_child=1 -1 3 4 5 -3 -7
right_child=-2 2 -4 -5 -6 6 -8
leaf_value=0.038853902816772465 -0.99329643249511723 0.31732957482337953 0.39386733718540357 0.26683018584000434 0.33541337490081791 0.30896595239639285 0.30483240202853557
leaf_weight=20 52 20 23 38 20 20 38
leaf_count=20 52 20 23 38 20 20 38
internal_value=-0.00371442 0.283762 0.314568 0.301157 0.314467 0.309097 0.306258
internal_weight=231 179 159 136 98 78 58
internal_count=231 179 159 136 98 78 58
is_linear=0
shrinkage=0.05


Tree=17
num_leaves=9
num_cat=0
split_feature=14 33 10 4 38 37 22 34
split_gain=12052.2 13769.8 629.641 19.5824 38.7783 10.4455 0.0292608 0.0068111
threshold=30.479999542236332 3.2749999761581425 0.0033858426613733177 -1.3269167542457578 -0.35095916688442225 -0.37539613246917719 0.015852871816605333 -0.00031641084933653468
decision_type=2 2 2 2 2 2 2 2
left_child=3 2 -2 -1 -5 -6 7 -7
right_child=1 -3 -4 4 5 6 -8 -9
leaf_value=0.26034057974815367 -0.69653470277786256 0.33739653655460905 -1.0447420429539036 0.37521332559131443 0.33135890126228335 0.29017889996369683 0.29185960888862611 0.28898769120375317
leaf_weight=20 20 35 37 21 20 24 20 24
leaf_count=20 20 35 37 21 20 24 20 24
internal_value=-0.00600276 -0.443231 -0.922564 0.305819 0.314164 0.299595 0.290253 0.289583
internal_weight=221 92 57 129 109 88 68 48
internal_count=221 92 57 129 109 88 68 48
is_linear=0
shrinkage=0.05


Tree=18
num_leaves=9
num_cat=0
split_feature=14 33 1 25 1 4 9 13
split_gain=10216.4 13427.1 416.398 61.3752 30.7563 17.378 14.4376 5.62107
threshold=30.479999542236332 3.2250000238418584 195.91080474853518 0.13273241370916369 85.529296875000014 0.5683276653289796 87.15000152587892 0.094618733972311034
decision_type=2 2 2 2 2 2 2 2
left_child=5 2 3 -2 -3 6 7 -1
right_child=1 4 -4 -5 -6 -7 -8 -9
leaf_value=0.27555595397949223 -0.87334219891092058 0.26998171125139508 -0.65289545297622686 -0.99310491085052499 0.35555577278137207 0.3222579821944237 0.24189916372299197 0.30350781711372171
leaf_weight=35 23 21 20 20 21 32 20 37
leaf_count=35 23 21 20 20 21 32 20 37
internal_value=-0.0167952 -0.37972 -0.841379 -0.929046 0.312769 0.29052 0.279481 0.28992
internal_weight=229 105 63 43 42 124 92 72
internal_count=229 105 63 43 42 124 92 72
is_linear=0
shrinkage=0.05


Tree=19
num_leaves=9
num_cat=0
split_feature=42 37 38 20 10 6 4 34
split_gain=17862.7 591.096 40.373 5.5894 1.11425 0.479758 0.343621 0.0695815
threshold=1.0000000180025095e-35 -0.54929873347282399 -0.4046053141355514 10.449999809265138 0.0041905166581273088 87.969375610351577 -0.76314499974250782 0.00032766163349151617
decision_type=2 2 2 2 2 2 2 2
left_child=1 -1 -3 -4 -2 6 -5 -8
right_child=4 2 3 5 -6 -7 7 -9
leaf_value=-0.014489095211029052 -0.8628721010117304 0.33858000778016595 0.28721869425340135 0.26683775243305025 -0.84738700940058787 0.25267261028289795 0.26104340431017753 0.25797249998365129
leaf_weight=20 21 21 22 21 26 20 39 35
leaf_count=20 21 21 22 21 26 20 39 35
internal_value=0.0126827 0.241607 0.274024 0.264128 -0.854306 0.259711 0.261193 0.259591
internal_weight=225 178 158 137 47 115 95 74
internal_count=225 178 158 137 47 115 95 74
is_linear=0
shrinkage=0.05


Tree=20
num_leaves=9
num_cat=0
split_feature=42 7 40 37 38 10 1 45
split_gain=16902.4 169.408 110.449 69.4915 17.485 1.07213 0.716654 0.109299
threshold=1.0000000180025095e-35 0.32203742861747747 0.50902786850929271 -0.47925095260143274 -0.20082712173461911 0.0040502639021724471 195.91080474853518 74.138305664062514
decision_type=2 2 2 2 2 2 2 2
left_child=1 2 3 -1 -5 -2 7 -6
right_child=5 -3 -4 4 6 -7 -8 -9
leaf_value=0.36056119487399152 -0.82029147375197642 0.104821515083313 0.15612987930124456 0.2960019173445525 0.24369799068995884 -0.8053462215832301 0.25700918798861294 0.24821427641688168
leaf_weight=21 21 20 22 27 21 28 23 37
leaf_count=21 21 20 22 27 21 28 23 37
internal_value=0.00696412 0.241567 0.259679 0.277338 0.261156 -0.811751 0.249541 0.246579
internal_weight=220 171 151 129 108 49 81 58
internal_count=220 171 151 129 108 49 81 58
is_linear=0
shrinkage=0.05


Tree=21
num_leaves=10
num_cat=0
split_feature=42 37 38 20 10 41 14 40 4
split_gain=14266.9 615.127 38.5255 4.4954 1.14532 0.362225 0.148789 0.0468961 0.0141979
threshold=1.0000000180025095e-35 -0.5562365949153899 -0.4046053141355514 10.389999866485597 0.0040186296682804832 0.40257126092910772 30.494999885559086 0.30096256732940679 -0.24086394906044004
decision_type=2 2 2 2 2 2 2 2 2
left_child=1 -1 -3 -4 -2 6 7 8 -5
right_child=4 2 3 5 -6 -7 -8 -9 -10
leaf_value=-0.039578560420445039 -0.78091279029846195 0.31143932910192584 0.26066614270210264 0.23750758767127991 -0.76499766203073361 0.22889868736267094 0.23341819163291688 0.23926871098004857 0.23564614454905192
leaf_weight=21 20 21 20 20 26 20 31 26 21
leaf_count=21 20 21 20 20 26 20 31 26 21
internal_value=0.0139285 0.214756 0.248347 0.238746 -0.771917 0.235031 0.236282 0.237608 0.236554
internal_weight=226 180 159 138 46 118 98 67 41
internal_count=226 180 159 138 46 118 98 67 41
is_linear=0
shrinkage=0.05


Tree=22
num_leaves=9
num_cat=0
split_feature=42 38 27 38 30 2 4 12
split_gain=12720 497.342 49.5486 9.01372 2.22354 0.901872 0.204185 0.0469547
threshold=1.0000000180025095e-35 -0.38374771177768702 14.494999885559084 -0.15514899045228955 2.1900833845138554 863.50000000000011 0.57537329196929943 30.518208503723148
decision_type=2 2 2 2 2 2 2 2
left_child=1 -1 3 -3 -5 -2 7 -6
right_child=5 2 -4 4 6 -7 -8 -9
leaf_value=0.0040184895197550455 -0.7396460966630416 0.19133078217506411 0.29130417289155902 0.24140865504741671 0.22711521478799673 -0.72563073436419179 0.21994879453078561 0.2240138219750446
leaf_weight=27 22 20 33 24 26 24 23 23
leaf_count=27 22 20 33 24 26 24 23 23
internal_value=0.00797633 0.201466 0.237246 0.221867 0.228229 -0.732334 0.223835 0.225659
internal_weight=222 176 149 116 96 46 72 49
internal_count=222 176 149 116 96 46 72 49
is_linear=0
shrinkage=0.05


Tree=23
num_leaves=9
num_cat=0
split_feature=42 38 37 38 10 29 4 16
split_gain=14017.6 171.676 147.464 3.47147 1.08852 0.79939 0.355656 0.217013
threshold=1.0000000180025095e-35 -0.4046053141355514 -0.52892550826072682 -0.16425155103206632 0.0038353705313056712 13.469999790191652 0.3284620493650437 0.0011762449285015466
decision_type=2 2 2 2 2 2 2 2
left_child=1 -1 -3 -4 -2 6 7 -5
right_child=4 2 3 5 -6 -7 -8 -9
leaf_value=0.085835454680702916 -0.70602063894271849 0.36179092645645144 0.23378285603089766 0.21368073878749724 -0.69147219525443182 0.2029454153776169 0.20967633724212648 0.22001370886961619
leaf_weight=22 20 20 22 31 36 20 30 24
leaf_count=22 20 20 22 31 36 20 30 24
internal_value=-0.0110772 0.216101 0.235596 0.215723 -0.696668 0.211939 0.214056 0.216444
internal_weight=225 169 147 127 56 105 85 55
internal_count=225 169 147 127 56 105 85 55
is_linear=0
shrinkage=0.05


Tree=24
num_leaves=10
num_cat=0
split_feature=42 37 38 0 10 27 4 36 11
split_gain=10994 708.646 41.9887 2.58035 0.798794 0.697179 0.238349 0.209053 0.0407062
threshold=1.0000000180025095e-35 -0.54929873347282399 -0.3755293190479278 1227.470886230469 0.0040186296682804832 14.585000038146974 0.35645183920860296 0.016834734007716182 83.895000457763686
decision_type=2 2 2 2 2 2 2 2 2
left_child=1 -1 -3 -4 -2 6 7 8 -5
right_child=4 2 3 5 -6 -7 -8 -9 -10
leaf_value=-0.095339404968988337 -0.66909545035589313 0.28160416662693022 0.21973768418485468 0.20432563543319704 -0.65629091920523808 0.19281109684989567 0.19938321262598038 0.20890396356582644 0.20120891115882178
leaf_weight=21 21 20 22 20 29 21 32 20 22
leaf_count=21 21 20 22 20 29 21 32 20 22
internal_value=-0.00657356 0.177442 0.213929 0.204049 -0.661669 0.201048 0.202888 0.204697 0.202693
internal_weight=228 178 157 137 50 115 94 62 42
internal_count=228 178 157 137 50 115 94 62 42
is_linear=0
shrinkage=0.05


Tree=25
num_leaves=8
num_cat=0
split_feature=42 37 38 5 10 37 45
split_gain=9690.61 637.608 34.4155 2.09647 0.930112 0.511461 0.132344
threshold=1.0000000180025095e-35 -0.54929873347282399 -0.3755293190479278 1304.5000000000002 0.0040186296682804832 -0.24382806569337842 76.532455444335952
decision_type=2 2 2 2 2 2 2
left_child=1 -1 -3 -4 -2 -5 -7
right_child=4 2 3 5 -6 6 -8
leaf_value=-0.097495799064636235 -0.63648405756269189 0.26385532081127167 0.20381174451775022 0.18398351711886271 -0.62256380660193311 0.18957141945439002 0.19397366486097639
leaf_weight=20 21 20 36 28 28 31 38
leaf_count=20 21 20 36 28 28 31 38
internal_value=-0.0078121 0.167998 0.202703 0.193507 -0.62853 0.189683 0.191996
internal_weight=222 173 153 133 49 97 69
internal_count=222 173 153 133 49 97 69
is_linear=0
shrinkage=0.05


Tree=26
num_leaves=10
num_cat=0
split_feature=42 38 37 2 2 15 22 4 22
split_gain=8156.77 665.425 62.2138 1.79782 0.565079 0.254236 0.243608 0.0659124 0.0845878
threshold=1.0000000180025095e-35 -0.38374771177768702 -0.5058416575193404 759.00000000000011 863.50000000000011 32.050001144409187 -0.018447322770953175 0.40600562095642095 0.0072735953144729146
decision_type=2 2 2 2 2 2 2 2 2
left_child=1 -1 -3 -4 -2 6 -5 8 -8
right_child=4 2 3 5 -6 -7 7 -9 -10
leaf_value=-0.086879218618075058 -0.60335563659667979 0.27868812859058378 0.19741548470088416 0.17801011475649747 -0.59207987976074217 0.17635119140148164 0.18329401101384846 0.18165152370929719 0.18755146920681001
leaf_weight=24 20 20 21 22 25 20 28 20 20
leaf_count=24 20 20 21 22 25 20 28 20 20
internal_value=0.00329461 0.15768 0.19655 0.18401 -0.597091 0.18145 0.182583 0.184063 0.185068
internal_weight=220 175 151 131 45 110 90 68 48
internal_count=220 175 151 131 45 110 90 68 48
is_linear=0
shrinkage=0.05


Tree=27
num_leaves=9
num_cat=0
split_feature=42 38 37 20 10 24 13 1
split_gain=8535.82 292.767 138.178 1.88644 1.39089 0.601226 0.251397 0.105764
threshold=1.0000000180025095e-35 -0.38374771177768702 -0.52561199665069569 10.449999809265138 0.0033858426613733177 12.976250171661379 0.13089587539434436 23.769636154174808
decision_type=2 2 2 2 2 2 2 2
left_child=1 -1 -3 -4 -2 6 7 -5
right_child=4 2 3 5 -6 -7 -8 -9
leaf_value=0.014924074102331092 -0.57753266379946755 0.31612369954586028 0.18907706558704376 0.17516007295676642 -0.56075500965118408 0.1651940729307092 0.17920343220233917 0.17113230289557044
leaf_weight=27 21 20 20 28 30 23 20 39
leaf_count=27 21 20 20 28 30 23 20 39
internal_value=0.00227326 0.166492 0.193775 0.174952 -0.567663 0.172383 0.174284 0.172816
internal_weight=228 177 150 130 51 110 87 67
internal_count=228 177 150 130 51 110 87 67
is_linear=0
shrinkage=0.05


Tree=28
num_leaves=10
num_cat=0
split_feature=42 39 21 37 38 10 19 4 12
split_gain=7372.27 344.291 177.536 138.131 48.1135 2.23256 0.535774 0.257569 0.0985145
threshold=1.0000000180025095e-35 -0.50388410687446583 23.149999618530277 -0.49053911864757532 -0.3755293190479278 -0.001084745454136282 0.76165485382080089 0.40600562095642095 30.217374801635746
decision_type=2 2 2 2 2 2 2 2 2
left_child=1 -1 -3 -4 -5 -6 -2 8 -7
right_child=6 2 3 4 5 7 -8 -9 -10
leaf_value=-0.038574352860450745 -0.53320907812852125 0.041441552042961127 0.31893883886791413 0.25129239976406098 0.1816254532337189 0.1674512115391818 -0.54381097230044284 0.15865969707568486 0.16324692148911327
leaf_weight=20 26 20 21 20 20 22 22 24 38
leaf_count=20 26 20 21 20 20 22 22 24 38
internal_value=0.0140828 0.157344 0.181091 0.200353 0.18027 0.166612 -0.538068 0.163037 0.164788
internal_weight=233 185 165 145 124 104 48 84 60
internal_count=233 185 165 145 124 104 48 84 60
is_linear=0
shrinkage=0.05


Tree=29
num_leaves=9
num_cat=0
split_feature=42 37 12 36 21 1 31 37
split_gain=6747.42 673.037 8.07513 5.06802 4.3999 2.85725 0.70613 0.147559
threshold=1.0000000180025095e-35 -0.5562365949153899 30.451250076293949 0.24237766116857531 23.97500038146973 195.91080474853518 0.05300413444638253 -0.30713698267936701
decision_type=2 2 2 2 2 2 2 2
left_child=1 -1 3 4 -3 7 -2 -4
right_child=6 2 5 -5 -6 -7 -8 -9
leaf_value=-0.13620554685592653 -0.50672387090222593 0.18634909428656102 0.14961844265460969 0.20146026015281679 0.15835386419296266 0.17211751399501679 -0.51860307129946626 0.15506119294600054
leaf_weight=20 29 32 20 24 25 31 22 33
leaf_count=20 29 32 20 24 25 31 22 33
internal_value=-0.00265371 0.137719 0.170922 0.182186 0.17407 0.16006 -0.511848 0.153007
internal_weight=236 185 165 81 57 84 51 53
internal_count=236 185 165 81 57 84 51 53
is_linear=0
shrinkage=0.05


Tree=30
num_leaves=10
num_cat=0
split_feature=14 33 38 38 37 15 41 4 39
split_gain=3306.43 4864.81 455.797 105.446 45.8006 5.53187 0.536792 0.199474 0.146655
threshold=30.479999542236332 3.2250000238418584 -0.44138847291469568 -0.4046053141355514 -0.28168553113937372 30.894999504089359 0.2795384824275971 0.35645183920860296 0.056456588208675391
decision_type=2 2 2 2 2 2 2 2 2
left_child=3 2 -2 -1 -3 6 7 8 -5
right_child=1 4 -4 5 -6 -7 -8 -9 -10
leaf_value=0.27077306509017945 -0.69601342791602727 0.2488663560152054 -0.40290227267477247 0.15582208292824884 0.14540907559187519 0.17729444049653553 0.14163838454655239 0.14681301474571229 0.1498395335674286
leaf_weight=24 21 20 36 21 23 21 21 20 20
leaf_count=24 21 20 36 21 23 21 21 20 20
internal_value=0.00705916 -0.20799 -0.510891 0.176389 0.193529 0.154397 0.148533 0.150907 0.152904
internal_weight=227 100 57 127 43 103 82 61 41
internal_count=227 100 57 127 43 103 82 61 41
is_linear=0
shrinkage=0.05


Tree=31
num_leaves=9
num_cat=0
split_feature=42 37 38 0 37 7 24 29
split_gain=5232.32 611.013 45.009 2.62142 1.24279 0.567741 0.342435 0.0959162
threshold=1.0000000180025095e-35 -0.54929873347282399 -0.36858513951301569 1229.4708251953127 -0.36706212162971491 0.20714247226715091 3.2723749876022343 11.414999961853029
decision_type=2 2 2 2 2 2 2 2
left_child=1 -1 -3 -4 -5 -2 -6 -8
right_child=5 2 3 4 6 -7 7 -9
leaf_value=-0.13525456360408239 -0.46782102108001711 0.22206299841403962 0.15797393265224638 0.12743459939956667 0.14603817600470323 -0.45694539229075115 0.14094017041035187 0.13717965324719747
leaf_weight=21 20 20 21 20 26 30 39 30
leaf_count=21 20 20 21 20 26 30 39 30
internal_value=-0.00964174 0.117944 0.152029 0.141729 0.138763 -0.461296 0.141148 0.139305
internal_weight=227 177 156 136 115 50 95 69
internal_count=227 177 156 136 115 50 95 69
is_linear=0
shrinkage=0.05


Tree=32
num_leaves=10
num_cat=0
split_feature=42 38 37 20 24 21 33 29 40
split_gain=5090.09 543.555 120.506 4.29296 1.01289 0.596543 0.332593 0.26382 0.12759
threshold=1.0000000180025095e-35 -0.38374771177768702 -0.52892550826072682 10.635000228881838 12.938499927520754 23.515000343322757 2.3299999237060551 3.1800000667572026 -0.17037732154130933
decision_type=2 2 2 2 2 2 2 2 2
left_child=1 -1 -3 -4 5 -5 -2 -7 -9
right_child=6 2 3 4 -6 7 -8 8 -10
leaf_value=-0.095570052146911624 -0.43399409597570249 0.26380396945910023 0.15751988058504851 0.14328031539916994 0.12392869648479282 0.13802264165878295 -0.44208796183268229 0.12863847732543945 0.13390750664251824
leaf_weight=25 22 22 23 22 21 25 30 20 27
leaf_count=25 22 22 23 22 21 25 30 20 27
internal_value=-0.00160172 0.121248 0.155126 0.1378 0.133857 0.136075 -0.438664 0.133873 0.131665
internal_weight=237 185 160 138 115 94 52 72 47
internal_count=237 185 160 138 115 94 52 72 47
is_linear=0
shrinkage=0.05


Tree=33
num_leaves=9
num_cat=0
split_feature=42 40 37 38 2 37 6 38
split_gain=5032.03 267.498 86.812 47.9094 3.08222 0.457303 0.290385 0.109917
threshold=1.0000000180025095e-35 -0.6304534077644347 -0.48361994326114649 -0.36858513951301569 778.00000000000011 -0.44221931695938105 84.364166259765639 0.090006638318300261
decision_type=2 2 2 2 2 2 2 2
left_child=1 -1 -3 -4 -5 -2 -6 -8
right_child=5 2 3 4 6 -7 7 -9
leaf_value=-0.030650105079015097 -0.41116878032684334 0.2568616104125977 0.21411769730704175 0.1488529852458409 0.13098606533474394 -0.42069705514346856 0.12317571401596071 0.12782869447361342
leaf_weight=21 20 20 21 21 36 34 30 22
leaf_count=21 20 20 21 21 36 34 30 22
internal_value=0.0036084 0.136485 0.159884 0.144965 0.131641 -0.417168 0.127534 0.125144
internal_weight=225 171 150 130 109 54 88 52
internal_count=225 171 150 130 109 54 88 52
is_linear=0
shrinkage=0.05


Tree=34
num_leaves=10
num_cat=0
split_feature=42 40 31 37 38 10 37 33 1
split_gain=3792.21 280.1 95.1973 186.709 44.1896 1.83965 0.390229 0.267224 0.197524
threshold=1.0000000180025095e-35 0.61263108253479015 0.040139943361282356 -0.5058416575193404 -0.3755293190479278 -0.0024378255475312467 -0.29335945844650263 2.3149999380111699 191.32710266113284
decision_type=2 2 2 2 2 2 2 2 2
left_child=1 2 -1 -4 -5 -6 -7 -2 -8
right_child=7 -3 3 4 5 6 8 -9 -10
leaf_value=0.046464137803940549 -0.39151460051536563 -0.04889049189431327 0.30193526118993763 0.20413070142269138 0.13592579692602158 0.11288740694522859 0.12341239838039174 -0.3993401279052099 0.11733211929147894
leaf_weight=21 20 21 20 20 20 20 34 24 22
leaf_count=21 20 21 20 20 20 20 34 24 22
internal_value=0.0198626 0.122607 0.145546 0.160845 0.136519 0.122433 0.118883 -0.395783 0.121024
internal_weight=222 178 157 136 116 96 76 44 56
internal_count=222 178 157 136 116 96 76 44 56
is_linear=0
shrinkage=0.05


Tree=35
num_leaves=10
num_cat=0
split_feature=42 10 25 37 38 37 38 1 1
split_gain=3806.07 302.989 152.231 167.544 23.8277 1.47305 1.14534 0.422876 0.123854
threshold=1.0000000180025095e-35 0.0079025281593203562 0.84583279490470897 -0.54929873347282399 -0.16425155103206632 -0.18974364548921582 0.0090623255819082277 189.99966430664065 83.318050384521499
decision_type=2 2 2 2 2 2 2 2 2
left_child=1 2 3 -1 -5 -6 -7 -2 -8
right_child=7 -3 -4 4 5 6 8 -9 -10
leaf_value=0.28525752961635592 -0.37168816942157168 -0.074291514754295351 0.0038951227068901063 0.16939232570153695 0.10477165527965711 0.12944586038589478 0.11743686348199844 -0.38090205192565918 0.11210927844047547
leaf_weight=20 33 20 20 27 23 20 24 20 20
leaf_count=20 33 20 20 27 23 20 24 20 20
internal_value=-0.00420088 0.108794 0.132571 0.151777 0.128359 0.115625 0.119525 -0.375165 0.115015
internal_weight=227 174 154 134 114 87 64 53 44
internal_count=227 174 154 134 114 87 64 53 44
is_linear=0
shrinkage=0.05


Tree=36
num_leaves=10
num_cat=0
split_feature=42 41 13 7 37 38 33 7 28
split_gain=3537.94 216.898 63.8143 52.7113 44.8596 28.9348 2.11593 0.422784 0.152579
threshold=1.0000000180025095e-35 0.54126089811325084 0.097635764628648772 0.25971575081348425 -0.42138743400573725 -0.20082712173461911 3.2350000143051152 0.20152632147073749 0.0018841412384063008
decision_type=2 2 2 2 2 2 2 2 2
left_child=1 2 3 -1 -4 -6 -7 -2 -8
right_child=7 -3 4 -5 5 6 8 -9 -10
leaf_value=0.13020626817430769 -0.3631550419330597 -0.046457526087760929 0.2155925875902176 0.016786399185657504 0.17937743234634401 0.12802142775975742 0.10734254469474157 -0.3539421623403376 0.11325575321912768
leaf_weight=21 20 20 20 20 25 26 24 33 20
leaf_count=21 20 20 20 20 25 26 24 33 20
internal_value=0.000715711 0.108563 0.128437 0.0748795 0.147532 0.133203 0.116713 -0.357419 0.11003
internal_weight=229 176 156 41 115 95 70 53 44
internal_count=229 176 156 41 115 95 70 53 44
is_linear=0
shrinkage=0.05


Tree=37
num_leaves=10
num_cat=0
split_feature=42 38 37 20 24 27 40 37 41
split_gain=2926.13 335.255 50.2158 2.19755 1.76409 0.655933 0.485234 0.319391 0.116043
threshold=1.0000000180025095e-35 -0.4046053141355514 -0.52561199665069569 10.449999809265138 12.976250171661379 3.4400000572204594 0.44758136570453649 -0.28168553113937372 -0.030181315727531906
decision_type=2 2 2 2 2 2 2 2 2
left_child=1 -1 -3 -4 5 -5 8 -2 -7
right_child=7 2 3 4 -6 6 -8 -9 -10
leaf_value=-0.087901063398881402 -0.33425488363612788 0.19466443002223968 0.12458315605208987 0.11686603498458864 0.09389375448226929 0.10683270463576684 0.11389851421117783 -0.34230544481958664 0.10183543591272265
leaf_weight=22 22 20 21 25 21 26 20 28 21
leaf_count=22 22 20 21 25 21 26 20 28 21
internal_value=-0.00121621 0.0946778 0.120761 0.10973 0.10697 0.109955 0.107376 -0.338763 0.1046
internal_weight=226 176 154 134 113 92 67 50 47
internal_count=226 176 154 134 113 92 67 50 47
is_linear=0
shrinkage=0.05


Tree=38
num_leaves=9
num_cat=0
split_feature=42 41 28 37 38 21 38 37
split_gain=2938.34 236.313 85.1288 66.5729 38.7805 1.38577 1.51619 0.316999
threshold=1.0000000180025095e-35 -0.49077536165714258 0.0096319881267845648 -0.5058416575193404 -0.35095916688442225 25.039999961853031 0.0090623255819082277 -0.44221931695938105
decision_type=2 2 2 2 2 2 2 2
left_child=1 -1 3 -3 -5 6 -6 -2
right_child=7 2 -4 4 5 -7 -8 -9
leaf_value=-0.051212339556735501 -0.31669682207561678 0.21959318548440931 0.024873370528221132 0.17979943210428412 0.11915488672256469 0.095890414714813244 0.10321548452248444 -0.32451006103964414
leaf_weight=23 21 20 20 22 25 26 37 34
leaf_count=23 21 20 20 22 25 26 37 34
internal_value=-0.00318397 0.0980233 0.120906 0.13568 0.120423 0.105579 0.109643 -0.321527
internal_weight=228 173 150 130 110 88 62 55
internal_count=228 173 150 130 110 88 62 55
is_linear=0
shrinkage=0.05


Tree=39
num_leaves=9
num_cat=0
split_feature=42 39 34 37 38 6 7 28
split_gain=2375.01 273.078 60.4215 73.3492 22.7812 0.547691 0.42 0.225677
threshold=1.0000000180025095e-35 -0.50388410687446583 0.0020643101306632165 -0.47925095260143274 -0.16425155103206632 86.907207489013686 0.20785063505172732 0.0018841412384063008
decision_type=2 2 2 2 2 2 2 2
left_child=1 -1 3 -3 -5 7 -2 -6
right_child=6 2 -4 4 5 -7 -8 -9
leaf_value=-0.082531077265739439 -0.31297843575477602 0.21503045186400416 0.042031283855438237 0.14791725662446792 0.098097484111785899 0.093215085203583181 -0.30341868047361026 0.10504102896560322
leaf_weight=20 20 20 25 31 25 37 27 22
leaf_count=20 20 20 25 31 25 37 27 22
internal_value=0.00901599 0.0916583 0.113432 0.126654 0.111285 0.0977655 -0.307487 0.101348
internal_weight=227 180 160 135 115 84 47 47
internal_count=227 180 160 135 115 84 47 47
is_linear=0
shrinkage=0.05


Tree=40
num_leaves=10
num_cat=0
split_feature=42 37 38 37 39 25 26 38 19
split_gain=2187.94 414.439 55.9252 4.45961 1.229 0.864264 0.519021 0.38983 0.110706
threshold=1.0000000180025095e-35 -0.5562365949153899 -0.35095916688442225 -0.43728499114513392 -0.30547857284545893 0.84294638037681591 3.1099998950958256 -0.44138847291469568 1.222580671310425
decision_type=2 2 2 2 2 2 2 2 2
left_child=1 -1 -3 -4 -5 6 -6 -2 -8
right_child=7 2 3 4 5 -7 8 -9 -10
leaf_value=-0.13307166553678967 -0.28482850506192164 0.18149014919996265 0.070810284146240784 0.10711980819702149 0.098032043576240541 0.10276785582304 0.085673209726810459 -0.29359570145606995 0.090290386934538155
leaf_weight=21 21 20 21 20 20 20 20 32 37
leaf_count=21 21 20 21 20 20 20 20 32 37
internal_value=-0.00793769 0.0756141 0.103351 0.0920262 0.0958342 0.0935073 0.0911019 -0.290122 0.0886703
internal_weight=232 179 158 138 117 97 77 53 57
internal_count=232 179 158 138 117 97 77 53 57
is_linear=0
shrinkage=0.05


Tree=41
num_leaves=10
num_cat=0
split_feature=42 38 37 2 29 18 7 25 25
split_gain=2059.73 404.097 48.4501 2.63722 1.74676 0.509421 0.408854 0.259123 0.29684
threshold=1.0000000180025095e-35 -0.38374771177768702 -0.48361994326114649 761.00000000000011 3.1250000000000004 17.156416893005375 0.19759198278188708 0.13685540109872821 0.51522740721702587
decision_type=2 2 2 2 2 2 2 2 2
left_child=1 -1 -3 -4 -5 -6 -2 -7 -9
right_child=6 2 3 4 5 7 -8 8 -10
leaf_value=-0.11734800686438879 -0.28257837772369382 0.17633597329258921 0.10921809613704681 0.10273255735635758 0.093318230211734784 0.088795376959301175 -0.27366213930977717 0.077528777420520778 0.085701230764389041
leaf_weight=24 20 20 20 20 20 21 36 20 25
leaf_count=24 20 20 20 20 20 21 36 20 25
internal_value=-0.0138489 0.0727856 0.10404 0.092565 0.0894229 0.0863276 -0.276847 0.0842092 0.082069
internal_weight=226 170 146 126 106 86 56 66 45
internal_count=226 170 146 126 106 86 56 66 45
is_linear=0
shrinkage=0.05


Tree=42
num_leaves=9
num_cat=0
split_feature=42 37 38 37 24 24 10 24
split_gain=1792.38 524.923 45.6551 2.75652 2.37212 1.16316 0.46328 0.361235
threshold=1.0000000180025095e-35 -0.52892550826072682 -0.36858513951301569 -0.391519084572792 12.656666755676271 3.3074582815170293 0.0036676852032542233 9.2399168014526385
decision_type=2 2 2 2 2 2 2 2
left_child=1 -1 -3 -4 5 -5 -2 -7
right_child=6 2 3 4 -6 7 -8 -9
leaf_value=-0.16886868945189887 -0.26875221848487857 0.1653567045927048 0.069723211211108027 0.093074854034366036 0.10182901908611429 0.076485278554584674 -0.25910821033246595 0.084385957167698797
leaf_weight=21 20 21 21 33 29 23 33 39
leaf_count=21 20 21 21 33 29 23 33 39
internal_value=-0.00608523 0.0666586 0.0964542 0.0864753 0.0893123 0.0854914 -0.262747 0.0814551
internal_weight=240 187 166 145 124 95 53 62
internal_count=240 187 166 145 124 95 53 62
is_linear=0
shrinkage=0.05


Tree=43
num_leaves=10
num_cat=0
split_feature=42 7 28 37 38 10 24 7 37
split_gain=1782.12 265.491 78.0242 132.572 29.3577 1.72143 0.976241 0.333478 0.25936
threshold=1.0000000180025095e-35 0.32343895733356481 0.009762969799339773 -0.49053911864757532 -0.35095916688442225 1.0000000180025095e-35 3.3074582815170293 0.19759198278188708 0.38723479211330419
decision_type=2 2 2 2 2 2 2 2 2
left_child=1 2 3 -1 -5 -6 -7 -2 -8
right_child=7 -3 -4 4 5 6 8 -9 -10
leaf_value=0.23265566632151602 -0.25503595948219299 -0.08847404874506451 0.0078064210712909705 0.14631718207489361 0.093738548342998218 0.086927796840667731 0.071504616958123671 -0.24685377063173239 0.078648254772027346
leaf_weight=20 20 21 20 22 26 25 27 33 24
leaf_count=20 20 21 20 22 26 25 27 33 24
internal_value=0.00568047 0.0789127 0.100346 0.113199 0.0939319 0.0826331 0.0788339 -0.249941 0.0748663
internal_weight=238 185 164 144 124 102 76 53 51
internal_count=238 185 164 144 124 102 76 53 51
is_linear=0
shrinkage=0.05


Tree=44
num_leaves=9
num_cat=0
split_feature=42 37 38 37 37 24 12 39
split_gain=1323.1 274.38 43.7526 3.29541 3.18718 1.16189 0.255794 0.213262
threshold=1.0000000180025095e-35 -0.52892550826072682 -0.3755293190479278 -0.41248673200607294 -0.031153986230492588 3.3074582815170293 30.993083000183109 0.060975562781095512
decision_type=2 2 2 2 2 2 2 2
left_child=1 -1 -3 -4 -5 -6 -2 -7
right_child=6 2 3 4 5 7 -8 -9
leaf_value=-0.10254699907132558 -0.23302065968513488 0.15914075464010238 0.061114020720124243 0.095167765182417804 0.087278878404980609 0.070396423765591215 -0.24060707473754883 0.076624404280274006
leaf_weight=21 20 20 20 37 21 28 25 27
leaf_count=21 20 20 20 37 21 28 25 27
internal_value=0.00442941 0.0669289 0.0901903 0.0798218 0.0831329 0.0772739 -0.237235 0.0734538
internal_weight=219 174 153 133 113 76 45 55
internal_count=219 174 153 133 113 76 45 55
is_linear=0
shrinkage=0.05


Tree=45
num_leaves=9
num_cat=0
split_feature=14 31 0 38 22 37 29 38
split_gain=901.501 1245.44 185.524 72.4701 11.1052 8.47608 0.42599 0.456187
threshold=30.479999542236332 0.14545038342475894 1854.5250244140627 -0.41943576931953425 0.033979652449488647 -0.37539613246917719 3.1550000905990605 0.0090623255819082277
decision_type=2 2 2 2 2 2 2 2
left_child=3 -2 -3 -1 5 -5 -7 -8
right_child=1 2 -4 4 -6 6 7 -9
leaf_value=0.18170876741409303 -0.33993121849166025 -0.083127340078353887 0.1077710092493466 0.11457632154226303 0.04549664727279118 0.083678395152091981 0.080074934855751373 0.070317663669586181
leaf_weight=20 36 20 35 20 21 20 23 25
leaf_count=20 36 20 35 20 21 20 23 25
internal_value=0.00921036 -0.111298 0.0383534 0.0942199 0.0781669 0.0859632 0.0775475 0.074993
internal_weight=220 91 55 129 109 88 68 48
internal_count=220 91 55 129 109 88 68 48
is_linear=0
shrinkage=0.05


Tree=46
num_leaves=10
num_cat=0
split_feature=42 38 27 28 17 38 1 29 28
split_gain=1206.85 354.871 27.5661 13.9927 8.62924 5.05582 1.27845 0.907686 0.332991
threshold=1.0000000180025095e-35 -0.38374771177768702 14.339999675750734 0.0014323390787467363 30.760000228881839 0.39232313632965093 189.99966430664065 3.1800000667572026 0.0021117959404364233
decision_type=2 2 2 2 2 2 2 2 2
left_child=1 -1 4 -4 5 7 -2 -3 -9
right_child=6 2 3 -5 -6 -7 -8 8 -10
leaf_value=-0.12054609775543212 -0.20614029235310027 0.07871985465288163 0.14461166777394036 0.08682609803974628 0.039829363152384757 0.097618896478698369 -0.2219069576263428 0.061121847182512283 0.069396985971158551
leaf_weight=25 36 20 22 20 20 21 20 20 31
leaf_count=25 36 20 22 20 20 21 20 20 31
internal_value=-0.00919208 0.0541846 0.08255 0.117095 0.0695958 0.0760667 -0.211771 0.0696921 0.0661518
internal_weight=235 179 154 42 112 92 56 71 51
internal_count=235 179 154 42 112 92 56 71 51
is_linear=0
shrinkage=0.05


Tree=47
num_leaves=8
num_cat=0
split_feature=42 38 24 30 1 41 19
split_gain=1027.5 412.033 20.5347 3.1762 0.982956 0.959552 0.330208
threshold=1.0000000180025095e-35 -0.38374771177768702 12.760708332061769 2.1900833845138554 189.99966430664065 0.15137419849634173 3.0771777629852299
decision_type=2 2 2 2 2 2 2
left_child=1 -1 3 -3 -2 6 -5
right_child=4 2 -4 5 -6 -7 -8
leaf_value=-0.14265028238296509 -0.19619471015352194 0.082811156753450632 0.11162495200450605 0.071189859708150227 -0.21024234056472779 0.055281335657293151 0.063640010144029355
leaf_weight=24 33 32 39 30 20 22 28
leaf_count=24 33 32 39 30 20 22 28
internal_value=-0.00862168 0.0497916 0.0803784 0.0694979 -0.201496 0.0641726 0.0675451
internal_weight=228 175 151 112 53 80 58
internal_count=228 175 151 112 53 80 58
is_linear=0
shrinkage=0.05


Tree=48
num_leaves=10
num_cat=0
split_feature=42 33 37 38 0 26 24 37 5
split_gain=1164.32 107.593 68.4811 43.7118 2.05929 3.23894 1.14417 0.529261 0.176714
threshold=1.0000000180025095e-35 2.2749999761581425 -0.52892550826072682 -0.35095916688442225 2277.724975585938 9.9500002861022967 3.2901250123977666 -0.44221931695938105 1321.0000000000002
decision_type=2 2 2 2 2 2 2 2 2
left_child=1 -1 -3 -4 5 6 -5 -2 -8
right_child=7 2 3 4 -6 -7 8 -9 -10
leaf_value=-0.031630565155120124 -0.18419528859002252 0.17291239053010943 0.14416773835197091 0.07275100320577621 0.051419842481613159 0.085394969284534453 0.06152651722614582 -0.19434924523035688 0.055638978481292727
leaf_weight=21 21 21 20 20 25 20 26 33 25
leaf_count=21 21 21 20 20 25 20 26 33 25
internal_value=0.0129643 0.0746593 0.0888764 0.0759003 0.06413 0.0676218 0.0626153 -0.1904 0.0586405
internal_weight=232 178 157 136 116 91 71 54 51
internal_count=232 178 157 136 116 91 71 54 51
is_linear=0
shrinkage=0.05


Tree=49
num_leaves=9
num_cat=0
split_feature=42 7 39 37 38 0 16 26
split_gain=943.683 225.364 48.0708 78.0774 20.8611 1.78706 1.43699 0.791636
threshold=1.0000000180025095e-35 0.32343895733356481 0.23598380386829379 -0.47925095260143274 -0.16425155103206632 2277.724975585938 0.0010028473916463556 11.934999942779543
decision_type=2 2 2 2 2 2 2 2
left_child=1 2 3 -1 -5 6 -6 -2
right_child=7 -3 -4 4 5 -7 -8 -9
leaf_value=0.18230762947350743 -0.17689282569018278 -0.1008559662103653 0.027528245560824872 0.11004869489620128 0.058140141444821519 0.048039343357086185 0.074079334621246037 -0.18949944615364075
leaf_weight=20 33 20 38 30 31 20 26 20
leaf_count=20 33 20 38 30 31 20 26 20
internal_value=0.00436264 0.0576528 0.0768659 0.0916284 0.074679 0.0608986 0.0654107 -0.18165
internal_weight=238 185 165 127 107 77 57 53
internal_count=238 185 165 127 107 77 57 53
is_linear=0
shrinkage=0.05


Tree=50
num_leaves=9
num_cat=0
split_feature=14 33 26 27 38 2 37 16
split_gain=845.19 955.286 305.908 246.775 126.227 9.85655 3.14574 0.622186
threshold=30.479999542236332 3.2150000333786015 2.8799999952316289 15.495000362396242 -0.41943576931953425 773.50000000000011 -0.15185993909835813 0.0010028473916463556
decision_type=2 2 2 2 2 2 2 2
left_child=4 2 -2 -3 -1 -6 -7 -8
right_child=1 3 -4 -5 5 6 7 -9
leaf_value=0.19141371023087275 -0.16727370386538298 0.099975717109110629 -0.43464861154556278 -0.11569774590787435 0.027767205763269555 0.080183070167899134 0.054181181855740092 0.064045844565738336
leaf_weight=21 23 36 20 21 22 25 31 33
leaf_count=21 23 36 20 21 22 25 31 33
internal_value=-0.00406259 -0.113708 -0.291634 0.0205171 0.0790021 0.057735 0.0651428 0.0592676
internal_weight=232 100 43 57 132 111 89 64
internal_count=232 100 43 57 132 111 89 64
is_linear=0
shrinkage=0.05


Tree=51
num_leaves=9
num_cat=0
split_feature=14 38 42 38 1 4 37 26
split_gain=610.005 992.477 409.479 117.729 23.9448 7.85402 3.9757 1.03871
threshold=30.479999542236332 -0.36858513951301569 1.0000000180025095e-35 -0.41943576931953425 85.529296875000014 -0.97758176922798146 -0.24382806569337842 2.8199999332427983
decision_type=2 2 2 2 2 2 2 2
left_child=3 -2 4 -1 -3 -5 -7 -8
right_child=1 2 -4 5 -6 6 7 -9
leaf_value=0.1829248227856376 -0.39291723001570933 0.042749226450920108 -0.16311726437674628 0.03059675772674382 0.11128294571087911 0.081886692380621323 0.065255343914031982 0.051603526259331324
leaf_weight=22 21 25 27 24 26 21 22 38
leaf_count=22 21 25 27 24 26 21 22 38
internal_value=0.00522787 -0.0878115 -0.00566768 0.0777546 0.077688 0.055719 0.0631626 0.0566092
internal_weight=226 99 78 127 51 105 81 60
internal_count=226 99 78 127 51 105 81 60
is_linear=0
shrinkage=0.05


Tree=52
num_leaves=9
num_cat=0
split_feature=14 12 42 1 34 37 29 7
split_gain=633.579 1102.13 486.083 41.5671 20.1968 25.7088 8.06578 1.61956
threshold=30.479999542236332 30.843333244323734 1.0000000180025095e-35 85.529296875000014 0.0010922112269327047 -0.37539613246917719 3.1049998998641972 0.18910776078701022
decision_type=2 2 2 2 2 2 2 2
left_child=4 -2 3 -3 5 -1 -7 -8
right_child=1 2 -4 -5 -6 6 7 -9
leaf_value=0.13035328948781605 -0.42721039965748792 0.042380952564152807 -0.14977262535610714 0.13661605012416841 0.033067669659586893 0.09386179239853569 0.069023787140846254 0.052550014842150584
leaf_weight=21 20 22 37 25 28 23 25 37
leaf_count=21 20 22 37 25 28 23 25 37
internal_value=-0.00103333 -0.0936347 -0.014212 0.092506 0.0708364 0.0808131 0.0685737 0.0591927
internal_weight=238 104 84 47 134 106 85 62
internal_count=238 104 84 47 134 106 85 62
is_linear=0
shrinkage=0.05


Tree=53
num_leaves=9
num_cat=0
split_feature=42 21 38 26 23 17 41 14
split_gain=583.184 255.043 29.3245 27.569 9.93596 8.16279 11.4274 2.5754
threshold=1.0000000180025095e-35 23.149999618530277 -0.36858513951301569 12.494999885559084 23.550000190734867 30.474999427795414 -0.14163641631603238 30.630000114440922
decision_type=2 2 2 2 2 2 2 2
left_child=1 -1 -3 4 5 -4 -7 -2
right_child=7 2 3 -5 -6 6 -8 -9
leaf_value=-0.11571373268961907 -0.12324167273261331 0.12911654624289701 0.047539837844669822 0.11645444761961699 0.030014889712991391 0.052658812403678895 0.10546809690339226 -0.14546466693282128
leaf_weight=20 22 21 38 22 29 20 21 32
leaf_count=20 22 21 38 22 29 20 21 32
internal_value=0.00683527 0.0520709 0.074294 0.0654381 0.0550459 0.0642344 0.0797075 -0.136411
internal_weight=225 171 151 130 108 79 41 54
internal_count=225 171 151 130 108 79 41 54
is_linear=0
shrinkage=0.05


Tree=54
num_leaves=9
num_cat=0
split_feature=14 12 42 38 1 37 5 38
split_gain=627.491 928.944 331.457 47.0468 27.7542 5.31538 0.968807 1.07926
threshold=30.479999542236332 30.843333244323734 1.0000000180025095e-35 -0.38374771177768702 85.529296875000014 -0.41248673200607294 1794.5000000000002 1.0000000180025095e-35
decision_type=2 2 2 2 2 2 2 2
left_child=3 -2 4 -1 -3 -5 7 -7
right_child=1 2 -4 5 -6 6 -8 -9
leaf_value=0.13475571599873631 -0.40461282938718796 0.032125091375339601 -0.13398429552714031 0.076651529533167687 0.11341554678621746 0.035738664067217284 0.056215440785443341 0.050155346621485325
leaf_weight=22 20 21 36 21 21 21 27 34
leaf_count=22 20 21 36 21 21 21 27 34
internal_value=-0.0058808 -0.100605 -0.0226549 0.0683833 0.0727703 0.0542067 0.0484587 0.0446508
internal_weight=223 98 78 125 42 103 82 55
internal_count=223 98 78 125 42 103 82 55
is_linear=0
shrinkage=0.05


Tree=55
num_leaves=9
num_cat=0
split_feature=42 33 39 37 38 14 32 14
split_gain=353.462 201.463 55.8442 56.0755 17.8321 3.62071 2.80066 2.21711
threshold=1.0000000180025095e-35 2.2749999761581425 0.30706036090850836 -0.4709178358316421 -0.33162362873554224 30.630000114440922 2.0749999284744267 30.280000686645511
decision_type=2 2 2 2 2 2 2 2
left_child=1 -1 3 -3 -5 -2 -6 -8
right_child=5 2 -4 4 6 -7 7 -9
leaf_value=-0.098863653587582326 -0.10133332878351212 0.1492479687645322 -0.0033828248269855976 0.10146884039044379 0.035911415543939389 -0.12963056999903461 0.047218916300804388 0.068571596592664721
leaf_weight=23 20 21 28 20 28 26 31 20
leaf_count=23 20 21 28 20 28 26 31 20
internal_value=0.00570819 0.0388055 0.0602 0.075036 0.0592941 -0.117327 0.0486169 0.0555925
internal_weight=217 171 148 120 99 46 79 51
internal_count=217 171 148 120 99 46 79 51
is_linear=0
shrinkage=0.05


Tree=56
num_leaves=9
num_cat=0
split_feature=12 38 42 38 1 19 30 30
split_gain=474.393 872.189 249.824 48.4516 19.2048 2.13625 2.96538 1.25508
threshold=30.728958129882816 -0.38374771177768702 1.0000000180025095e-35 -0.4046053141355514 99.49314117431642 2.933875679969788 2.2131249904632573 2.1681250333786015
decision_type=2 2 2 2 2 2 2 2
left_child=3 -2 4 -1 -3 6 7 -5
right_child=1 2 -4 5 -6 -7 -8 -9
leaf_value=0.13055758192425682 -0.34200583624839787 0.034895840580716278 -0.12127480844656627 0.053739058570936332 0.096061094105243688 0.037591204517766048 0.068462113738059993 0.036025477983057497
leaf_weight=21 25 33 30 20 21 38 20 20
leaf_count=21 25 33 30 20 21 38 20 20
internal_value=-0.00738963 -0.0827481 -0.00558808 0.0616362 0.0586823 0.0468673 0.0527422 0.0448823
internal_weight=228 109 84 119 54 98 60 40
internal_count=228 109 84 119 54 98 60 40
is_linear=0
shrinkage=0.05


Tree=57
num_leaves=10
num_cat=0
split_feature=14 15 42 38 1 30 34 41 12
split_gain=472.61 758.26 247.133 28.4467 19.1807 3.62226 3.40975 3.39314 2.26361
threshold=30.479999542236332 31.144999504089359 1.0000000180025095e-35 -0.38374771177768702 85.529296875000014 2.1900833845138554 -0.0011782936635427175 0.14375791698694232 31.068791389465336
decision_type=2 2 2 2 2 2 2 2 2
left_child=3 -2 4 -1 -3 -5 -7 -8 -4
right_child=1 2 8 5 -6 6 7 -9 -10
leaf_value=0.1092942094260996 -0.36333122909069065 0.030216007899831643 -0.097930911183357242 0.061286661872485028 0.097022046787398203 0.058240292370319371 0.043860018885496899 0.017760250419378284 -0.12171962559223176
leaf_weight=22 20 22 20 30 21 20 33 20 20
leaf_count=22 20 22 20 30 21 20 33 20 20
internal_value=-0.00766209 -0.0869652 -0.020371 0.0576837 0.0628422 0.0466601 0.0406492 0.034011 -0.109825
internal_weight=228 103 83 125 43 103 73 53 40
internal_count=228 103 83 125 43 103 73 53 40
is_linear=0
shrinkage=0.05


Tree=58
num_leaves=9
num_cat=0
split_feature=17 38 42 38 1 29 15 24
split_gain=389.998 846.126 208.183 43.6318 26.1672 4.39525 5.06154 2.7183
threshold=30.785000801086429 -0.38374771177768702 1.0000000180025095e-35 -0.39877013862133021 85.529296875000014 11.13499975204468 30.690000534057621 3.3162499666213994
decision_type=2 2 2 2 2 2 2 2
left_child=3 -2 4 -1 -3 6 7 -5
right_child=1 2 -4 5 -6 -7 -8 -9
leaf_value=0.11951763467355209 -0.32308140935806129 0.024594596394204669 -0.11025357599611636 0.056711189062507064 0.092951817431354111 0.061020167495893396 0.02003709133093556 0.032725745989453228
leaf_weight=22 26 28 27 27 28 23 30 21
leaf_count=22 26 28 27 27 28 23 30 21
internal_value=-0.00531576 -0.0741804 0.00378859 0.0557106 0.0587732 0.0418121 0.0361481 0.0462176
internal_weight=232 109 83 123 56 101 78 48
internal_count=232 109 83 123 56 101 78 48
is_linear=0
shrinkage=0.05


Tree=59
num_leaves=11
num_cat=0
split_feature=14 12 42 38 1 38 38 29 18 38
split_gain=405.77 691.409 225.82 60.5528 27.9811 7.61644 4.71977 3.39294 1.79176 1.39303
threshold=30.479999542236332 30.828000068664554 1.0000000180025095e-35 -0.4046053141355514 85.529296875000014 -0.38374771177768702 0.43091583251953131 3.1800000667572026 16.818124771118168 -0.0077351643703877917
decision_type=2 2 2 2 2 2 2 2 2 2
left_child=3 -2 4 -1 -3 -4 7 -5 -9 -10
right_child=1 2 5 6 -6 -7 -8 8 9 -11
leaf_value=0.13592401288804554 -0.33879753053188327 0.027216759061610158 -0.069211413711309441 0.054840692793103787 0.10696223502640019 -0.11060826754570008 0.064867857843637466 0.044050301682381408 0.017021180884469123 0.035024973275986589
leaf_weight=21 20 22 20 22 22 25 20 21 21 22
leaf_count=21 20 22 20 22 22 25 20 21 21 22
internal_value=-0.00238195 -0.0731509 -0.013455 0.0583567 0.0670895 -0.0922097 0.0429897 0.0379017 0.0320789 0.0262324
internal_weight=236 109 89 127 44 45 106 86 64 43
internal_count=236 109 89 127 44 45 106 86 64 43
is_linear=0
shrinkage=0.05


Tree=60
num_leaves=9
num_cat=0
split_feature=17 38 42 38 37 29 3 4
split_gain=394.356 828.662 160.642 31.4158 11.8597 5.4256 2.23553 0.94638
threshold=30.785000801086429 -0.36858513951301569 1.0000000180025095e-35 -0.4046053141355514 -0.25738631188869471 11.059999942779543 1895.0000000000002 0.055670533329248435
decision_type=2 2 2 2 2 2 2 2
left_child=3 -2 4 -1 -3 6 7 -5
right_child=1 2 -4 5 -6 -7 -8 -9
leaf_value=0.1051918711513281 -0.34948151828721169 0.086354700755327946 -0.096230580409367883 0.036337617952977457 0.03514124723867728 0.063944299180399289 0.047902825033223191 0.023402431721870717
leaf_weight=24 22 20 27 31 26 22 27 26
leaf_count=24 22 20 27 31 26 22 27 26
internal_value=-0.00305052 -0.0804848 0.00058275 0.053536 0.057408 0.0418404 0.0360513 0.0304374
internal_weight=225 95 73 130 46 106 84 57
internal_count=225 95 73 130 46 106 84 57
is_linear=0
shrinkage=0.05


Tree=61
num_leaves=10
num_cat=0
split_feature=21 42 31 37 38 0 14 24 33
split_gain=291.959 159.062 30.5945 51.2789 13.3597 3.37916 4.6016 1.32693 0.496513
threshold=22.82499980926514 1.0000000180025095e-35 0.039815662428736694 -0.5058416575193404 -0.35095916688442225 2279.974975585938 30.355000495910648 3.3658750057220463 3.2250000238418584
decision_type=2 2 2 2 2 2 2 2 2
left_child=-1 2 -2 -4 -5 6 7 -6 -9
right_child=1 -3 3 4 5 -7 -8 8 -10
leaf_value=-0.15991621737678846 -0.0028333599812218123 -0.068219427842842906 0.12856272888369857 0.078473630866834107 0.042922182604670525 0.016237746155820788 0.060000328943133355 0.021843354865199047 0.03285121075809002
leaf_weight=24 28 38 20 21 20 20 20 21 20
leaf_count=24 28 38 20 21 20 20 20 21 20
internal_value=0.00520896 0.0242619 0.0449342 0.0543531 0.0421876 0.034643 0.0391875 0.0323636 0.027213
internal_weight=232 208 170 142 122 101 81 61 41
internal_count=232 208 170 142 122 101 81 61 41
is_linear=0
shrinkage=0.05


Tree=62
num_leaves=9
num_cat=0
split_feature=17 8 42 38 1 29 37 29
split_gain=267.953 495.474 106.79 37.4722 17.5838 5.85845 2.60227 0.799815
threshold=30.785000801086429 87.034999847412124 1.0000000180025095e-35 -0.41943576931953425 85.529296875000014 11.13499975204468 -0.080777935683727251 3.2100000381469731
decision_type=2 2 2 2 2 2 2 2
left_child=3 -2 4 -1 -3 6 -5 -8
right_child=1 2 -4 5 -6 -7 7 -9
leaf_value=0.10829217093331474 -0.27200250246308072 0.016725436637976342 -0.068177752239363537 0.017194576635956766 0.080689993982245634 0.057979007200761282 0.043530613631010059 0.030784538947045803
leaf_weight=21 22 21 35 30 22 22 20 32
leaf_count=21 22 21 35 30 22 22 20 32
internal_value=-0.00143393 -0.0624386 -0.00333086 0.0473698 0.0494515 0.0350682 0.0289214 0.0356869
internal_weight=225 100 78 125 43 104 82 52
internal_count=225 100 78 125 43 104 82 52
is_linear=0
shrinkage=0.05


Tree=63
num_leaves=11
num_cat=0
split_feature=14 12 42 38 45 37 38 30 28 23
split_gain=282.781 620.269 140.643 31.6091 13.8804 5.63883 4.09607 0.709761 1.26998 0.743361
threshold=30.479999542236332 30.843333244323734 1.0000000180025095e-35 -0.41943576931953425 72.39490127563478 -0.37539613246917719 -0.11634777113795279 2.1734166145324711 0.0046958469320088634 22.079999923706058
decision_type=2 2 2 2 2 2 2 2 2 2
left_child=3 -2 4 -1 -3 -5 -4 -7 9 -9
right_child=1 2 6 5 -6 7 -8 8 -10 -11
leaf_value=0.10635890781879426 -0.31275217000395061 0.023124334343010561 -0.056862951591610915 0.060439387031576856 0.078081316490554151 0.040275050029158599 -0.088863212168216715 0.018742829716453951 0.039620330574966611 0.03179478690028191
leaf_weight=20 20 20 20 22 27 20 20 24 21 20
leaf_count=20 20 20 20 22 27 20 20 24 21 20
internal_value=-0.00178969 -0.0616718 -0.0039522 0.0486622 0.0546954 0.0378777 -0.0728631 0.0320383 0.0295039 0.0246755
internal_weight=234 107 87 127 47 107 40 85 65 44
internal_count=234 107 87 127 47 107 40 85 65 44
is_linear=0
shrinkage=0.05


Tree=64
num_leaves=9
num_cat=0
split_feature=42 22 10 37 14 38 21 22
split_gain=128.964 28.5026 84.1461 13.5942 8.23652 4.46892 2.19356 0.629801
threshold=0.41666667163372045 0.015852871816605333 0.0038980136159807448 -0.44221931695938105 30.750000000000004 -0.20082712173461911 24.94999980926514 -0.016342958435416218
decision_type=2 2 2 2 2 2 2 2
left_child=1 3 -3 -1 -2 -5 7 -7
right_child=4 2 -4 5 -6 6 -8 -9
leaf_value=0.084751525186002263 -0.042853703025656831 0.048861052924528338 -0.073433842391453008 0.057939325402612277 -0.084954902813548144 0.033104300973090257 0.019452698886479169 0.045363721847534177
leaf_weight=20 26 39 22 23 21 22 22 20
leaf_count=20 26 39 22 23 21 22 22 20
internal_value=0.0115486 0.032031 0.0047547 0.047581 -0.0616649 0.039036 0.0322426 0.0389421
internal_weight=215 168 61 107 47 87 64 42
internal_count=215 168 61 107 47 87 64 42
is_linear=0
shrinkage=0.05


Tree=65
num_leaves=10
num_cat=0
split_feature=39 42 40 38 38 14 1 26 40
split_gain=179.346 108.609 25.0968 28.4918 10.2326 8.99999 13.9574 2.67432 2.15288
threshold=-0.56808075308799733 0.41666667163372045 0.59826523065567028 -0.43166750669479365 -0.39877013862133021 30.494999885559086 96.316623687744155 2.8199999332427983 -0.27403178811073298
decision_type=2 2 2 2 2 2 2 2 2
left_child=-1 2 3 -2 -3 7 -7 -5 -9
right_child=1 4 -4 5 -6 6 -8 8 -10
leaf_value=-0.13552450343966485 0.10090625450015067 -0.027815565066412092 -0.014288129508495333 0.043570855117979507 -0.078393839150667194 0.027154634292015718 0.084801811228195828 0.013122821884850661 0.030938861671930707
leaf_weight=20 20 20 20 21 20 21 21 30 39
leaf_count=20 20 20 20 21 20 21 21 30 39
internal_value=0.0076037 0.0211064 0.0383647 0.0452928 -0.0531047 0.0368665 0.0559782 0.0279476 0.0231928
internal_weight=232 212 172 152 40 132 42 90 69
internal_count=232 212 172 152 40 132 42 90 69
is_linear=0
shrinkage=0.05


Tree=66
num_leaves=10
num_cat=0
split_feature=37 42 38 37 2 20 5 22 39
split_gain=302.5 86.9384 16.1303 10.5027 5.1575 1.67442 0.94593 0.749785 0.87177
threshold=-0.5562365949153899 0.41666667163372045 -0.38374771177768702 -0.43728499114513392 742.00000000000011 26.44999980926514 1827.5000000000002 -0.017328426241874691 0.097554113715887084
decision_type=2 2 2 2 2 2 2 2 2
left_child=-1 2 -2 -4 -5 6 7 -6 -9
right_child=1 -3 3 4 5 -7 -8 8 -10
leaf_value=-0.15444563753902912 0.071213495189493353 -0.052529790909274635 -0.0083795635029673583 0.053923398535698656 0.018670067758787247 0.013579475702274413 0.038858301416039465 0.022817187905311585 0.037403255062443873
leaf_weight=30 22 38 20 20 21 21 20 20 21
leaf_count=30 22 38 20 20 21 21 20 20 21
internal_value=-0.00624768 0.0156535 0.0313563 0.0252244 0.0306885 0.0261769 0.029403 0.026353 0.0302881
internal_weight=233 203 165 143 123 103 82 62 41
internal_count=233 203 165 143 123 103 82 62 41
is_linear=0
shrinkage=0.05


Tree=67
num_leaves=8
num_cat=0
split_feature=17 5 37 35 3 36 6
split_gain=115.677 203.355 32.6697 19.3421 5.25396 2.17734 4.34699
threshold=30.785000801086429 1801.5000000000002 -0.47925095260143274 2.9650000333786015 1895.0000000000002 -0.11080923303961752 86.610500335693374
decision_type=2 2 2 2 2 2 2
left_child=3 -2 -3 4 5 -1 -7
right_child=1 2 -4 -5 -6 6 -8
leaf_value=0.038370676711201673 -0.11763289181085734 0.07656177591694438 -0.00059548988698653006 0.085880278770557872 0.052714946520115651 0.034423500184829418 0.0038378988525697164
leaf_weight=28 39 23 34 22 28 26 21
leaf_count=28 39 23 34 22 28 26 21
internal_value=0.0116215 -0.0296563 0.0305381 0.043323 0.0342331 0.0273331 0.0207576
internal_weight=221 96 57 125 103 75 47
internal_count=221 96 57 125 103 75 47
is_linear=0
shrinkage=0.05


Tree=68
num_leaves=9
num_cat=0
split_feature=17 38 42 38 1 31 12 17
split_gain=213.231 538.08 76.8619 25.4029 12.6967 4.76311 2.41814 2.27488
threshold=30.785000801086429 -0.36858513951301569 0.75000000000000011 -0.41943576931953425 85.529296875000014 0.15335240960121158 30.451250076293949 30.239999771118168
decision_type=2 2 2 2 2 2 2 2
left_child=3 -2 4 -1 -3 6 7 -5
right_child=1 2 -4 5 -6 -7 -8 -9
leaf_value=0.085444220310697955 -0.25879725322872404 0.01367853680672124 -0.065740236669778837 0.021283462878904844 0.061925168260931973 0.048363838236158092 0.010435656038148758 0.041486744548786772
leaf_weight=24 25 25 25 38 30 24 26 22
leaf_count=24 25 25 25 38 30 24 26 22
internal_value=-0.0029687 -0.0563211 0.00695266 0.0388373 0.0399949 0.0286685 0.0231722 0.0286913
internal_weight=239 105 80 134 55 110 86 60
internal_count=239 105 80 134 55 110 86 60
is_linear=0
shrinkage=0.05


Tree=69
num_leaves=9
num_cat=0
split_feature=39 21 37 42 37 2 38 18
split_gain=186.924 210.415 78.6162 36.7318 9.31199 3.18041 1.50166 0.903429
threshold=-0.6306203007698058 22.890000343322757 -0.5562365949153899 0.41666667163372045 -0.36706212162971491 1786.5000000000002 -0.16425155103206632 17.375041007995609
decision_type=2 2 2 2 2 2 2 2
left_child=-1 -2 -3 4 -4 6 -6 -8
right_child=1 2 3 -5 5 -7 7 -9
leaf_value=-0.14694049514475324 -0.14002174665885311 0.10587603384973827 -0.0048224457539618017 -0.046434488435360521 0.043257572813114771 0.013975480016320943 0.021200266542534034 0.034546858584508303
leaf_weight=21 21 27 24 22 30 25 21 32
leaf_count=21 21 27 24 22 30 25 21 32
internal_value=-0.00496427 0.00979563 0.0271778 0.01338 0.0233491 0.0296094 0.0343185 0.0292586
internal_weight=223 202 181 154 132 108 83 53
internal_count=223 202 181 154 132 108 83 53
is_linear=0
shrinkage=0.05


Tree=70
num_leaves=10
num_cat=0
split_feature=41 42 28 37 38 24 41 21 12
split_gain=93.4907 52.2313 35.2324 56.8789 12.0055 9.58279 4.15116 5.66052 2.25651
threshold=-0.63918304443359364 0.41666667163372045 0.0096319881267845648 -0.52892550826072682 -0.25765742361545557 13.026083469390871 0.36060592532157904 24.695000648498539 30.444583892822269
decision_type=2 2 2 2 2 2 2 2 2
left_child=-1 2 3 -2 -3 6 7 8 -5
right_child=1 4 -4 5 -6 -7 -8 -9 -10
leaf_value=-0.093648782381787907 0.11849052153527738 -0.0044765945244580512 -0.030643333811312914 0.039485904096315305 -0.059261385751888156 -0.0039445833396166566 0.014838894464723444 0.022089362423866988 0.06005520022784671
leaf_weight=20 20 20 20 30 20 20 23 32 24
leaf_count=20 20 20 20 30 20 20 23 32 24
internal_value=0.00962608 0.0195088 0.0316693 0.0400334 -0.031869 0.0278695 0.0337069 0.038753 0.0486278
internal_weight=229 209 169 149 40 129 109 86 54
internal_count=229 209 169 149 40 129 109 86 54
is_linear=0
shrinkage=0.05


Tree=71
num_leaves=11
num_cat=0
split_feature=39 42 37 37 38 38 2 45 7 3
split_gain=180.507 50.9553 42.848 11.8569 8.32434 4.05716 4.78826 1.61651 0.517461 0.406354
threshold=-0.6306203007698058 0.41666667163372045 -0.54929873347282399 -0.43728499114513392 -0.39877013862133021 -0.3755293190479278 761.00000000000011 73.984710693359389 0.26540964841842657 1854.5000000000002
decision_type=2 2 2 2 2 2 2 2 2 2
left_child=-1 2 -2 -4 -3 -5 -7 -8 9 -9
right_child=1 4 3 5 -6 6 7 8 -10 -11
leaf_value=-0.13227809255144427 0.10202166117727757 -0.0066197045758599419 -0.011705158122349532 0.050350534766912459 -0.052238606939790766 0.048075718749314544 0.011313519633278766 0.027237326719544153 0.032223363968078046 0.017513543802003064
leaf_weight=21 20 20 20 20 20 20 29 22 20 21
leaf_count=21 20 20 20 20 20 20 29 22 20 21
internal_value=0.00755113 0.0214021 0.0332234 0.024171 -0.0294292 0.0296067 0.0259025 0.0210822 0.0255789 0.0224885
internal_weight=233 212 172 152 40 132 112 92 63 43
internal_count=233 212 172 152 40 132 112 92 63 43
is_linear=0
shrinkage=0.05


Tree=72
num_leaves=10
num_cat=0
split_feature=39 42 45 37 38 13 13 36 30
split_gain=166.19 47.0922 28.1971 62.2819 10.3637 5.47727 4.11884 2.32595 1.19502
threshold=-0.66789245605468739 0.41666667163372045 70.485702514648452 -0.52892550826072682 -0.36858513951301569 0.12117995694279672 0.097635764628648772 0.026161061599850658 2.170291662216187
decision_type=2 2 2 2 2 2 2 2 2
left_child=-1 2 -2 -4 -3 6 8 -7 -5
right_child=1 4 3 5 -6 7 -8 -9 -10
leaf_value=-0.12966596878000669 -0.021674864599481227 -0.0059064466244308283 0.11659717433864164 0.029574562786590486 -0.056807501763105395 0.0026340684583110196 0.044094128715560628 0.023891743162477559 0.012497071197722108
leaf_weight=21 24 20 21 21 20 31 38 22 20
leaf_count=21 24 20 21 21 20 31 38 22 20
internal_value=0.0046426 0.0176402 0.028713 0.036617 -0.031357 0.0238929 0.0322352 0.011458 0.0212441
internal_weight=238 217 177 153 40 132 79 53 41
internal_count=238 217 177 153 40 132 79 53 41
is_linear=0
shrinkage=0.05


Tree=73
num_leaves=10
num_cat=0
split_feature=21 42 40 37 38 7 32 26 38
split_gain=199.235 40.197 21.3315 31.639 9.37604 3.48847 2.32828 1.63021 0.353913
threshold=22.82499980926514 0.41666667163372045 -0.65691009163856495 -0.48361994326114649 -0.35095916688442225 0.26540964841842657 2.5649999380111699 10.799999713897707 0.18361421674489978
decision_type=2 2 2 2 2 2 2 2 2
left_child=-1 2 -2 -4 -5 6 7 8 -6
right_child=1 -3 3 4 5 -7 -8 -9 -10
leaf_value=-0.13264367091469467 -0.018036011872547015 -0.030222335405757323 0.094337964337319141 0.058442968949675558 0.021896009633074639 0.038219724502414468 0.030853110069239683 0.00095153794708577061 0.0130254866999828
leaf_weight=24 21 34 20 20 23 24 22 22 22
leaf_count=24 21 34 20 20 23 24 22 22 22
internal_value=0.00376293 0.0195022 0.0292184 0.0357043 0.0268872 0.0213022 0.0167401 0.012106 0.0175593
internal_weight=232 208 174 153 133 113 89 67 45
internal_count=232 208 174 153 133 113 89 67 45
is_linear=0
shrinkage=0.05


Tree=74
num_leaves=9
num_cat=0
split_feature=37 12 42 41 38 31 16 10
split_gain=233.952 27.7907 9.31681 8.48041 3.95017 3.46423 0.913192 1.08556
threshold=-0.5562365949153899 30.932583808898929 0.75000000000000011 0.32400973141193395 -0.35095916688442225 0.15212416648864749 0.00038014793244656181 0.0056120390072464952
decision_type=2 2 2 2 2 2 2 2
left_child=-1 3 -3 4 -2 6 -6 -8
right_child=1 2 -4 -5 5 -7 7 -9
leaf_value=-0.13566414549826616 0.04687990827056078 0.0012084065291744013 -0.041541198968887333 0.0016056886155690468 0.01158305985853076 0.042868827003985643 0.015767683709661164 0.032044266313314439
leaf_weight=31 26 26 25 35 25 20 21 20
leaf_count=31 26 26 25 35 25 20 21 20
internal_value=-0.00794176 0.0120552 -0.0197473 0.0230887 0.0298021 0.0246391 0.0191149 0.0237075
internal_weight=229 198 51 147 112 86 66 41
internal_count=229 198 51 147 112 86 66 41
is_linear=0
shrinkage=0.05


Tree=75
num_leaves=9
num_cat=0
split_feature=37 37 42 38 41 21 41 1
split_gain=40.4908 46.9955 28.0776 8.06073 4.42058 2.56424 1.36112 1.18478
threshold=-0.60277628898620594 -0.49053911864757532 0.41666667163372045 -0.38374771177768702 0.035971188917756088 24.079999923706058 0.40257126092910772 71.838550567626967
decision_type=2 2 2 2 2 2 2 2
left_child=-1 -2 3 -3 5 -5 -6 -7
right_child=1 2 -4 4 6 7 -8 -9
leaf_value=0.078268460997126324 -0.062182099549946461 0.053416735120117666 -0.026957425779917023 0.038394596649994776 0.014742169715464116 0.026585101123367039 -0.0011192505270065298 0.0106514504365623
leaf_weight=22 22 20 33 31 38 28 21 20
leaf_count=22 22 20 33 31 38 28 21 20
internal_value=0.0136893 0.00701914 0.01499 0.0237511 0.0194518 0.0271854 0.00909658 0.0199461
internal_weight=235 213 191 158 138 79 59 48
internal_count=235 213 191 158 138 79 59 48
is_linear=0
shrinkage=0.05


Tree=76
num_leaves=9
num_cat=0
split_feature=37 12 20 41 34 20 13 40
split_gain=132.618 27.0055 8.62969 6.75595 5.34909 5.28884 2.58283 1.16311
threshold=-0.5562365949153899 30.932583808898929 27.125000000000004 0.32400973141193395 0.0004085353139089421 11.550000190734865 0.11401536315679552 -0.075766697525978075
decision_type=2 2 2 2 2 2 2 2
left_child=-1 3 -3 4 6 -6 7 -2
right_child=1 2 -4 -5 5 -7 -8 -9
leaf_value=-0.095835374528542169 0.023445727887817406 -0.036492799076118639 0.0065097549371421343 0.0038851029656436897 0.02628155070822686 0.062208264853273125 0.03424415584886447 0.0076823878716677429
leaf_weight=32 22 28 20 31 20 21 28 25
leaf_count=32 22 28 20 31 20 21 28 25
internal_value=-0.00149423 0.0139874 -0.0185751 0.02462 0.0301613 0.044683 0.0222227 0.015061
internal_weight=227 195 48 147 116 41 75 47
internal_count=227 195 48 147 116 41 75 47
is_linear=0
shrinkage=0.05


Tree=77
num_leaves=9
num_cat=0
split_feature=17 38 42 38 23 29 5 21
split_gain=129.767 379.55 34.324 17.7575 9.73618 5.66723 2.28785 1.08549
threshold=30.785000801086429 -0.38374771177768702 0.75000000000000011 -0.44138847291469568 29.365000724792484 11.059999942779543 1831.0000000000002 23.355000495910648
decision_type=2 2 2 2 2 2 2 2
left_child=3 -2 4 -1 -3 6 7 -5
right_child=1 2 -4 5 -6 -7 -8 -9
leaf_value=0.072725595601580359 -0.23294000513851643 0.058548387264211979 -0.039235802248120316 0.021150440069719813 0.01315491496136895 0.045255503005793563 0.031404360678667829 0.0072603816838146974
leaf_weight=22 21 21 25 22 27 23 21 39
leaf_count=22 21 21 25 22 27 23 21 39
internal_value=-0.00108208 -0.0456163 0.00827128 0.0318803 0.0330146 0.0233222 0.0171702 0.0122699
internal_weight=221 94 73 127 48 105 82 61
internal_count=221 94 73 127 48 105 82 61
is_linear=0
shrinkage=0.05


Tree=78
num_leaves=9
num_cat=0
split_feature=39 45 37 12 38 41 31 26
split_gain=137.985 84.2508 57.9192 7.75693 3.29575 4.36198 1.53653 0.663778
threshold=-0.6306203007698058 70.728500366210952 -0.5562365949153899 31.027500152587894 -0.39877013862133021 0.32400973141193395 0.15101636946201327 3.0349999666213994
decision_type=2 2 2 2 2 2 2 2
left_child=-1 -2 -3 4 -4 6 7 -6
right_child=1 2 3 -5 5 -7 -8 -9
leaf_value=-0.12526081968985855 -0.073229943250340448 0.089000070205441234 0.031839594647288326 -0.011065221231962954 0.01862164591997862 -0.0075202286344669446 0.028874294761390914 0.007211006783360902
leaf_weight=21 27 27 25 35 25 23 21 26
leaf_count=21 27 27 25 35 25 23 21 26
internal_value=-0.00308502 0.00919102 0.0214183 0.009646 0.0156868 0.011436 0.0174915 0.0128045
internal_weight=230 209 182 155 120 95 72 51
internal_count=230 209 182 155 120 95 72 51
is_linear=0
shrinkage=0.05


Tree=79
num_leaves=10
num_cat=0
split_feature=38 17 37 42 37 2 7 40 35
split_gain=154.079 514.466 40.7981 21.3719 6.57395 2.25849 1.80914 0.990831 0.584433
threshold=-0.36858513951301569 30.785000801086429 -0.5562365949153899 0.75000000000000011 -0.42138743400573725 780.00000000000011 0.26540964841842657 0.45941503345966345 2.2749999761581425
decision_type=2 2 2 2 2 2 2 2 2
left_child=1 -1 -2 4 -4 -6 7 8 -7
right_child=2 -3 3 -5 5 6 -8 -9 -10
leaf_value=0.050493802297218095 0.07814761607543283 -0.27914051062427464 -0.012598833090742119 -0.041438412014395 0.030250734030269091 0.011119066088867841 0.0256960239559412 0.018285952195186507 -0.00096846316941082481
leaf_weight=29 23 20 20 20 30 20 25 22 20
leaf_count=29 23 20 20 20 30 20 25 22 20
internal_value=-0.00544373 -0.0840508 0.0159549 0.00684383 0.0138923 0.0184207 0.0143414 0.00976295 0.0050753
internal_weight=229 49 180 157 137 117 87 62 40
internal_count=229 49 180 157 137 117 87 62 40
is_linear=0
shrinkage=0.05


Tree=80
num_leaves=8
num_cat=0
split_feature=40 13 37 6 12 20 18
split_gain=157.305 26.5658 62.1144 28.3002 12.0645 5.66935 2.40394
threshold=0.66072252392768871 0.097635764628648772 -0.52892550826072682 84.676792144775405 31.051207542419437 11.284999847412111 16.818124771118168
decision_type=2 2 2 2 2 2 2
left_child=1 3 -3 -1 5 6 -4
right_child=-2 2 4 -5 -6 -7 -8
leaf_value=0.014361477207795188 -0.12646619024730862 0.1082618252950765 0.025546901745964651 -0.0594606647733599 -0.0096116690630359321 0.039319454104854518 0.0033557586389808703
leaf_weight=37 21 21 23 20 35 39 26
leaf_count=37 21 21 23 20 35 39 26
internal_value=0.00374661 0.0173509 0.0287873 -0.011541 0.0152185 0.0250942 0.013772
internal_weight=222 201 144 57 123 88 49
internal_count=222 201 144 57 123 88 49
is_linear=0
shrinkage=0.05


Tree=81
num_leaves=10
num_cat=0
split_feature=38 17 37 42 37 40 13 17 16
split_gain=165.418 399.839 42.1014 14.0379 5.47152 1.81096 1.98895 2.28133 1.05928
threshold=-0.3755293190479278 30.785000801086429 -0.5562365949153899 0.75000000000000011 -0.43728499114513392 0.55378392338752758 0.1272198557853699 30.564999580383304 0.0007421522168442608
decision_type=2 2 2 2 2 2 2 2 2
left_child=1 -1 -2 4 -4 6 7 8 -6
right_child=2 -3 3 -5 5 -7 -8 -9 -10
leaf_value=0.059100310250439429 0.079355033778625989 -0.24235023607245904 -0.011782993173692377 -0.03209221377503127 0.00591000245601338 0.029762890402759826 0.003714749967569814 0.031388220498743263 0.020571209337900988
leaf_weight=22 23 22 20 20 28 21 34 23 22
leaf_count=22 23 22 20 20 28 21 34 23 22
internal_value=-0.00422357 -0.091625 0.0159108 0.00722496 0.0125381 0.0163383 0.0137035 0.0183558 0.0123609
internal_weight=235 44 191 168 148 128 107 73 50
internal_count=235 44 191 168 148 128 107 73 50
is_linear=0
shrinkage=0.05


Tree=82
num_leaves=10
num_cat=0
split_feature=33 42 45 37 38 7 25 1 35
split_gain=28.1715 17.2353 17.7718 39.426 12.1848 4.6324 2.45391 1.49423 0.435762
threshold=2.2549999952316289 0.75000000000000011 71.127765655517592 -0.5058416575193404 -0.28684532642364496 0.29909013211727148 0.82243779301643383 85.529296875000014 2.2050000429153447
decision_type=2 2 2 2 2 2 2 2 2
left_child=-1 2 -2 -4 -3 6 7 8 -5
right_child=1 4 3 5 -6 -7 -8 -9 -10
leaf_value=-0.047566360887140037 -0.013812190718980955 0.013476159833371641 0.094148462526500221 0.0091758413250896745 -0.041055299057846981 0.039455306485650092 0.025680933518592144 -0.0014073060043156148 0.019373326771892609
leaf_weight=20 29 20 20 22 21 21 29 25 20
leaf_count=20 29 20 20 22 21 21 29 25 20
internal_value=0.00910093 0.014576 0.0217462 0.0292732 -0.0144546 0.0181834 0.0135302 0.00827093 0.0140318
internal_weight=227 207 166 137 41 117 96 67 42
internal_count=227 207 166 137 41 117 96 67 42
is_linear=0
shrinkage=0.05


Tree=83
num_leaves=9
num_cat=0
split_feature=7 3 37 6 14 40 24 3
split_gain=108.683 27.7236 47.1651 7.71308 4.85363 2.13553 1.41068 0.354709
threshold=0.33596350252628332 1651.0000000000002 -0.5562365949153899 88.048164367675795 30.494999885559086 -0.40089341998100275 3.3074582815170293 1682.0000000000002
decision_type=2 2 2 2 2 2 2 2
left_child=1 -1 -3 4 5 -4 -7 -8
right_child=-2 2 3 -5 -6 6 7 -9
leaf_value=-0.038721330038138796 -0.095136981219053285 0.088807038185389153 0.00018912611077680734 -0.016955638797953726 0.032020990840262838 0.026860928446985784 0.015657543102279306 0.0065529361529194797
leaf_weight=21 25 23 33 20 36 20 20 23
leaf_count=21 25 23 33 20 36 20 20 23
internal_value=0.00304054 0.0155632 0.0220773 0.0119801 0.0163643 0.010493 0.0158903 0.0107876
internal_weight=221 196 175 152 132 96 63 43
internal_count=221 196 175 152 132 96 63 43
is_linear=0
shrinkage=0.05


Tree=84
num_leaves=8
num_cat=0
split_feature=37 12 41 14 40 22 35
split_gain=24.2269 10.8358 6.90101 6.27379 3.48405 2.23202 1.72365
threshold=-0.58984401822090138 30.932583808898929 -0.057282172143459313 30.494999885559086 -0.46967729926109308 0.01473265513777733 2.1950000524520878
decision_type=2 2 2 2 2 2 2
left_child=-1 3 -3 4 -2 6 -6
right_child=1 2 -4 -5 5 -7 -8
leaf_value=-0.040430214566489063 0.00027692912534500166 -0.025658943943679336 0.0099105052153269455 0.042568600349128245 0.015971396920005126 0.0086476915797296296 0.032615191583920809
leaf_weight=24 30 25 30 25 28 30 35
leaf_count=24 30 25 30 25 28 30 35
internal_value=0.00707577 0.0126922 -0.00625743 0.0197344 0.0150932 0.0198727 0.0252179
internal_weight=227 203 55 148 123 93 63
internal_count=227 203 55 148 123 93 63
is_linear=0
shrinkage=0.05


Tree=85
num_leaves=8
num_cat=0
split_feature=37 38 42 37 34 41 28
split_gain=166.795 10.1319 9.02512 2.41626 1.92173 1.71578 0.785629
threshold=-0.5562365949153899 -0.38374771177768702 0.41666667163372045 -0.41248673200607294 0.00012738731675199236 0.042500583454966552 0.00083854782860726129
decision_type=2 2 2 2 2 2 2
left_child=-1 -2 3 -3 6 -6 -5
right_child=1 2 -4 4 5 -7 -8
leaf_value=-0.10290691604346246 0.036930477313506301 -0.0026168102110248237 -0.022913147071376445 0.0036482515640143122 0.029847196540371941 0.011564875429584868 0.014815303678106932
leaf_weight=36 39 21 20 28 33 21 36
leaf_count=36 39 21 20 28 33 21 36
internal_value=-0.00390707 0.0140929 0.00849123 0.0130098 0.0157909 0.0227374 0.00992972
internal_weight=234 198 159 139 118 54 64
internal_count=234 198 159 139 118 54 64
is_linear=0
shrinkage=0.05


Tree=86
num_leaves=9
num_cat=0
split_feature=40 38 38 42 37 2 10 25
split_gain=122.669 24.4114 34.081 19.3808 7.82749 1.7726 1.14555 0.510764
threshold=0.66072252392768871 -0.41943576931953425 -0.31205224990844721 0.75000000000000011 -0.49053911864757532 759.00000000000011 0.0061325784772634515 0.56019282341003429
decision_type=2 2 2 2 2 2 2 2
left_child=1 -1 -3 4 -4 -6 7 -7
right_child=-2 2 3 -5 5 6 -8 -9
leaf_value=0.049159721221242632 -0.1157118703992594 -0.058008962348103522 0.046603737656204479 -0.032078563655721322 0.026792837874963882 0.0034234243702437532 0.020922768199816349 0.011926197525904035
leaf_weight=35 21 20 21 22 20 38 20 33
leaf_count=35 21 20 21 22 20 38 20 33
internal_value=-0.000515745 0.011059 0.00339504 0.0113696 0.0186109 0.013315 0.0103529 0.00737542
internal_weight=230 209 174 154 132 111 91 71
internal_count=230 209 174 154 132 111 91 71
is_linear=0
shrinkage=0.05


Tree=87
num_leaves=9
num_cat=0
split_feature=40 38 38 37 6 40 16 39
split_gain=120.723 27.2916 28.9266 15.8052 7.19459 1.06219 1.33354 0.811397
threshold=0.66072252392768871 -0.41943576931953425 -0.24410814791917798 -0.52892550826072682 87.994956970214858 -0.23209506273269651 1.0000000180025095e-35 -0.020950605161488053
decision_type=2 2 2 2 2 2 2 2
left_child=1 -1 -3 -4 5 6 -5 -7
right_child=-2 2 3 4 -6 7 -8 -9
leaf_value=0.05262541886419058 -0.11342149639413471 -0.044403248127603621 0.051884215460582223 0.0096241791351613683 -0.016398876473041519 0.013921556735618247 0.027239310315677098 0.001773487649292552
leaf_weight=35 21 26 22 22 28 27 21 28
leaf_count=35 21 26 22 22 28 27 21 28
internal_value=0.000857109 0.0123396 0.00423619 0.012781 0.0059534 0.0123398 0.0182269 0.00773709
internal_weight=230 209 174 148 126 98 43 55
internal_count=230 209 174 148 126 98 43 55
is_linear=0
shrinkage=0.05


Tree=88
num_leaves=9
num_cat=0
split_feature=37 12 14 7 5 40 41 40
split_gain=195.724 8.01679 5.57717 5.14394 4.94287 2.64666 1.90695 0.868785
threshold=-0.5562365949153899 31.051207542419437 30.494999885559086 0.31363382935523992 2247.5000000000005 0.4913687407970429 0.40257126092910772 -0.4150045365095138
decision_type=2 2 2 2 2 2 2 2
left_child=-1 2 3 5 -3 6 7 -2
right_child=1 4 -4 -5 -6 -7 -8 -9
leaf_value=-0.12066164496284204 0.014913599990263938 -0.023910706672493533 0.033529833983629943 0.034113373728469017 0.009640841292483467 0.022469889149069788 -0.010794179431451043 0.00204958322125354
leaf_weight=33 21 23 36 20 21 20 21 35
leaf_count=33 21 23 36 20 21 20 21 35
internal_value=-0.0079667 0.0109111 0.0163201 0.0110249 -0.00789747 0.00626434 0.00205511 0.00687359
internal_weight=230 197 153 117 44 97 77 56
internal_count=230 197 153 117 44 97 77 56
is_linear=0
shrinkage=0.05


Tree=89
num_leaves=9
num_cat=0
split_feature=41 41 37 9 0 19 41 1
split_gain=105.177 53.4134 52.405 9.09589 2.60364 3.35633 2.80867 0.889729
threshold=0.58177092671394359 -0.6376831829547881 -0.5562365949153899 88.440002441406264 1227.470886230469 3.0851509571075444 -0.25325597822666163 26.685485839843754
decision_type=2 2 2 2 2 2 2 2
left_child=1 -1 -3 4 -4 6 -6 -8
right_child=-2 2 3 -5 5 -7 7 -9
leaf_value=-0.064432432735338815 -0.10448782643599606 0.0921063131229444 0.032179687340699495 -0.012834382570747819 0.033737917589023711 -0.0049166689671221236 0.0060631142215182392 0.018979157596671334
leaf_weight=21 22 22 21 35 20 21 30 24
leaf_count=21 22 22 21 35 20 21 30 24
internal_value=-0.000879643 0.0108697 0.0200105 0.00950643 0.0162472 0.0127253 0.0177318 0.0118036
internal_weight=216 194 173 151 116 95 74 54
internal_count=216 194 173 151 116 95 74 54
is_linear=0
shrinkage=0.05


Tree=90
num_leaves=10
num_cat=0
split_feature=39 40 37 25 11 10 30 41 39
split_gain=116.857 55.9217 57.6156 6.23114 3.59001 3.06675 2.457 1.3416 0.648961
threshold=-0.6306203007698058 0.61263108253479015 -0.5562365949153899 0.82569292187690746 88.125000000000014 -0.00074326340109109868 2.1637499332427983 0.15137419849634173 0.051212055608630187
decision_type=2 2 2 2 2 2 2 2 2
left_child=-1 2 -2 4 6 -5 -4 8 -8
right_child=1 -3 3 5 -6 -7 7 -9 -10
leaf_value=-0.11546145286411047 0.094109610565330681 -0.067916753245517616 0.021020853463172295 0.039151370254833076 -0.016106273140758277 0.012438405224714767 0.0135729074456983 -0.0074110153090694679 0.0015610429539304714
leaf_weight=20 23 20 24 21 20 22 22 23 23
leaf_count=20 23 20 24 21 20 22 22 23 23
internal_value=-0.000278852 0.0113558 0.0202628 0.00930486 0.00309312 0.0254843 0.0072669 0.00241257 0.00743351
internal_weight=218 198 178 155 112 43 92 68 45
internal_count=218 198 178 155 112 43 92 68 45
is_linear=0
shrinkage=0.05


Tree=91
num_leaves=9
num_cat=0
split_feature=38 37 40 11 14 29 25 19
split_gain=136.562 18.0123 6.56516 8.02898 2.59795 2.59485 0.965717 0.788429
threshold=-0.44138847291469568 -0.5562365949153899 0.59826523065567028 88.264999389648452 30.494999885559086 3.1800000667572026 0.82243779301643383 0.73722448945045482
decision_type=2 2 2 2 2 2 2 2
left_child=-1 -2 3 4 5 -3 7 -7
right_child=1 2 -4 -5 -6 6 -8 -9
leaf_value=-0.095009098021203997 0.055453364583461187 0.018217192724347114 0.034959167540073395 -0.024999387012794614 0.02091833581285113 0.0020141505333594978 0.0081782849226146939 -0.011702547721903434
leaf_weight=34 23 25 20 20 34 20 20 22
leaf_count=34 23 25 20 20 34 20 20 22
internal_value=-0.00294789 0.0140634 0.00815057 0.00434793 0.00919873 0.00461865 -0.000864635 -0.00517079
internal_weight=218 184 161 141 121 87 62 42
internal_count=218 184 161 141 121 87 62 42
is_linear=0
shrinkage=0.05


Tree=92
num_leaves=9
num_cat=0
split_feature=40 33 38 42 31 38 23 1
split_gain=108.545 80.2178 19.2969 9.54714 6.45141 5.89127 5.88075 2.78469
threshold=0.66072252392768871 2.2749999761581425 -0.44138847291469568 0.75000000000000011 0.15428762137889865 -0.2124473303556442 29.365000724792484 25.972319602966312
decision_type=2 2 2 2 2 2 2 2
left_child=1 -1 -3 4 5 -4 -6 -7
right_child=-2 2 3 -5 6 7 -8 -9
leaf_value=-0.082311691875968665 -0.11192073074169458 0.056836542210751961 -0.013175362729955287 -0.016923932104625488 0.047237014301635072 0.003801589259611709 0.013777503398887348 0.027092611716326438
leaf_weight=21 20 31 21 22 29 21 24 33
leaf_count=21 20 31 21 22 29 21 24 33
internal_value=-0.000809069 0.0101921 0.0209246 0.0135028 0.0187323 0.00929609 0.0320855 0.018035
internal_weight=222 202 181 150 128 75 53 54
internal_count=222 202 181 150 128 75 53 54
is_linear=0
shrinkage=0.05


Tree=93
num_leaves=9
num_cat=0
split_feature=37 38 40 11 41 34 16 23
split_gain=184.95 8.52041 5.7502 4.69351 2.93358 2.21839 1.4796 0.273313
threshold=-0.5562365949153899 -0.38374771177768702 0.60255178809165966 88.094997406005874 0.40257126092910772 -7.840822581783867e-05 0.00055330229224637162 22.409999847412113
decision_type=2 2 2 2 2 2 2 2
left_child=-1 -2 3 4 5 7 -7 -3
right_child=1 2 -4 -5 -6 6 -8 -9
leaf_value=-0.11569686441146064 0.033929782202215618 0.0073655761295446645 0.032302284147590399 -0.017001774696552237 -0.0086431791667233825 0.0094794364413246512 0.027725242793560031 -0.00034616542514413599
leaf_weight=33 37 27 20 23 22 20 25 20
leaf_count=33 37 27 20 23 22 20 25 20
internal_value=-0.00626904 0.012345 0.0072581 0.00360202 0.00775892 0.0116812 0.019616 0.00408398
internal_weight=227 194 157 137 114 92 45 47
internal_count=227 194 157 137 114 92 45 47
is_linear=0
shrinkage=0.05


Tree=94
num_leaves=8
num_cat=0
split_feature=37 38 40 11 14 26 34
split_gain=166.916 8.7461 4.34288 5.37392 2.37934 2.28153 0.448018
threshold=-0.5562365949153899 -0.38374771177768702 0.55378392338752758 87.81000137329103 30.454999923706058 2.8199999332427983 -0.00031641084933653468
decision_type=2 2 2 2 2 2 2
left_child=-1 -2 3 4 5 -3 -7
right_child=1 2 -4 -5 -6 6 -8
leaf_value=-0.11111811368027702 0.03342672675274886 0.018191274038205543 0.028567986208945514 -0.015028263038354151 0.02451662522275001 0.0044865347013843286 -0.0043914161393574132
leaf_weight=32 39 24 20 30 20 27 30
leaf_count=32 39 24 20 30 20 27 30
internal_value=-0.00547436 0.0123183 0.00686642 0.0035532 0.00907245 0.00525907 -0.000186071
internal_weight=222 190 151 131 101 81 57
internal_count=222 190 151 131 101 81 57
is_linear=0
shrinkage=0.05


Tree=95
num_leaves=9
num_cat=0
split_feature=36 4 37 9 14 29 40 30
split_gain=134.86 19.204 49.787 4.25728 3.17072 2.54997 1.84825 0.733689
threshold=-0.50569558143615712 -1.7669039368629453 -0.5562365949153899 88.440002441406264 30.494999885559086 3.2100000381469731 0.40838812291622167 2.8832499980926518
decision_type=2 2 2 2 2 2 2 2
left_child=-1 -2 -3 4 5 -4 7 -7
right_child=1 2 3 -5 -6 6 -8 -9
leaf_value=-0.11860178833206494 -0.026799088835716245 0.092366301232860215 0.023434783245569895 -0.0048829293969486444 0.029667354621259232 -0.0049235591365556636 0.018136467067303048 0.0071286884824866836
leaf_weight=21 25 21 28 35 28 28 21 23
leaf_count=21 25 21 28 35 28 28 21 23
internal_value=0.00218261 0.0143188 0.0199055 0.0105701 0.0147955 0.0106314 0.00565231 0.000511768
internal_weight=230 209 184 163 128 100 72 51
internal_count=230 209 184 163 128 100 72 51
is_linear=0
shrinkage=0.05


Tree=96
num_leaves=9
num_cat=0
split_feature=37 7 12 14 41 40 13 25
split_gain=47.3483 9.90013 6.8165 4.77398 4.34582 3.11998 1.93763 2.77103
threshold=-0.58984401822090138 0.30255302786827093 30.932583808898929 30.494999885559086 -0.094034802168607698 0.52756714820861828 0.12207056209445001 0.14153003692626956
decision_type=2 2 2 2 2 2 2 2
left_child=-1 2 3 5 -4 6 7 -2
right_child=1 -3 4 -5 -6 -7 -8 -9
leaf_value=-0.062476931851018561 0.0013168208176891011 0.040265545924194159 -0.023920329296961428 0.038470375565811996 0.0068305769849016712 0.029585073497146369 -0.004758443123579998 0.022468791567735028
leaf_weight=22 30 32 20 20 27 20 23 32
leaf_count=22 30 32 20 20 27 20 23 32
internal_value=0.00721325 0.0147289 0.00997785 0.0160814 -0.00625492 0.0118168 0.00763602 0.012234
internal_weight=226 204 172 125 47 105 85 62
internal_count=226 204 172 125 47 105 85 62
is_linear=0
shrinkage=0.05


Tree=97
num_leaves=9
num_cat=0
split_feature=37 39 42 39 22 40 37 45
split_gain=75.8242 9.19341 4.21448 3.03426 2.91769 2.05452 1.29767 1.12128
threshold=-0.58984401822090138 -0.53644382953643788 0.75000000000000011 0.20627439767122271 0.0030466351890936498 -0.35359813272953028 1.0000000180025095e-35 74.899070739746108
decision_type=2 2 2 2 2 2 2 2
left_child=-1 -2 3 5 -5 -3 -7 -8
right_child=1 2 -4 4 -6 6 7 -9
leaf_value=-0.088128867816357384 0.04387408792972565 -0.0041453517286197073 -0.0096833023995194327 0.01049497827457694 0.035235674463381821 0.018577052096864492 -0.0024619097355753185 0.013895878139883281
leaf_weight=21 20 31 28 26 22 33 22 20
leaf_count=21 20 31 28 26 22 33 22 20
internal_value=0.00229592 0.0116965 0.00816052 0.0114048 0.0218345 0.006682 0.0111573 0.00532751
internal_weight=223 202 182 154 48 106 75 42
internal_count=223 202 182 154 48 106 75 42
is_linear=0
shrinkage=0.05


Tree=98
num_leaves=9
num_cat=0
split_feature=38 17 37 42 40 13 1 1
split_gain=122.273 312.935 52.1216 5.30417 5.75912 2.41326 1.63237 0.558988
threshold=-0.38374771177768702 30.814999580383304 -0.5562365949153899 0.41666667163372045 0.60255178809165966 0.12207056209445001 25.727230072021488 90.994293212890639
decision_type=2 2 2 2 2 2 2 2
left_child=1 -1 -2 4 5 6 -4 -7
right_child=2 -3 3 -5 -6 7 -8 -9
leaf_value=0.035111391643683119 0.087264241796472797 -0.21315991341729057 0.0041528543354669477 -0.016593909307959533 0.035198393039754597 0.0042880482153850614 0.019233326246275717 -0.0065034239378292114
leaf_weight=30 23 22 34 21 20 20 38 30
leaf_count=30 23 22 34 21 20 20 38 30
internal_value=-0.00214656 -0.0699265 0.0168027 0.00686023 0.0103288 0.00625182 0.012112 -0.00218684
internal_weight=238 52 186 163 142 122 72 50
internal_count=238 52 186 163 142 122 72 50
is_linear=0
shrinkage=0.05


Tree=99
num_leaves=8
num_cat=0
split_feature=37 38 40 11 41 40 33
split_gain=150.966 6.4478 3.72065 3.41977 1.41335 2.0412 0.522021
threshold=-0.5562365949153899 -0.38374771177768702 0.60255178809165966 87.905002593994155 0.32400973141193395 -0.20331980288028714 3.1550000905990605
decision_type=2 2 2 2 2 2 2
left_child=-1 -2 3 4 5 -3 -7
right_child=1 2 -4 -5 -6 6 -8
leaf_value=-0.11494123789348774 0.028864291591702829 0.017647358049687586 0.024623747232059637 -0.013905253669212539 -0.0046106388481954733 0.0071249249333050109 -0.0038962297097203283
leaf_weight=28 35 38 21 27 24 22 21
leaf_count=28 35 38 21 27 24 22 21
internal_value=-0.00662767 0.00950414 0.00507535 0.00196538 0.0060464 0.00920404 0.0017425
internal_weight=216 188 153 132 105 81 43
internal_count=216 188 153 132 105 81 43
is_linear=0
shrinkage=0.05


end of trees

feature_importances:
Column_37=120
Column_38=111
Column_42=79
Column_40=35
Column_14=28
Column_1=27
Column_41=26
Column_12=20
Column_10=19
Column_39=19
Column_7=18
Column_21=18
Column_29=16
Column_4=15
Column_24=15
Column_17=14
Column_33=13
Column_34=13
Column_25=12
Column_2=11
Column_22=11
Column_26=11
Column_30=11
Column_0=10
Column_13=10
Column_28=10
Column_20=9
Column_45=9
Column_31=8
Column_5=7
Column_6=7
Column_11=7
Column_16=7
Column_9=6
Column_19=6
Column_23=6
Column_27=6
Column_35=6
Column_36=6
Column_3=5
Column_15=5
Column_18=5
Column_32=3
Column_8=1

parameters:
[boosting: gbdt]
[objective: regression]
[metric: l1,l2]
[tree_learner: serial]
[device_type: cpu]
[data_sample_strategy: bagging]
[data: ]
[valid: ]
[num_iterations: 300]
[learning_rate: 0.05]
[num_leaves: 31]
[num_threads: 0]
[seed: 42]
[deterministic: 0]
[force_col_wise: 0]
[force_row_wise: 0]
[histogram_pool_size: -1]
[max_depth: -1]
[min_data_in_leaf: 20]
[min_sum_hessian_in_leaf: 0.001]
[bagging_fraction: 0.8]
[pos_bagging_fraction: 1]
[neg_bagging_fraction: 1]
[bagging_freq: 1]
[bagging_seed: 400]
[bagging_by_query: 0]
[feature_fraction: 0.9]
[feature_fraction_bynode: 1]
[feature_fraction_seed: 30056]
[extra_trees: 0]
[extra_seed: 12879]
[early_stopping_round: 0]
[early_stopping_min_delta: 0]
[first_metric_only: 0]
[max_delta_step: 0]
[lambda_l1: 0]
[lambda_l2: 0]
[linear_lambda: 0]
[min_gain_to_split: 0]
[drop_rate: 0.1]
[max_drop: 50]
[skip_drop: 0.5]
[xgboost_dart_mode: 0]
[uniform_drop: 0]
[drop_seed: 17869]
[top_rate: 0.2]
[other_rate: 0.1]
[min_data_per_group: 100]
[max_cat_threshold: 32]
[cat_l2: 10]
[cat_smooth: 10]
[max_cat_to_onehot: 4]
[top_k: 20]
[monotone_constraints: ]
[monotone_constraints_method: basic]
[monotone_penalty: 0]
[feature_contri: ]
[forcedsplits_filename: ]
[refit_decay_rate: 0.9]
[cegb_tradeoff: 1]
[cegb_penalty_split: 0]
[cegb_penalty_feature_lazy: ]
[cegb_penalty_feature_coupled: ]
[path_smooth: 0]
[interaction_constraints: ]
[verbosity: -1]
[saved_feature_importance_type: 0]
[use_quantized_grad: 0]
[num_grad_quant_bins: 4]
[quant_train_renew_leaf: 0]
[stochastic_rounding: 1]
[linear_tree: 0]
[max_bin: 255]
[max_bin_by_feature: ]
[min_data_in_bin: 3]
[bin_construct_sample_cnt: 200000]
[data_random_seed: 175]
[is_enable_sparse: 1]
[enable_bundle: 1]
[use_missing: 1]
[zero_as_missing: 0]
[feature_pre_filter: 1]
[pre_partition: 0]
[two_round: 0]
[header: 0]
[label_column: ]
[weight_column: ]
[group_column: ]
[ignore_column: ]
[categorical_feature: ]
[forcedbins_filename: ]
[precise_float_parser: 0]
[parser_config_file: ]
[objective_seed: 16083]
[num_class: 1]
[is_unbalance: 0]
[scale_pos_weight: 1]
[sigmoid: 1]
[boost_from_average: 1]
[reg_sqrt: 0]
[alpha: 0.9]
[fair_c: 1]
[poisson_max_delta_step: 0.7]
[tweedie_variance_power: 1.5]
[lambdarank_truncation_level: 30]
[lambdarank_norm: 1]
[label_gain: ]
[lambdarank_position_bias_regularization: 0]
[eval_at: ]
[multi_error_top_k: 1]
[auc_mu_weights: ]
[num_machines: 1]
[local_listen_port: 12400]
[time_out: 120]
[machine_list_filename: ]
[machines: ]
[gpu_platform_id: -1]
[gpu_device_id: -1]
[gpu_use_dp: 0]
[num_gpu: 1]

end of parameters

pandas_categorical:null
