{"learner":{"attributes":{},"feature_names":[],"feature_types":[],"gradient_booster":{"model":{"cats":{"enc":[],"feature_segments":[],"sorted_idx":[]},"gbtree_model_param":{"num_parallel_tree":"1","num_trees":"50"},"iteration_indptr":[0,1,2,3,4,5,6,7,8,9,10,11,12,13,14,15,16,17,18,19,20,21,22,23,24,25,26,27,28,29,30,31,32,33,34,35,36,37,38,39,40,41,42,43,44,45,46,47,48,49,50],"tree_info":[0,0,0,0,0,0,0,0,0,0,0,0,0,0,0,0,0,0,0,0,0,0,0,0,0,0,0,0,0,0,0,0,0,0,0,0,0,0,0,0,0,0,0,0,0,0,0,0,0,0],"trees":[{"base_weights":[1.0958369E1,2.3568971E2,-6.592022E1,5.331001E2,8.049113E1,3.7002332E2,7.368112E2,-1.650918E2,3.6452655E2,6.254258E1,1.0787845E1,-2.1439576E0,7.7225174E1,-2.6280157E1,4.6623074E1,7.4722374E1,-1.3911193E1],"categories":[],"categories_nodes":[],"categories_segments":[],"categories_sizes":[],"default_left":[0,0,0,0,0,0,0,0,0,0,0,0,0,0,0,0,0],"id":0,"left_children":[1,3,-1,5,7,9,11,13,15,-1,-1,-1,-1,-1,-1,-1,-1],"loss_changes":[3.1782642E7,7.250001E6,0E0,1.521274E6,7.384376E6,2.0750085E6,6.34629E5,3.63865E6,9.548256E6,0E0,0E0,0E0,0E0,0E0,0E0,0E0,0E0],"parents":[2147483647,0,0,1,1,3,3,4,4,5,5,6,6,7,7,8,8],"right_children":[2,4,-1,6,8,10,12,14,16,-1,-1,-1,-1,-1,-1,-1,-1],"split_conditions":[8.3333336E-2,3.0407833E1,-6.592022E1,3.39E0,4.2519265E-1,7.956E1,7.6912135E-2,2.899E0,8.92715E1,6.254258E1,1.0787845E1,-2.1439576E0,7.7225174E1,-2.6280157E1,4.6623074E1,7.4722374E1,-1.3911193E1],"split_indices":[24,9,0,16,22,4,10,21,5,0,0,0,0,0,0,0,0],"split_type":[0,0,0,0,0,0,0,0,0,0,0,0,0,0,0,0,0],"sum_hessian":[2.09E2,1.57E2,5.2E1,5.3E1,1.04E2,3.1E1,2.2E1,5.6E1,4.8E1,1.5E1,1.6E1,1E0,2.1E1,4.9E1,7E0,2.7E1,2.1E1],"tree_param":{"num_deleted":"0","num_feature":"26","num_nodes":"17","size_leaf_vector":"1"}},{"base_weights":[1.04575205E1,2.108874E2,-5.947375E1,2.8740747E2,-3.2022006E2,4.9847147E2,1.6132176E2,-1.1797152E2,-4.3560596E1,3.7863228E1,7.104571E1,-9.827517E0,5.428491E1,-5.978638E-1,-1.4911539E1],"categories":[],"categories_nodes":[],"categories_segments":[],"categories_sizes":[],"default_left":[0,0,0,0,0,0,0,0,0,0,0,0,0,0,0],"id":1,"left_children":[1,3,-1,5,7,9,11,13,-1,-1,-1,-1,-1,-1,-1],"loss_changes":[2.6326042E7,6.7164155E6,0E0,3.725123E6,4.3868E5,1.07742E6,9.06629E6,3.0499516E4,0E0,0E0,0E0,0E0,0E0,0E0,0E0],"parents":[2147483647,0,0,1,1,3,3,4,4,5,5,6,6,7,7],"right_children":[2,4,-1,6,8,10,12,14,-1,-1,-1,-1,-1,-1,-1],"split_conditions":[8.3333336E-2,1.5633083E1,-5.947375E1,3.0407833E1,9.0812836E1,2.2215002E0,2.2756584E3,8.969E1,-4.3560596E1,3.7863228E1,7.104571E1,-9.827517E0,5.428491E1,-5.978638E-1,-1.4911539E1],"split_indices":[24,17,0,9,5,21,1,4,0,0,0,0,0,0,0],"split_type":[0,0,0,0,0,0,0,0,0,0,0,0,0,0,0],"sum_hessian":[2.15E2,1.62E2,5.3E1,1.42E2,2E1,5.2E1,9E1,8E0,1.2E1,3.5E1,1.7E1,5.4E1,3.6E1,2E0,6E0],"tree_param":{"num_deleted":"0","num_feature":"26","num_nodes":"15","size_leaf_vector":"1"}},{"base_weights":[3.6225243E0,1.9146417E2,-5.368977E1,2.5584343E2,-2.848586E2,1.3942299E2,5.114572E2,-1.225468E2,-4.065186E1,3.9001675E1,-1.5679145E1,6.883737E1,2.0783955E1,-2.5199158E0,-1.6066732E1],"categories":[],"categories_nodes":[],"categories_segments":[],"categories_sizes":[],"default_left":[0,0,0,0,0,0,0,0,0,0,0,0,0,0,0],"id":2,"left_children":[1,3,-1,5,7,9,11,13,-1,-1,-1,-1,-1,-1,-1],"loss_changes":[2.2439886E7,5.101989E6,0E0,4.243699E6,3.451195E5,7.558329E6,2.274103E6,3.3060766E4,0E0,0E0,0E0,0E0,0E0,0E0,0E0],"parents":[2147483647,0,0,1,1,3,3,4,4,5,5,6,6,7,7],"right_children":[2,4,-1,6,8,10,12,14,-1,-1,-1,-1,-1,-1,-1],"split_conditions":[8.3333336E-2,1.5633083E1,-5.368977E1,1.8517667E3,1.6521667E1,3.04625E1,1.4200334E1,8.996E1,-4.065186E1,3.9001675E1,-1.5679145E1,6.883737E1,2.0783955E1,-2.5199158E0,-1.6066732E1],"split_indices":[24,17,0,1,17,9,17,4,0,0,0,0,0,0,0],"split_type":[0,0,0,0,0,0,0,0,0,0,0,0,0,0,0],"sum_hessian":[2.19E2,1.63E2,5.6E1,1.44E2,1.9E1,1E2,4.4E1,9E0,1E1,5.4E1,4.6E1,2.7E1,1.7E1,3E0,6E0],"tree_param":{"num_deleted":"0","num_feature":"26","num_nodes":"15","size_leaf_vector":"1"}},{"base_weights":[-3.9175317E0,1.5705446E2,-4.838355E1,3.858354E2,4.434072E1,2.5177892E2,6.011424E2,-1.25669716E2,2.0760797E2,4.568572E1,-2.0305111E0,6.909071E1,2.7654028E1,-2.7223267E1,2.4859203E1,5.8116253E1,-1.0239287E1],"categories":[],"categories_nodes":[],"categories_segments":[],"categories_sizes":[],"default_left":[0,0,0,0,0,0,0,0,0,0,0,0,0,0,0,0,0],"id":3,"left_children":[1,3,-1,5,7,9,11,13,15,-1,-1,-1,-1,-1,-1,-1,-1],"loss_changes":[1.6917218E7,4.211919E6,0E0,1.4072635E6,3.1071322E6,1.9622245E6,3.916925E5,3.084585E6,6.660235E6,0E0,0E0,0E0,0E0,0E0,0E0,0E0,0E0],"parents":[2147483647,0,0,1,1,3,3,4,4,5,5,6,6,7,7,8,8],"right_children":[2,4,-1,6,8,10,12,14,16,-1,-1,-1,-1,-1,-1,-1,-1],"split_conditions":[8.3333336E-2,3.0407833E1,-4.838355E1,2.2204168E0,2.27255E3,8.032E1,8.661617E1,2.8839166E0,8.951E1,4.568572E1,-2.0305111E0,6.909071E1,2.7654028E1,-2.7223267E1,2.4859203E1,5.8116253E1,-1.0239287E1],"split_indices":[24,9,0,21,1,4,5,21,4,0,0,0,0,0,0,0,0],"split_type":[0,0,0,0,0,0,0,0,0,0,0,0,0,0,0,0,0],"sum_hessian":[2.17E2,1.63E2,5.4E1,5.3E1,1.1E2,3.4E1,1.9E1,5.4E1,5.6E1,1.9E1,1.5E1,1.4E1,5E0,3.9E1,1.5E1,2.5E1,3.1E1],"tree_param":{"num_deleted":"0","num_feature":"26","num_nodes":"17","size_leaf_vector":"1"}},{"base_weights":[1.3818802E0,1.420192E2,-4.3618202E1,1.9562758E2,-2.8867957E2,1.354956E2,5.217695E2,-3.591938E1,-1.4682324E2,-1.3074491E0,3.833848E1,6.348654E1,2.3035643E1,-1.5526222E1,-4.3875213E0],"categories":[],"categories_nodes":[],"categories_segments":[],"categories_sizes":[],"default_left":[0,0,0,0,0,0,0,0,0,0,0,0,0,0,0],"id":4,"left_children":[1,3,-1,5,7,9,11,-1,13,-1,-1,-1,-1,-1,-1],"loss_changes":[1.3661802E7,3.9354362E6,0E0,2.871036E6,1.3731688E5,4.719115E6,6.1178E5,0E0,1.3803125E2,0E0,0E0,0E0,0E0,0E0,0E0],"parents":[2147483647,0,0,1,1,3,3,4,4,5,5,6,6,8,8],"right_children":[2,4,-1,6,8,10,12,-1,14,-1,-1,-1,-1,-1,-1],"split_conditions":[8.3333336E-2,1.6053251E1,-4.3618202E1,2.899E0,2.3200132E-1,1.8517667E3,9.499833E0,-3.591938E1,1.2034551E0,-1.3074491E0,3.833848E1,6.348654E1,2.3035643E1,-1.5526222E1,-4.3875213E0],"split_indices":[24,17,0,21,6,1,17,0,3,0,0,0,0,0,0],"split_type":[0,0,0,0,0,0,0,0,0,0,0,0,0,0,0],"sum_hessian":[2.2E2,1.67E2,5.3E1,1.49E2,1.8E1,1.27E2,2.2E1,1.1E1,7E0,8E1,4.7E1,1.5E1,7E0,6E0,1E0],"tree_param":{"num_deleted":"0","num_feature":"26","num_nodes":"15","size_leaf_vector":"1"}},{"base_weights":[-4.596708E0,1.3227133E2,-3.9388344E1,3.6715103E2,2.0935974E1,2.4603026E2,5.0325403E2,-3.6017633E2,8.294476E1,4.9366558E1,5.3514175E0,5.559799E1,2.5241323E1,-1.5498548E1,-4.1565784E1,1.70128E1,-2.0874529E1],"categories":[],"categories_nodes":[],"categories_segments":[],"categories_sizes":[],"default_left":[0,0,0,0,0,0,0,0,0,0,0,0,0,0,0,0,0],"id":5,"left_children":[1,3,-1,5,7,9,11,13,15,-1,-1,-1,-1,-1,-1,-1,-1],"loss_changes":[1.1880461E7,4.307132E6,0E0,7.498845E5,2.7003262E6,1.4037955E6,1.770815E5,1.1772775E5,2.5277008E6,0E0,0E0,0E0,0E0,0E0,0E0,0E0,0E0],"parents":[2147483647,0,0,1,1,3,3,4,4,5,5,6,6,7,7,8,8],"right_children":[2,4,-1,6,8,10,12,14,16,-1,-1,-1,-1,-1,-1,-1,-1],"split_conditions":[8.3333336E-2,3.0407833E1,-3.9388344E1,3.39E0,8.9426595E-1,7.932E1,8.661617E1,8.488E1,1.5490832E1,4.9366558E1,5.3514175E0,5.559799E1,2.5241323E1,-1.5498548E1,-4.1565784E1,1.70128E1,-2.0874529E1],"split_indices":[24,9,0,16,14,4,5,4,17,0,0,0,0,0,0,0,0],"split_type":[0,0,0,0,0,0,0,0,0,0,0,0,0,0,0,0,0],"sum_hessian":[2.21E2,1.64E2,5.7E1,5.2E1,1.12E2,2.9E1,2.3E1,1.5E1,9.7E1,1.2E1,1.7E1,1.8E1,5E0,4E0,1.1E1,7.5E1,2.2E1],"tree_param":{"num_deleted":"0","num_feature":"26","num_nodes":"17","size_leaf_vector":"1"}},{"base_weights":[1.0948884E0,1.2482251E2,-3.551742E1,7.475175E1,4.3505893E2,4.6564282E2,1.9198692E1,5.2979736E1,1.9119975E2,5.3404E1,2.398419E1,-1.0571849E1,1.7178354E1,2.1331173E1,1.8208008E0],"categories":[],"categories_nodes":[],"categories_segments":[],"categories_sizes":[],"default_left":[0,0,0,0,0,0,0,0,0,0,0,0,0,0,0],"id":6,"left_children":[1,3,-1,5,7,9,11,-1,13,-1,-1,-1,-1,-1,-1],"loss_changes":[9.918327E6,2.561619E6,0E0,3.1397632E6,4.300685E5,1.4990925E5,2.4579008E6,0E0,2.6717531E4,0E0,0E0,0E0,0E0,0E0,0E0],"parents":[2147483647,0,0,1,1,3,3,4,4,5,5,6,6,8,8],"right_children":[2,4,-1,6,8,10,12,-1,14,-1,-1,-1,-1,-1,-1],"split_conditions":[8.3333336E-2,2.899E0,-3.551742E1,7.8997086E1,9.575916E0,7.792333E1,2.27255E3,5.2979736E1,8.696683E1,5.3404E1,2.398419E1,-1.0571849E1,1.7178354E1,2.1331173E1,1.8208008E0],"split_indices":[24,21,0,5,17,5,1,0,5,0,0,0,0,0,0],"split_type":[0,0,0,0,0,0,0,0,0,0,0,0,0,0,0],"sum_hessian":[2.23E2,1.66E2,5.7E1,1.44E2,2.2E1,1.7E1,1.27E2,1.5E1,7E0,1.2E1,5E0,7E1,5.7E1,6E0,1E0],"tree_param":{"num_deleted":"0","num_feature":"26","num_nodes":"15","size_leaf_vector":"1"}},{"base_weights":[3.626025E0,1.1842443E2,-3.1996267E1,1.7345065E2,-2.2211826E2,9.4618454E1,3.775616E2,-8.529786E1,-3.1027872E1,2.0257181E1,-3.1085682E1,5.889629E1,1.4628867E1,-2.723662E0,-1.062903E1],"categories":[],"categories_nodes":[],"categories_segments":[],"categories_sizes":[],"default_left":[0,0,0,0,0,0,0,0,0,0,0,0,0,0,0],"id":7,"left_children":[1,3,-1,5,7,9,11,13,-1,-1,-1,-1,-1,-1,-1],"loss_changes":[7.801712E6,2.9430375E6,0E0,2.1204058E6,2.3890112E5,4.3526675E6,1.7228225E6,9.293484E3,0E0,0E0,0E0,0E0,0E0,0E0,0E0],"parents":[2147483647,0,0,1,1,3,3,4,4,5,5,6,6,7,7],"right_children":[2,4,-1,6,8,10,12,14,-1,-1,-1,-1,-1,-1,-1],"split_conditions":[8.3333336E-2,1.5490832E1,-3.1996267E1,1.8517667E3,9.0812836E1,3.068E1,8.8782585E1,-3.0594077E-3,-3.1027872E1,2.0257181E1,-3.1085682E1,5.889629E1,1.4628867E1,-2.723662E0,-1.062903E1],"split_indices":[24,17,0,1,5,8,5,7,0,0,0,0,0,0,0],"split_type":[0,0,0,0,0,0,0,0,0,0,0,0,0,0,0],"sum_hessian":[2.08E2,1.54E2,5.4E1,1.33E2,2.1E1,9.7E1,3.6E1,9E0,1.2E1,7.7E1,2E1,1.8E1,1.8E1,3E0,6E0],"tree_param":{"num_deleted":"0","num_feature":"26","num_nodes":"15","size_leaf_vector":"1"}},{"base_weights":[-6.265459E0,9.2550896E1,-2.8873564E1,4.4189182E1,3.8500528E2,3.4747586E2,-1.48005905E1,4.6215527E1,1.4264018E2,4.5317745E1,1.909671E1,-1.5274108E1,1.4310997E1,1.6402388E1,7.1690065E-1],"categories":[],"categories_nodes":[],"categories_segments":[],"categories_sizes":[],"default_left":[0,0,0,0,0,0,0,0,0,0,0,0,0,0,0],"id":8,"left_children":[1,3,-1,5,7,9,11,-1,13,-1,-1,-1,-1,-1,-1],"loss_changes":[6.1395985E6,2.288393E6,0E0,2.5277475E6,3.6414275E5,2.93952E5,2.6139478E6,0E0,1.910225E4,0E0,0E0,0E0,0E0,0E0,0E0],"parents":[2147483647,0,0,1,1,3,3,4,4,5,5,6,6,8,8],"right_children":[2,4,-1,6,8,10,12,-1,14,-1,-1,-1,-1,-1,-1],"split_conditions":[8.3333336E-2,2.899E0,-2.8873564E1,8.032E1,9.575916E0,7.849E1,4.2519265E-1,4.6215527E1,8.67E1,4.5317745E1,1.909671E1,-1.5274108E1,1.4310997E1,1.6402388E1,7.1690065E-1],"split_indices":[24,21,0,4,17,4,22,0,4,0,0,0,0,0,0],"split_type":[0,0,0,0,0,0,0,0,0,0,0,0,0,0,0],"sum_hessian":[2.18E2,1.62E2,5.6E1,1.4E2,2.2E1,2.2E1,1.18E2,1.6E1,6E0,1.2E1,1E1,6.3E1,5.5E1,5E0,1E0],"tree_param":{"num_deleted":"0","num_feature":"26","num_nodes":"15","size_leaf_vector":"1"}},{"base_weights":[-3.5095446E0,8.976738E1,-2.6036863E1,1.3745224E2,-2.0909207E2,6.7545746E1,3.1595987E2,-1.004639E2,-3.0858717E1,1.7176157E1,-2.8428745E1,5.4564236E1,1.2411616E1,-4.1028686E0,-1.2505292E1],"categories":[],"categories_nodes":[],"categories_segments":[],"categories_sizes":[],"default_left":[0,0,0,0,0,0,0,0,0,0,0,0,0,0,0],"id":9,"left_children":[1,3,-1,5,7,9,11,13,-1,-1,-1,-1,-1,-1,-1],"loss_changes":[5.126645E6,2.2661585E6,0E0,1.6757805E6,2.0677344E5,3.6788215E6,1.6066758E6,1.24066875E4,0E0,0E0,0E0,0E0,0E0,0E0,0E0],"parents":[2147483647,0,0,1,1,3,3,4,4,5,5,6,6,7,7],"right_children":[2,4,-1,6,8,10,12,14,-1,-1,-1,-1,-1,-1,-1],"split_conditions":[8.3333336E-2,1.5490832E1,-2.6036863E1,1.891E3,1.6521667E1,3.0690584E1,8.86965E1,8.996E1,-3.0858717E1,1.7176157E1,-2.8428745E1,5.4564236E1,1.2411616E1,-4.1028686E0,-1.2505292E1],"split_indices":[24,17,0,0,17,9,5,4,0,0,0,0,0,0,0],"split_type":[0,0,0,0,0,0,0,0,0,0,0,0,0,0,0],"sum_hessian":[2.12E2,1.56E2,5.6E1,1.35E2,2.1E1,9.8E1,3.7E1,1.1E1,1E1,7.6E1,2.2E1,1.6E1,2.1E1,4E0,7E0],"tree_param":{"num_deleted":"0","num_feature":"26","num_nodes":"15","size_leaf_vector":"1"}},{"base_weights":[1.0613067E0,8.348554E1,-2.3486084E1,1.3462396E2,-1.348636E2,7.0625206E1,3.661151E2,-4.3668285E1,-2.4899556E2,1.3997085E1,-2.3802683E1,5.1560585E1,1.9221668E1,-1.9130623E1,-1.5045809E0,-1.6242083E1,-3.123673E1],"categories":[],"categories_nodes":[],"categories_segments":[],"categories_sizes":[],"default_left":[0,0,0,0,0,0,0,0,0,0,0,0,0,0,0,0,0],"id":10,"left_children":[1,3,-1,5,7,9,11,13,15,-1,-1,-1,-1,-1,-1,-1,-1],"loss_changes":[4.355999E6,1.8717169E6,0E0,1.9741875E6,3.2219238E5,2.3235095E6,6.5478225E5,7.741116E4,2.6074562E4,0E0,0E0,0E0,0E0,0E0,0E0,0E0,0E0],"parents":[2147483647,0,0,1,1,3,3,4,4,5,5,6,6,7,7,8,8],"right_children":[2,4,-1,6,8,10,12,14,16,-1,-1,-1,-1,-1,-1,-1,-1],"split_conditions":[8.3333336E-2,1.49E1,-2.3486084E1,1.892E3,9.0308E1,3.0690584E1,8.8316414E1,2.235E3,1.6883917E1,1.3997085E1,-2.3802683E1,5.1560585E1,1.9221668E1,-1.9130623E1,-1.5045809E0,-1.6242083E1,-3.123673E1],"split_indices":[24,16,0,0,5,9,5,0,17,0,0,0,0,0,0,0,0],"split_type":[0,0,0,0,0,0,0,0,0,0,0,0,0,0,0,0,0],"sum_hessian":[2.22E2,1.65E2,5.7E1,1.34E2,3.1E1,1.06E2,2.8E1,1.8E1,1.3E1,8.7E1,1.9E1,1.4E1,1.4E1,2E0,1.6E1,7E0,6E0],"tree_param":{"num_deleted":"0","num_feature":"26","num_nodes":"17","size_leaf_vector":"1"}},{"base_weights":[-3.4276185E0,6.307876E1,-2.1150448E1,2.4058253E2,6.173843E0,1.4708731E2,3.5187714E2,-2.7938287E2,7.076995E1,2.2047796E1,-2.7253747E0,1.2478897E1,3.8897552E1,-1.9064912E0,-2.8987213E1,1.5107457E1,-1.1965557E1],"categories":[],"categories_nodes":[],"categories_segments":[],"categories_sizes":[],"default_left":[0,0,0,0,0,0,0,0,0,0,0,0,0,0,0,0,0],"id":11,"left_children":[1,3,-1,5,7,9,11,13,15,-1,-1,-1,-1,-1,-1,-1,-1],"loss_changes":[3.0854742E6,1.7055561E6,0E0,3.7486925E5,2.399287E6,3.1308897E5,1.0310325E5,6.0006625E4,1.6390341E6,0E0,0E0,0E0,0E0,0E0,0E0,0E0,0E0],"parents":[2147483647,0,0,1,1,3,3,4,4,5,5,6,6,7,7,8,8],"right_children":[2,4,-1,6,8,10,12,14,16,-1,-1,-1,-1,-1,-1,-1,-1],"split_conditions":[8.3333336E-2,3.027E1,-2.1150448E1,3.3156664E0,8.9426595E-1,8.0554245E1,8.054176E-2,8.175192E1,1.49E1,2.2047796E1,-2.7253747E0,1.2478897E1,3.8897552E1,-1.9064912E0,-2.8987213E1,1.5107457E1,-1.1965557E1],"split_indices":[24,8,0,17,14,5,10,5,16,0,0,0,0,0,0,0,0],"split_type":[0,0,0,0,0,0,0,0,0,0,0,0,0,0,0,0,0],"sum_hessian":[2.21E2,1.68E2,5.3E1,4E1,1.28E2,2.3E1,1.7E1,2.3E1,1.05E2,1.6E1,7E0,3E0,1.4E1,1E0,2.2E1,7.4E1,3.1E1],"tree_param":{"num_deleted":"0","num_feature":"26","num_nodes":"17","size_leaf_vector":"1"}},{"base_weights":[7.205158E0,7.39909E1,-1.9093512E1,1.1871059E2,-1.2891322E2,5.8248E1,2.967066E2,-4.9725704E1,-2.2151765E2,1.2139999E1,-2.5373108E1,3.988208E1,1.1504813E1,-1.815383E1,-2.1902986E0,-2.4516417E1,-1.011103E1],"categories":[],"categories_nodes":[],"categories_segments":[],"categories_sizes":[],"default_left":[0,0,0,0,0,0,0,0,0,0,0,0,0,0,0,0,0],"id":12,"left_children":[1,3,-1,5,7,9,11,13,15,-1,-1,-1,-1,-1,-1,-1,-1],"loss_changes":[2.99154E6,1.5487771E6,0E0,1.4786492E6,2.1631147E5,2.0995235E6,6.0336325E5,6.2036695E4,1.5072375E4,0E0,0E0,0E0,0E0,0E0,0E0,0E0,0E0],"parents":[2147483647,0,0,1,1,3,3,4,4,5,5,6,6,7,7,8,8],"right_children":[2,4,-1,6,8,10,12,14,16,-1,-1,-1,-1,-1,-1,-1,-1],"split_conditions":[8.3333336E-2,1.49E1,-1.9093512E1,1.851525E3,9.0517334E1,3.0713335E1,1.413E1,2.223E3,2.3200132E-1,1.2139999E1,-2.5373108E1,3.988208E1,1.1504813E1,-1.815383E1,-2.1902986E0,-2.4516417E1,-1.011103E1],"split_indices":[24,16,0,1,5,9,16,0,6,0,0,0,0,0,0,0,0],"split_type":[0,0,0,0,0,0,0,0,0,0,0,0,0,0,0,0,0],"sum_hessian":[2.24E2,1.68E2,5.6E1,1.38E2,3E1,1.04E2,3.4E1,1.7E1,1.3E1,8.7E1,1.7E1,2.1E1,1.3E1,2E0,1.5E1,1E1,3E0],"tree_param":{"num_deleted":"0","num_feature":"26","num_nodes":"17","size_leaf_vector":"1"}},{"base_weights":[5.344262E-1,1.9976463E2,-6.1049057E1,3.4733284E1,1.4545306E2,-2.0023134E2,8.465124E0,1.7787094E1,3.0962155E2,1.0709265E2,-2.2002104E2,1.3064139E2,-1.1830783E2,1.1103572E1,-9.403283E0,3.6558804E1,1.7744259E1,-8.762558E0,2.0120726E1,-2.7225256E1,-1.6920803E1,-2.9248931E0,2.9728668E1,-5.096988E0,-1.769222E1],"categories":[],"categories_nodes":[],"categories_segments":[],"categories_sizes":[],"default_left":[0,0,0,0,0,0,0,0,0,0,0,0,0,0,0,0,0,0,0,0,0,0,0,0,0],"id":13,"left_children":[1,3,5,-1,7,9,11,13,15,17,19,21,23,-1,-1,-1,-1,-1,-1,-1,-1,-1,-1,-1,-1],"loss_changes":[2.6500928E6,3.5822725E5,1.5980932E6,0E0,8.11883E5,3.580645E5,1.7346956E6,2.5026325E5,6.088825E4,9.093422E4,9.194275E4,1.5274585E6,2.0806569E5,0E0,0E0,0E0,0E0,0E0,0E0,0E0,0E0,0E0,0E0,0E0,0E0],"parents":[2147483647,0,0,1,1,2,2,4,4,5,5,6,6,7,7,8,8,9,9,10,10,11,11,12,12],"right_children":[2,4,6,-1,8,10,12,14,16,18,20,22,24,-1,-1,-1,-1,-1,-1,-1,-1,-1,-1,-1,-1],"split_conditions":[3.0407833E1,7.807E1,1.4842167E-1,3.4733284E1,2.8942318E0,1.6491583E1,1.4577833E1,8.173E1,9.103E0,9.19E2,8.3333336E-2,1.7587667E1,1.623E1,1.1103572E1,-9.403283E0,3.6558804E1,1.7744259E1,-8.762558E0,2.0120726E1,-2.7225256E1,-1.6920803E1,-2.9248931E0,2.9728668E1,-5.096988E0,-1.769222E1],"split_indices":[9,4,22,0,14,13,17,4,17,0,24,13,16,0,0,0,0,0,0,0,0,0,0,0,0],"split_type":[0,0,0,0,0,0,0,0,0,0,0,0,0,0,0,0,0,0,0,0,0,0,0,0,0],"sum_hessian":[2.14E2,5E1,1.64E2,1.2E1,3.8E1,5.4E1,1.1E2,2.2E1,1.6E1,3E0,5.1E1,5.6E1,5.4E1,1.2E1,1E1,1E1,6E0,1E0,2E0,2.3E1,2.8E1,2.9E1,2.7E1,2.6E1,2.8E1],"tree_param":{"num_deleted":"0","num_feature":"26","num_nodes":"25","size_leaf_vector":"1"}},{"base_weights":[1.0941888E-2,-4.1564663E1,2.1019843E2,2.0876729E2,-8.091108E1,3.5228723E2,7.8913E1,2.9761591E1,1.0385963E1,-1.6359253E2,3.382927E1,1.723381E1,3.785379E1,1.2014258E2,-1.9476875E1,-1.8563822E1,-2.750665E0,3.2933086E1,-8.144339E0,1.4933581E1,5.29338E0],"categories":[],"categories_nodes":[],"categories_segments":[],"categories_sizes":[],"default_left":[0,0,0,0,0,0,0,0,0,0,0,0,0,0,0,0,0,0,0,0,0],"id":14,"left_children":[1,3,5,7,9,11,13,-1,-1,15,17,-1,-1,19,-1,-1,-1,-1,-1,-1,-1],"loss_changes":[1.9050285E6,1.8095308E6,6.4375075E5,2.0211238E5,1.504464E6,1.5068E4,2.4907564E5,0E0,0E0,2.709035E5,2.3090598E6,0E0,0E0,2.7411844E4,0E0,0E0,0E0,0E0,0E0,0E0,0E0],"parents":[2147483647,0,0,1,1,2,2,3,3,4,4,5,5,6,6,9,9,10,10,13,13],"right_children":[2,4,6,8,10,12,14,-1,-1,16,18,-1,-1,20,-1,-1,-1,-1,-1,-1,-1],"split_conditions":[2.8839166E0,7.998025E1,9.769166E0,7.792333E1,4.2519265E-1,8.626517E1,8.7296074E1,2.9761591E1,1.0385963E1,2.8715003E0,1.4200334E1,1.723381E1,3.785379E1,1.0940917E1,-1.9476875E1,-1.8563822E1,-2.750665E0,3.2933086E1,-8.144339E0,1.4933581E1,5.29338E0],"split_indices":[21,5,17,5,22,5,5,0,0,21,17,0,0,17,0,0,0,0,0,0,0],"split_type":[0,0,0,0,0,0,0,0,0,0,0,0,0,0,0,0,0,0,0,0,0],"sum_hessian":[2.16E2,1.81E2,3.5E1,2.4E1,1.57E2,1.6E1,1.9E1,1.2E1,1.2E1,9.1E1,6.6E1,3E0,1.3E1,1.7E1,2E0,7.8E1,1.3E1,1.8E1,4.8E1,1.1E1,6E0],"tree_param":{"num_deleted":"0","num_feature":"26","num_nodes":"21","size_leaf_vector":"1"}},{"base_weights":[2.6898456E0,1.761513E2,-3.9659023E1,2.8436096E1,1.3207204E2,-1.8072072E2,1.500949E1,2.5431618E2,7.050324E1,-2.2187769E2,-1.3562749E1,1.5330933E2,-7.370253E1,5.0518923E0,2.713471E1,1.0343887E1,-6.216566E0,-1.422053E1,-2.7222528E1,6.0565066E0,3.7421932E1,-1.799027E1,-1.367994E0],"categories":[],"categories_nodes":[],"categories_segments":[],"categories_sizes":[],"default_left":[0,0,0,0,0,0,0,0,0,0,0,0,0,0,0,0,0,0,0,0,0,0,0],"id":15,"left_children":[1,3,5,-1,7,9,11,13,15,17,-1,19,21,-1,-1,-1,-1,-1,-1,-1,-1,-1,-1],"loss_changes":[1.5349326E6,1.5800588E5,1.2982668E6,0E0,2.15389E5,5.7134625E4,1.5081E6,2.1000438E4,1.02560086E5,5.354825E4,0E0,9.607659E5,4.7561962E5,0E0,0E0,0E0,0E0,0E0,0E0,0E0,0E0,0E0,0E0],"parents":[2147483647,0,0,1,1,2,2,4,4,5,5,6,6,7,7,8,8,9,9,11,11,12,12],"right_children":[2,4,6,-1,8,10,12,14,16,18,-1,20,22,-1,-1,-1,-1,-1,-1,-1,-1,-1,-1],"split_conditions":[3.027E1,7.769E1,8.9426595E-1,2.8436096E1,1.504E3,8.664E1,1.346E1,1.5168189E-1,8.128E1,8.476E1,-1.3562749E1,2.183E1,4.3222818E-1,5.0518923E0,2.713471E1,1.0343887E1,-6.216566E0,-1.422053E1,-2.7222528E1,6.0565066E0,3.7421932E1,-1.799027E1,-1.367994E0],"split_indices":[8,4,14,0,0,4,16,6,4,4,0,12,22,0,0,0,0,0,0,0,0,0,0],"split_type":[0,0,0,0,0,0,0,0,0,0,0,0,0,0,0,0,0,0,0,0,0,0,0],"sum_hessian":[2.07E2,4E1,1.67E2,1E1,3E1,4.6E1,1.21E2,9E0,2.1E1,2.2E1,2.4E1,4.7E1,7.4E1,1E0,8E0,1.7E1,4E0,1E1,1.2E1,3.4E1,1.3E1,2.6E1,4.8E1],"tree_param":{"num_deleted":"0","num_feature":"26","num_nodes":"23","size_leaf_vector":"1"}},{"base_weights":[-2.7608008E0,1.292649E2,-4.7292408E1,1.9287376E2,3.2379772E1,-1.22353424E2,1.9684494E1,2.3006454E2,4.7894493E1,1.2566875E2,-1.5824565E2,-1.6234378E2,2.8338652E1,1.5511217E2,-9.887336E1,2.497015E1,5.963596E0,8.321065E0,-8.22432E-1,2.1364569E1,6.6256905E0,-3.668039E0,-1.7037207E1,-2.2746538E1,-1.1080197E1,1.4071876E1,-2.0114468E1,-1.220408E-1,2.1984358E1,-3.5617466E0,-1.5800952E1],"categories":[],"categories_nodes":[],"categories_segments":[],"categories_sizes":[],"default_left":[0,0,0,0,0,0,0,0,0,0,0,0,0,0,0,0,0,0,0,0,0,0,0,0,0,0,0,0,0,0,0],"id":16,"left_children":[1,3,5,7,9,11,13,15,17,19,21,23,25,27,29,-1,-1,-1,-1,-1,-1,-1,-1,-1,-1,-1,-1,-1,-1,-1,-1],"loss_changes":[1.281925E6,3.327063E5,8.2186725E5,1.669135E5,4.2890128E5,4.6862038E5,1.4122096E6,7.2122875E4,1.6539553E4,6.947444E4,5.5439062E3,1.7954188E5,4.667239E5,4.1517312E5,1.7018553E5,0E0,0E0,0E0,0E0,0E0,0E0,0E0,0E0,0E0,0E0,0E0,0E0,0E0,0E0,0E0,0E0],"parents":[2147483647,0,0,1,1,2,2,3,3,4,4,5,5,6,6,7,7,8,8,9,9,10,10,11,11,12,12,13,13,14,14],"right_children":[2,4,6,8,10,12,14,16,18,20,22,24,26,28,30,-1,-1,-1,-1,-1,-1,-1,-1,-1,-1,-1,-1,-1,-1,-1,-1],"split_conditions":[3.0413916E1,1.803E3,1.2964047E-1,2.2553587E-1,8.173E1,2.8710833E0,1.484E1,1.0022416E1,7.932E1,7.807E1,1.807E3,8.728533E1,1.2031E1,1.368E3,1.6521667E1,2.497015E1,5.963596E0,8.321065E0,-8.22432E-1,2.1364569E1,6.6256905E0,-3.668039E0,-1.7037207E1,-2.2746538E1,-1.1080197E1,1.4071876E1,-2.0114468E1,-1.220408E-1,2.1984358E1,-3.5617466E0,-1.5800952E1],"split_indices":[9,0,10,6,4,21,16,17,4,4,0,5,17,0,17,0,0,0,0,0,0,0,0,0,0,0,0,0,0,0,0],"split_type":[0,0,0,0,0,0,0,0,0,0,0,0,0,0,0,0,0,0,0,0,0,0,0,0,0,0,0,0,0,0,0],"sum_hessian":[2.16E2,5.4E1,1.62E2,3.2E1,2.2E1,7.6E1,8.6E1,2.5E1,7E0,1.5E1,7E0,6E1,1.6E1,4E1,4.6E1,2.2E1,3E0,4E0,3E0,5E0,1E1,1E0,6E0,2.5E1,3.5E1,1.1E1,5E0,1.2E1,2.8E1,2.3E1,2.3E1],"tree_param":{"num_deleted":"0","num_feature":"26","num_nodes":"31","size_leaf_vector":"1"}},{"base_weights":[-1.019997E0,-3.3245956E1,1.6550914E2,1.5194414E2,-6.4289E1,2.1722783E2,-4.2659775E1,2.4403147E1,7.338214E1,-1.2876613E2,2.7130991E1,2.7525174E2,1.2464058E2,5.264949E0,-1.5113141E2,8.440169E0,4.0949283E0,-1.4515655E1,-4.6686578E-1,1.9806316E1,-9.31998E0,1.5369598E1,3.1309198E1,1.3604579E1,4.127458E0,-1.7907637E1,-3.3648286E0],"categories":[],"categories_nodes":[],"categories_segments":[],"categories_sizes":[],"default_left":[0,0,0,0,0,0,0,0,0,0,0,0,0,0,0,0,0,0,0,0,0,0,0,0,0,0,0],"id":17,"left_children":[1,3,5,7,9,11,13,-1,15,17,19,21,23,-1,25,-1,-1,-1,-1,-1,-1,-1,-1,-1,-1,-1,-1],"loss_changes":[1.1915126E6,1.0790571E6,3.9685088E5,1.7742562E5,9.466134E5,1.21488625E5,9.0663805E4,0E0,2.2621406E3,1.90519E5,1.3965424E6,3.0073875E4,6.74525E3,0E0,7.106625E3,0E0,0E0,0E0,0E0,0E0,0E0,0E0,0E0,0E0,0E0,0E0,0E0],"parents":[2147483647,0,0,1,1,2,2,3,3,4,4,5,5,6,6,8,8,9,9,10,10,11,11,12,12,14,14],"right_children":[2,4,6,8,10,12,14,-1,16,18,20,22,24,-1,26,-1,-1,-1,-1,-1,-1,-1,-1,-1,-1,-1,-1],"split_conditions":[2.8839166E0,8.111133E1,1.0940917E1,7.849E1,4.3222818E-1,9.769166E0,3.01E0,2.4403147E1,3.2470635E-1,2.8739998E0,1.4919333E1,8.6307E1,2.2808496E2,5.264949E0,1.292E3,8.440169E0,4.0949283E0,-1.4515655E1,-4.6686578E-1,1.9806316E1,-9.31998E0,1.5369598E1,3.1309198E1,1.3604579E1,4.127458E0,-1.7907637E1,-3.3648286E0],"split_indices":[21,5,17,4,22,17,20,0,6,21,17,5,2,0,0,0,0,0,0,0,0,0,0,0,0,0,0],"split_type":[0,0,0,0,0,0,0,0,0,0,0,0,0,0,0,0,0,0,0,0,0,0,0,0,0,0,0],"sum_hessian":[2.2E2,1.85E2,3.5E1,2.6E1,1.59E2,2.8E1,7E0,1.1E1,1.5E1,9.3E1,6.6E1,1.6E1,1.2E1,4E0,3E0,1E1,5E0,8.2E1,1.1E1,2.7E1,3.9E1,5E0,1.1E1,1E1,2E0,2E0,1E0],"tree_param":{"num_deleted":"0","num_feature":"26","num_nodes":"27","size_leaf_vector":"1"}},{"base_weights":[-4.3766236E0,-3.029214E1,1.371731E2,1.3782294E2,-6.0016342E1,1.8695398E2,-2.7411032E1,2.3249537E1,7.5758736E1,-1.2188051E2,1.6034899E1,2.3811537E2,1.1354053E2,5.3107715E0,-1.413364E2,8.240364E0,3.0239456E0,-1.3747067E1,-1.8964113E0,2.296005E1,-7.291752E0,1.4088796E1,2.7264029E1,4.7845397E0,1.2846453E1,-1.6713795E1,-3.1965883E0],"categories":[],"categories_nodes":[],"categories_segments":[],"categories_sizes":[],"default_left":[0,0,0,0,0,0,0,0,0,0,0,0,0,0,0,0,0,0,0,0,0,0,0,0,0,0,0],"id":18,"left_children":[1,3,5,7,9,11,13,-1,15,17,19,21,23,-1,25,-1,-1,-1,-1,-1,-1,-1,-1,-1,-1,-1,-1],"loss_changes":[8.295304E5,9.6271506E5,2.918847E5,1.5278375E5,7.6884444E5,7.437444E4,9.00642E4,0E0,3.2551016E3,1.4179638E5,1.422533E6,1.19398125E4,6.5992188E3,0E0,5.945E3,0E0,0E0,0E0,0E0,0E0,0E0,0E0,0E0,0E0,0E0,0E0,0E0],"parents":[2147483647,0,0,1,1,2,2,3,3,4,4,5,5,6,6,8,8,9,9,10,10,11,11,12,12,14,14],"right_children":[2,4,6,8,10,12,14,-1,16,18,20,22,24,-1,26,-1,-1,-1,-1,-1,-1,-1,-1,-1,-1,-1,-1],"split_conditions":[2.8839166E0,8.173E1,1.0940917E1,7.754E1,2.27255E3,9.769166E0,3.05E0,2.3249537E1,1.848975E3,2.8739998E0,1.433875E1,8.6307E1,-3.1404248E-3,5.3107715E0,1.292E3,8.240364E0,3.0239456E0,-1.3747067E1,-1.8964113E0,2.296005E1,-7.291752E0,1.4088796E1,2.7264029E1,4.7845397E0,1.2846453E1,-1.6713795E1,-3.1965883E0],"split_indices":[21,4,17,4,1,17,20,0,1,21,17,5,7,0,0,0,0,0,0,0,0,0,0,0,0,0,0],"split_type":[0,0,0,0,0,0,0,0,0,0,0,0,0,0,0,0,0,0,0,0,0,0,0,0,0,0,0],"sum_hessian":[2.24E2,1.9E2,3.4E1,2.8E1,1.62E2,2.6E1,8E0,1E1,1.8E1,8.9E1,7.3E1,1.4E1,1.2E1,5E0,3E0,1.5E1,3E0,7.7E1,1.2E1,2.1E1,5.2E1,5E0,9E0,3E0,9E0,2E0,1E0],"tree_param":{"num_deleted":"0","num_feature":"26","num_nodes":"27","size_leaf_vector":"1"}},{"base_weights":[1.036467E0,-2.5142698E1,1.4037154E2,1.4345778E2,-5.0593765E1,1.6376933E2,-1.5599541E1,2.1906788E1,8.3487206E1,-1.0370361E2,1.7654373E1,2.3272424E2,8.92371E1,1.8932291E0,9.196239E0,1.7111915E0,-1.1422582E1,3.1229471E1,-3.6657264E0,1.2929486E1,2.6798353E1,6.1249633E0,1.2046926E1],"categories":[],"categories_nodes":[],"categories_segments":[],"categories_sizes":[],"default_left":[0,0,0,0,0,0,0,0,0,0,0,0,0,0,0,0,0,0,0,0,0,0,0],"id":19,"left_children":[1,3,5,7,9,11,-1,-1,13,15,17,19,21,-1,-1,-1,-1,-1,-1,-1,-1,-1,-1],"loss_changes":[7.84132E5,7.839404E5,2.6131456E5,9.053575E4,5.7452525E5,1.43692E5,0E0,0E0,6.465672E3,1.1509544E5,1.1316158E6,2.3700562E4,7.4811562E3,0E0,0E0,0E0,0E0,0E0,0E0,0E0,0E0,0E0,0E0],"parents":[2147483647,0,0,1,1,2,2,3,3,4,4,5,5,8,8,9,9,10,10,11,11,12,12],"right_children":[2,4,6,8,10,12,-1,-1,14,16,18,20,22,-1,-1,-1,-1,-1,-1,-1,-1,-1,-1],"split_conditions":[2.8839166E0,8.088E1,8.7296074E1,7.738E1,4.2329165E-1,9.769166E0,-1.5599541E1,2.1906788E1,2.14E0,8.1992584E1,8.849E1,8.638192E1,-1.5073399E-3,1.8932291E0,9.196239E0,1.7111915E0,-1.1422582E1,3.1229471E1,-3.6657264E0,1.2929486E1,2.6798353E1,6.1249633E0,1.2046926E1],"split_indices":[21,4,5,4,22,17,0,0,21,5,4,5,7,0,0,0,0,0,0,0,0,0,0],"split_type":[0,0,0,0,0,0,0,0,0,0,0,0,0,0,0,0,0,0,0,0,0,0,0],"sum_hessian":[2.13E2,1.8E2,3.3E1,2.3E1,1.57E2,3.1E1,2E0,9E0,1.4E1,8.8E1,6.9E1,1.5E1,1.6E1,2E0,1.2E1,7E0,8.1E1,1E1,5.9E1,5E0,1E1,1E1,6E0],"tree_param":{"num_deleted":"0","num_feature":"26","num_nodes":"23","size_leaf_vector":"1"}},{"base_weights":[3.2649364E0,7.4737816E1,-3.6351444E1,1.5717772E2,1.2621046E1,-9.1516174E1,2.0939096E1,2.0973175E2,7.087355E1,8.9646126E1,-1.1951709E2,-3.987784E1,-1.4653795E2,1.5778297E2,-7.6363625E1,-7.9934084E-1,2.216117E1,8.192398E0,-3.6391053E0,1.6388962E1,4.8042073E0,-1.7578999E1,-7.2841883E0,1.0727206E1,-1.0380084E1,-2.099653E1,-7.8493347E0,2.7340137E1,8.254165E0,-1.7720664E0,-1.2148766E1],"categories":[],"categories_nodes":[],"categories_segments":[],"categories_sizes":[],"default_left":[0,0,0,0,0,0,0,0,0,0,0,0,0,0,0,0,0,0,0,0,0,0,0,0,0,0,0,0,0,0,0],"id":20,"left_children":[1,3,5,7,9,11,13,15,17,19,21,23,25,27,29,-1,-1,-1,-1,-1,-1,-1,-1,-1,-1,-1,-1,-1,-1,-1,-1],"loss_changes":[6.114886E5,3.9232556E5,4.4121422E5,1.3481144E5,4.6872197E5,1.9588388E5,9.3080344E5,5.3502688E4,1.957579E4,8.1702484E4,3.1846484E4,3.685729E5,1.30259375E5,2.2971212E5,1.06341625E5,0E0,0E0,0E0,0E0,0E0,0E0,0E0,0E0,0E0,0E0,0E0,0E0,0E0,0E0,0E0,0E0],"parents":[2147483647,0,0,1,1,2,2,3,3,4,4,5,5,6,6,7,7,8,8,9,9,10,10,11,11,12,12,13,13,14,14],"right_children":[2,4,6,8,10,12,14,16,18,20,22,24,26,28,30,-1,-1,-1,-1,-1,-1,-1,-1,-1,-1,-1,-1,-1,-1,-1,-1],"split_conditions":[3.0555416E1,1.769E3,4.2329165E-1,9.769166E0,8.209E1,1.2031E1,8.9765335E1,2.1946045E1,3.09E0,7.849E1,-1.2076568E-2,1.577E3,8.3333336E-2,1.3453083E1,1.6521667E1,-7.9934084E-1,2.216117E1,8.192398E0,-3.6391053E0,1.6388962E1,4.8042073E0,-1.7578999E1,-7.2841883E0,1.0727206E1,-1.0380084E1,-2.099653E1,-7.8493347E0,2.7340137E1,8.254165E0,-1.7720664E0,-1.2148766E1],"split_indices":[9,0,22,17,4,17,5,2,20,4,15,0,24,17,17,0,0,0,0,0,0,0,0,0,0,0,0,0,0,0,0],"split_type":[0,0,0,0,0,0,0,0,0,0,0,0,0,0,0,0,0,0,0,0,0,0,0,0,0,0,0,0,0,0,0],"sum_hessian":[2.14E2,7.6E1,1.38E2,3.2E1,4.4E1,7E1,6.8E1,1.9E1,1.3E1,2.8E1,1.6E1,3.7E1,3.3E1,2.8E1,4E1,1E0,1.8E1,1.2E1,1E0,9E0,1.9E1,6E0,1E1,1.1E1,2.6E1,1.6E1,1.7E1,1E1,1.8E1,1.8E1,2.2E1],"tree_param":{"num_deleted":"0","num_feature":"26","num_nodes":"31","size_leaf_vector":"1"}},{"base_weights":[1.0992222E0,1.0087116E2,-2.2552505E1,1.895919E1,7.36179E1,-1.04509705E2,2.0806339E0,4.0501247E1,1.3616925E2,-6.136859E1,-1.445824E2,1.6704085E2,-2.3315643E1,6.3943243E0,-5.6678576E0,1.9862305E0,1.4581372E1,3.4397686E-1,-6.837157E0,-1.810456E1,-6.7256875E0,2.9663801E1,1.2134555E1,3.8704662E0,-8.494078E0],"categories":[],"categories_nodes":[],"categories_segments":[],"categories_sizes":[],"default_left":[0,0,0,0,0,0,0,0,0,0,0,0,0,0,0,0,0,0,0,0,0,0,0,0,0],"id":21,"left_children":[1,3,5,-1,7,9,11,13,15,17,19,21,23,-1,-1,-1,-1,-1,-1,-1,-1,-1,-1,-1,-1],"loss_changes":[5.0490772E5,8.517781E4,3.4948078E5,0E0,6.2844203E4,6.0278375E4,5.65271E5,5.6020254E4,9.4426875E3,9.766055E3,4.421422E4,7.0599875E4,4.504627E5,0E0,0E0,0E0,0E0,0E0,0E0,0E0,0E0,0E0,0E0,0E0,0E0],"parents":[2147483647,0,0,1,1,2,2,4,4,5,5,6,6,7,7,8,8,9,9,10,10,11,11,12,12],"right_children":[2,4,6,-1,8,10,12,14,16,18,20,22,24,-1,-1,-1,-1,-1,-1,-1,-1,-1,-1,-1,-1],"split_conditions":[3.027E1,7.706E1,6.2404636E1,1.895919E1,2.8781475E1,3.0723336E0,1.0940917E1,8.145E1,1.5168189E-1,8.387E1,8.664E1,2.88425E0,1.0166011E2,6.3943243E0,-5.6678576E0,1.9862305E0,1.4581372E1,3.4397686E-1,-6.837157E0,-1.810456E1,-6.7256875E0,2.9663801E1,1.2134555E1,3.8704662E0,-8.494078E0],"split_indices":[8,4,2,0,2,17,17,4,6,4,4,21,2,0,0,0,0,0,0,0,0,0,0,0,0],"split_type":[0,0,0,0,0,0,0,0,0,0,0,0,0,0,0,0,0,0,0,0,0,0,0,0,0],"sum_hessian":[2.12E2,4E1,1.72E2,8E0,3.2E1,3.9E1,1.33E2,2.2E1,1E1,2E1,1.9E1,1.7E1,1.16E2,1.8E1,4E0,1E0,9E0,2E0,1.8E1,1.2E1,7E0,3E0,1.4E1,5.8E1,5.8E1],"tree_param":{"num_deleted":"0","num_feature":"26","num_nodes":"25","size_leaf_vector":"1"}},{"base_weights":[2.604871E0,2.511194E1,-9.8455185E1,-8.0382293E-1,1.0983185E2,-4.659853E1,-1.1716321E2,5.674611E1,-8.300366E1,2.5504232E1,6.102133E1,-5.0093887E1,-4.0747985E-1,-1.8263628E1,-9.498923E1,8.803489E0,-2.974408E0,-1.2398138E1,-6.0330496E0,7.744182E0,2.0796357E-1,-5.2183146E0,-1.4600632E0,-9.677826E0,-2.7815244E0],"categories":[],"categories_nodes":[],"categories_segments":[],"categories_sizes":[],"default_left":[0,0,0,0,0,0,0,0,0,0,0,0,0,0,0,0,0,0,0,0,0,0,0,0,0],"id":22,"left_children":[1,3,5,7,9,11,13,15,17,-1,19,21,-1,-1,23,-1,-1,-1,-1,-1,-1,-1,-1,-1,-1],"loss_changes":[4.869549E5,3.84315E5,3.2375625E4,6.433405E5,2.7503675E5,1.5795039E3,2.3301906E4,2.191123E5,4.4549406E4,0E0,3.081018E4,5.379297E1,0E0,0E0,7.215625E1,0E0,0E0,0E0,0E0,0E0,0E0,0E0,0E0,0E0,0E0],"parents":[2147483647,0,0,1,1,2,2,3,3,4,4,5,5,6,6,7,7,8,8,10,10,11,11,14,14],"right_children":[2,4,6,8,10,12,14,16,18,-1,20,22,-1,-1,24,-1,-1,-1,-1,-1,-1,-1,-1,-1,-1],"split_conditions":[9.0183334E1,1.891E3,1.6521667E1,3.0690584E1,1.3339583E1,2.0686054E0,9.099758E1,1.832E3,8.3333336E-2,2.5504232E1,1.5344084E1,2.48E3,-4.0747985E-1,-1.8263628E1,5.0947703E-2,8.803489E0,-2.974408E0,-1.2398138E1,-6.0330496E0,7.744182E0,2.0796357E-1,-5.2183146E0,-1.4600632E0,-9.677826E0,-2.7815244E0],"split_indices":[5,0,17,9,17,3,5,0,24,0,17,0,0,0,15,0,0,0,0,0,0,0,0,0,0],"split_type":[0,0,0,0,0,0,0,0,0,0,0,0,0,0,0,0,0,0,0,0,0,0,0,0,0],"sum_hessian":[2.12E2,1.74E2,3.8E1,1.34E2,4E1,1.1E1,2.7E1,7.9E1,5.5E1,9E0,3.1E1,1E1,1E0,5E0,2.2E1,5.8E1,2.1E1,1.8E1,3.7E1,2.4E1,7E0,9E0,1E0,2.1E1,1E0],"tree_param":{"num_deleted":"0","num_feature":"26","num_nodes":"25","size_leaf_vector":"1"}},{"base_weights":[3.0182238E0,-1.6306734E1,1.0342177E2,1.4540103E2,-2.85767E1,1.7211943E2,3.6512196E1,1.6436697E1,8.218218E0,-5.9714523E1,2.0183155E1,7.7507815E0,1.9526855E2,6.1573025E1,-1.1766989E1,3.1538758E0,-8.048336E0,1.2578475E1,-6.883934E0,7.633944E0,2.0995207E1,1.6504721E-1,6.9452667E0],"categories":[],"categories_nodes":[],"categories_segments":[],"categories_sizes":[],"default_left":[0,0,0,0,0,0,0,0,0,0,0,0,0,0,0,0,0,0,0,0,0,0,0],"id":23,"left_children":[1,3,5,7,9,11,13,-1,-1,15,17,-1,19,21,-1,-1,-1,-1,-1,-1,-1,-1,-1],"loss_changes":[4.2079003E5,3.6527022E5,1.5459412E5,2.0790312E3,2.5931208E5,2.2098156E4,8.065996E4,0E0,0E0,1.9964172E5,6.385204E5,0E0,6.67425E3,7.9122344E3,0E0,0E0,0E0,0E0,0E0,0E0,0E0,0E0,0E0],"parents":[2147483647,0,0,1,1,2,2,3,3,4,4,5,5,6,6,9,9,10,10,12,12,13,13],"right_children":[2,4,6,8,10,12,14,-1,-1,16,18,-1,20,22,-1,-1,-1,-1,-1,-1,-1,-1,-1],"split_conditions":[2.8839166E0,7.792333E1,9.769166E0,3.2847768E-1,4.3222818E-1,8.6307E1,8.7296074E1,1.6436697E1,8.218218E0,8.189083E1,1.5164167E1,7.7507815E0,-3.4420784E-3,2.78E0,-1.1766989E1,3.1538758E0,-8.048336E0,1.2578475E1,-6.883934E0,7.633944E0,2.0995207E1,1.6504721E-1,6.9452667E0],"split_indices":[21,5,17,3,22,5,5,0,0,5,17,0,7,20,0,0,0,0,0,0,0,0,0],"split_type":[0,0,0,0,0,0,0,0,0,0,0,0,0,0,0,0,0,0,0,0,0,0,0],"sum_hessian":[2.15E2,1.81E2,3.4E1,1.2E1,1.69E2,1.6E1,1.8E1,8E0,4E0,1.03E2,6.6E1,4E0,1.2E1,1.6E1,2E0,1.9E1,8.4E1,3E1,3.6E1,2E0,1E1,2E0,1.4E1],"tree_param":{"num_deleted":"0","num_feature":"26","num_nodes":"23","size_leaf_vector":"1"}},{"base_weights":[2.875125E-1,-1.7013271E1,8.726402E1,9.9873024E1,-3.053368E1,1.5568506E2,3.0978281E1,1.2544457E2,3.8115444E1,-6.9593506E1,2.505863E1,9.457021E0,1.9271105E1,5.8689842E1,-1.0146832E1,1.4525024E1,7.812958E0,5.2467265E0,1.4906006E-1,1.5437577E0,-8.077914E0,1.61618E1,-3.9395936E0,2.8124635E0,7.558365E0],"categories":[],"categories_nodes":[],"categories_segments":[],"categories_sizes":[],"default_left":[0,0,0,0,0,0,0,0,0,0,0,0,0,0,0,0,0,0,0,0,0,0,0,0,0],"id":24,"left_children":[1,3,5,7,9,11,13,15,17,19,21,-1,-1,23,-1,-1,-1,-1,-1,-1,-1,-1,-1,-1,-1],"loss_changes":[3.2651325E5,2.890929E5,1.3381778E5,2.5224125E4,3.5568638E5,1.7980656E4,8.30315E4,8.3403125E2,3.6012246E3,9.255522E4,6.0489456E5,0E0,0E0,7.1687617E3,0E0,0E0,0E0,0E0,0E0,0E0,0E0,0E0,0E0,0E0,0E0],"parents":[2147483647,0,0,1,1,2,2,3,3,4,4,5,5,6,6,7,7,8,8,9,9,10,10,13,13],"right_children":[2,4,6,8,10,12,14,16,18,20,22,-1,-1,24,-1,-1,-1,-1,-1,-1,-1,-1,-1,-1,-1],"split_conditions":[2.8839166E0,7.942E1,9.769166E0,7.849E1,4.2329165E-1,8.6481415E1,3.09E0,7.706E1,1.8485E3,8.209E1,1.449E1,9.457021E0,1.9271105E1,1.497049E-1,-1.0146832E1,1.4525024E1,7.812958E0,5.2467265E0,1.4906006E-1,1.5437577E0,-8.077914E0,1.61618E1,-3.9395936E0,2.8124635E0,7.558365E0],"split_indices":[21,4,17,4,22,5,20,4,1,4,16,0,0,22,0,0,0,0,0,0,0,0,0,0,0],"split_type":[0,0,0,0,0,0,0,0,0,0,0,0,0,0,0,0,0,0,0,0,0,0,0,0,0],"sum_hessian":[2.15E2,1.8E2,3.5E1,1.8E1,1.62E2,1.5E1,2E1,1.2E1,6E0,9.5E1,6.7E1,7E0,8E0,1.7E1,3E0,7E0,5E0,4E0,2E0,1.1E1,8.4E1,2.1E1,4.6E1,7E0,1E1],"tree_param":{"num_deleted":"0","num_feature":"26","num_nodes":"25","size_leaf_vector":"1"}},{"base_weights":[-6.363137E-1,1.5438759E1,-8.420851E1,-5.925463E0,8.25794E1,-3.0984001E1,-9.415207E1,3.7913216E1,-7.777527E1,2.0441095E2,3.0504726E1,-3.405827E0,-6.2691957E-1,-1.3368013E2,-6.968043E1,-5.4449743E-1,9.948856E0,-1.44393635E1,-3.9388864E0,1.0996674E1,2.4969275E1,1.1715292E0,6.084418E0,-8.412996E0,-1.6640432E1,-1.9314741E0,-7.4203577E0],"categories":[],"categories_nodes":[],"categories_segments":[],"categories_sizes":[],"default_left":[0,0,0,0,0,0,0,0,0,0,0,0,0,0,0,0,0,0,0,0,0,0,0,0,0,0,0],"id":25,"left_children":[1,3,5,7,9,11,13,15,17,19,21,-1,-1,23,25,-1,-1,-1,-1,-1,-1,-1,-1,-1,-1,-1,-1],"loss_changes":[2.9148078E5,2.615515E5,1.5606203E4,4.4077094E5,2.729154E5,3.183418E2,1.8737312E4,2.3281395E5,1.2984619E5,2.8137938E4,1.7529148E4,0E0,0E0,2.2152969E3,3.1230078E3,0E0,0E0,0E0,0E0,0E0,0E0,0E0,0E0,0E0,0E0,0E0,0E0],"parents":[2147483647,0,0,1,1,2,2,3,3,4,4,5,5,6,6,7,7,8,8,9,9,10,10,13,13,14,14],"right_children":[2,4,6,8,10,12,14,16,18,20,22,-1,-1,24,26,-1,-1,-1,-1,-1,-1,-1,-1,-1,-1,-1,-1],"split_conditions":[9.0308E1,1.892E3,1.632E1,3.0690584E1,8.849E1,2.506E3,9.129E1,2.8739998E0,8.3333336E-2,8.7895E1,2.4583875E-1,-3.405827E0,-6.2691957E-1,3.269E1,4.2519265E-1,-5.4449743E-1,9.948856E0,-1.44393635E1,-3.9388864E0,1.0996674E1,2.4969275E1,1.1715292E0,6.084418E0,-8.412996E0,-1.6640432E1,-1.9314741E0,-7.4203577E0],"split_indices":[5,0,16,9,4,0,4,21,24,5,6,0,0,8,22,0,0,0,0,0,0,0,0,0,0,0,0],"split_type":[0,0,0,0,0,0,0,0,0,0,0,0,0,0,0,0,0,0,0,0,0,0,0,0,0,0,0],"sum_hessian":[2.15E2,1.81E2,3.4E1,1.38E2,4.3E1,6E0,2.8E1,8.6E1,5.2E1,1.2E1,3.1E1,5E0,1E0,9E0,1.9E1,5.1E1,3.5E1,1.8E1,3.4E1,5E0,7E0,2E1,1.1E1,5E0,4E0,2E0,1.7E1],"tree_param":{"num_deleted":"0","num_feature":"26","num_nodes":"27","size_leaf_vector":"1"}},{"base_weights":[2.9486089E0,1.6759357E1,-6.9256096E1,-1.1508737E0,7.718109E1,-2.9290653E1,-8.5669266E1,2.6726646E1,-9.376878E1,1.9350601E2,4.0697845E1,-3.4148622E0,-3.3338726E0,-1.2600547E2,-5.927544E1,-1.7626799E0,9.414134E0,-1.653779E1,-4.7192087E0,2.119308E1,7.9871216E0,-3.129181E0,4.6175075E0,9.549256E-2,-5.955734E-1,-1.3374048E1,-3.20627E0,-2.2218125E0,-6.5629287E0],"categories":[],"categories_nodes":[],"categories_segments":[],"categories_sizes":[],"default_left":[0,0,0,0,0,0,0,0,0,0,0,0,0,0,0,0,0,0,0,0,0,0,0,0,0,0,0,0,0],"id":26,"left_children":[1,3,5,7,9,11,13,15,17,19,21,-1,23,25,27,-1,-1,-1,-1,-1,-1,-1,-1,-1,-1,-1,-1,-1,-1],"loss_changes":[2.2353653E5,2.0353625E5,2.1105234E4,3.7947194E5,1.7461286E5,1.3993193E3,1.9146656E4,3.3953778E5,1.0559625E5,4.0097812E3,1.4851211E4,0E0,3.9421196E1,2.25175E3,2.5446016E3,0E0,0E0,0E0,0E0,0E0,0E0,0E0,0E0,0E0,0E0,0E0,0E0,0E0,0E0],"parents":[2147483647,0,0,1,1,2,2,3,3,4,4,5,5,6,6,7,7,8,8,9,9,10,10,12,12,13,13,14,14],"right_children":[2,4,6,8,10,12,14,16,18,20,22,-1,24,26,28,-1,-1,-1,-1,-1,-1,-1,-1,-1,-1,-1,-1,-1,-1],"split_conditions":[9.0183334E1,1.892E3,1.632E1,1.2031E1,1.3339583E1,2.1653621E0,9.129E1,3.3728333E0,8.756634E1,1.97552E-3,2.5156667E0,-3.4148622E0,2.392E3,9.1188675E1,4.2519265E-1,-1.7626799E0,9.414134E0,-1.653779E1,-4.7192087E0,2.119308E1,7.9871216E0,-3.129181E0,4.6175075E0,9.549256E-2,-5.955734E-1,-1.3374048E1,-3.20627E0,-2.2218125E0,-6.5629287E0],"split_indices":[5,0,16,17,17,3,4,17,5,11,21,0,0,5,22,0,0,0,0,0,0,0,0,0,0,0,0,0,0],"split_type":[0,0,0,0,0,0,0,0,0,0,0,0,0,0,0,0,0,0,0,0,0,0,0,0,0,0,0,0,0],"sum_hessian":[2.22E2,1.87E2,3.5E1,1.45E2,4.2E1,1.1E1,2.4E1,1.12E2,3.3E1,9E0,3.3E1,9E0,2E0,8E0,1.6E1,6.8E1,4.4E1,1.2E1,2.1E1,7E0,2E0,2E0,3.1E1,1E0,1E0,7E0,1E0,3E0,1.3E1],"tree_param":{"num_deleted":"0","num_feature":"26","num_nodes":"29","size_leaf_vector":"1"}},{"base_weights":[3.5781517E0,1.6472754E1,-6.3143356E1,-2.524587E0,7.4345634E1,-8.55516E1,-3.8591164E1,2.4050583E1,-8.369655E1,1.6888968E2,3.1983139E1,-1.0848553E2,-6.1094956E0,-4.1783306E1,-7.638621E-1,-1.6969622E0,9.049701E0,-1.3291554E1,-3.5253417E0,1.9244946E1,8.799219E0,4.4611332E-1,5.2027717E0,-4.3424153E0,-1.2293529E1,-2.6725633E0,-4.9651117E0],"categories":[],"categories_nodes":[],"categories_segments":[],"categories_sizes":[],"default_left":[0,0,0,0,0,0,0,0,0,0,0,0,0,0,0,0,0,0,0,0,0,0,0,0,0,0,0],"id":27,"left_children":[1,3,5,7,9,11,13,15,17,19,21,23,-1,25,-1,-1,-1,-1,-1,-1,-1,-1,-1,-1,-1,-1,-1],"loss_changes":[1.911769E5,2.0468181E5,1.650464E4,3.0617234E5,1.7883395E5,3.4680469E3,1.5581289E3,2.931798E5,7.876556E4,9.7489375E3,1.7972906E4,2.1826016E3,0E0,6.870488E2,0E0,0E0,0E0,0E0,0E0,0E0,0E0,0E0,0E0,0E0,0E0,0E0,0E0],"parents":[2147483647,0,0,1,1,2,2,3,3,4,4,5,5,6,6,7,7,8,8,9,9,10,10,11,11,13,13],"right_children":[2,4,6,8,10,12,14,16,18,20,22,24,-1,26,-1,-1,-1,-1,-1,-1,-1,-1,-1,-1,-1,-1,-1],"split_conditions":[9.027E1,1.8540917E3,2.6688685E-3,1.2031E1,8.849E1,9.101E1,2.519E3,2.2215002E0,1.342725E1,1.97552E-3,2.1004166E-1,3.23E1,-6.1094956E0,9.111E1,-7.638621E-1,-1.6969622E0,9.049701E0,-1.3291554E1,-3.5253417E0,1.9244946E1,8.799219E0,4.4611332E-1,5.2027717E0,-4.3424153E0,-1.2293529E1,-2.6725633E0,-4.9651117E0],"split_indices":[4,1,7,17,4,4,0,21,17,11,6,8,0,4,0,0,0,0,0,0,0,0,0,0,0,0,0],"split_type":[0,0,0,0,0,0,0,0,0,0,0,0,0,0,0,0,0,0,0,0,0,0,0,0,0,0,0],"sum_hessian":[2.2E2,1.85E2,3.5E1,1.4E2,4.5E1,1.7E1,1.8E1,1.06E2,3.4E1,1.3E1,3.2E1,7E0,1E1,1.6E1,2E0,6.6E1,4E1,1.6E1,1.8E1,9E0,4E0,1.4E1,1.8E1,2E0,5E0,7E0,9E0],"tree_param":{"num_deleted":"0","num_feature":"26","num_nodes":"27","size_leaf_vector":"1"}},{"base_weights":[1.2437546E0,5.731282E1,-1.2232299E1,1.1016202E1,3.5703346E1,-6.521433E1,4.99889E0,5.483206E1,-1.9273594E1,-1.0067472E2,-2.8460293E1,1.342947E2,-9.758347E0,4.087129E0,8.990249E0,-5.826764E0,1.915109E-2,-4.190665E0,-1.3813672E1,-2.2787209E0,-4.971063E0,2.444746E1,8.202066E0,1.1585296E0,-5.780558E0],"categories":[],"categories_nodes":[],"categories_segments":[],"categories_sizes":[],"default_left":[0,0,0,0,0,0,0,0,0,0,0,0,0,0,0,0,0,0,0,0,0,0,0,0,0],"id":28,"left_children":[1,3,5,-1,7,9,11,13,15,17,19,21,23,-1,-1,-1,-1,-1,-1,-1,-1,-1,-1,-1,-1],"loss_changes":[1.676864E5,4.517472E4,1.6374288E5,0E0,3.470923E4,5.448053E4,2.6080511E5,8.076211E3,6.8423677E3,4.264567E4,1.6399961E3,6.058172E4,1.2680656E5,0E0,0E0,0E0,0E0,0E0,0E0,0E0,0E0,0E0,0E0,0E0,0E0],"parents":[2147483647,0,0,1,1,2,2,4,4,5,5,6,6,7,7,8,8,9,9,10,10,11,11,12,12],"right_children":[2,4,6,-1,8,10,12,14,16,18,20,22,24,-1,-1,-1,-1,-1,-1,-1,-1,-1,-1,-1,-1],"split_conditions":[3.027E1,7.849E1,9.6996903E-1,1.1016202E1,2.338E1,8.664E1,1.076E1,3.027925E1,1.8770109E-1,8.476E1,9.08E1,2.88425E0,8.043552E-1,4.087129E0,8.990249E0,-5.826764E0,1.915109E-2,-4.190665E0,-1.3813672E1,-2.2787209E0,-4.971063E0,2.444746E1,8.202066E0,1.1585296E0,-5.780558E0],"split_indices":[8,4,14,0,12,4,16,9,6,4,4,21,18,0,0,0,0,0,0,0,0,0,0,0,0],"split_type":[0,0,0,0,0,0,0,0,0,0,0,0,0,0,0,0,0,0,0,0,0,0,0,0,0],"sum_hessian":[2.2E2,4.2E1,1.78E2,1.1E1,3.1E1,4.3E1,1.35E2,2.3E1,8E0,2.1E1,2.2E1,1.3E1,1.22E2,1.8E1,5E0,2E0,6E0,9E0,1.2E1,1.9E1,3E0,3E0,1E1,8.5E1,3.7E1],"tree_param":{"num_deleted":"0","num_feature":"26","num_nodes":"25","size_leaf_vector":"1"}},{"base_weights":[-3.347532E-1,-1.1499856E1,5.6776337E1,6.0284863E1,-2.4092585E1,1.0632357E2,1.4299731E1,9.991989E0,3.10925E1,-5.3291782E1,1.2226609E1,3.832776E1,1.3374641E2,2.9254068E1,-8.019287E0,-1.2415365E-1,3.5486474E0,-7.555267E0,-2.6359472E0,1.5444762E1,-1.4496402E0,4.2296143E0,9.24292E-1,1.7340155E1,7.180021E0,-1.4707032E-1,4.8939896E0],"categories":[],"categories_nodes":[],"categories_segments":[],"categories_sizes":[],"default_left":[0,0,0,0,0,0,0,0,0,0,0,0,0,0,0,0,0,0,0,0,0,0,0,0,0,0,0],"id":29,"left_children":[1,3,5,7,9,11,13,-1,15,17,19,21,23,25,-1,-1,-1,-1,-1,-1,-1,-1,-1,-1,-1,-1,-1],"loss_changes":[1.3647261E5,1.6326225E5,7.214053E4,2.813332E4,1.6290675E5,2.4708031E4,3.0607455E4,0E0,2.459332E3,4.896911E4,2.644785E5,3.015791E2,1.45710625E4,1.0959145E4,0E0,0E0,0E0,0E0,0E0,0E0,0E0,0E0,0E0,0E0,0E0,0E0,0E0],"parents":[2147483647,0,0,1,1,2,2,3,3,4,4,5,5,6,6,8,8,9,9,10,10,11,11,12,12,13,13],"right_children":[2,4,6,8,10,12,14,-1,16,18,20,22,24,26,-1,-1,-1,-1,-1,-1,-1,-1,-1,-1,-1,-1,-1],"split_conditions":[2.8839166E0,8.111133E1,9.769166E0,7.792333E1,4.2329165E-1,8.638192E1,1.5636948E-1,9.991989E0,2.14E0,8.3333336E-2,1.3453083E1,1.2656E3,1.14214584E-1,1.497049E-1,-8.019287E0,-1.2415365E-1,3.5486474E0,-7.555267E0,-2.6359472E0,1.5444762E1,-1.4496402E0,4.2296143E0,9.24292E-1,1.7340155E1,7.180021E0,-1.4707032E-1,4.8939896E0],"split_indices":[21,5,17,5,22,5,22,0,21,24,17,1,10,22,0,0,0,0,0,0,0,0,0,0,0,0,0],"split_type":[0,0,0,0,0,0,0,0,0,0,0,0,0,0,0,0,0,0,0,0,0,0,0,0,0,0,0],"sum_hessian":[2.12E2,1.78E2,3.4E1,2.6E1,1.52E2,1.5E1,1.9E1,1E1,1.6E1,8.4E1,6.8E1,5E0,1E1,1.7E1,2E0,2E0,1.4E1,4.5E1,3.9E1,1E1,5.8E1,4E0,1E0,5E0,5E0,7E0,1E1],"tree_param":{"num_deleted":"0","num_feature":"26","num_nodes":"27","size_leaf_vector":"1"}},{"base_weights":[1.1047856E0,1.1107356E1,-6.343264E1,-2.8680067E0,5.7975266E1,-4.5567173E1,-8.8524574E1,2.7280209E1,-4.603265E1,1.2208281E2,2.2817045E1,-2.2848816E1,-5.2048813E1,-1.2456106E1,-3.7733997E1,9.7042274E-1,8.121995E0,-5.16516E0,1.4274268E1,7.413292E0,1.5477236E1,3.9530626E-1,5.8263307E0,-5.1304626E-1,-2.5366395E0,-1.9240679E0,-5.5913444E0,-5.272507E-1,-4.3171797E0],"categories":[],"categories_nodes":[],"categories_segments":[],"categories_sizes":[],"default_left":[0,0,0,0,0,0,0,0,0,0,0,0,0,0,0,0,0,0,0,0,0,0,0,0,0,0,0,0,0],"id":30,"left_children":[1,3,5,7,9,11,13,15,17,19,21,23,25,-1,27,-1,-1,-1,-1,-1,-1,-1,-1,-1,-1,-1,-1,-1,-1],"loss_changes":[1.394957E5,1.2265053E5,8.966281E3,1.8994962E5,9.413245E4,1.6085352E3,1.5433258E4,8.07436E4,7.101603E4,1.2038172E4,1.9160756E4,1.3750269E2,6.9926953E2,0E0,8.3149023E2,0E0,0E0,0E0,0E0,0E0,0E0,0E0,0E0,0E0,0E0,0E0,0E0,0E0,0E0],"parents":[2147483647,0,0,1,1,2,2,3,3,4,4,5,5,6,6,7,7,8,8,9,9,10,10,11,11,12,12,14,14],"right_children":[2,4,6,8,10,12,14,16,18,20,22,24,26,-1,28,-1,-1,-1,-1,-1,-1,-1,-1,-1,-1,-1,-1,-1,-1],"split_conditions":[1.6061415E1,1.8540917E3,1.7173944E-1,3.068E1,8.877E1,1.632E1,9.129E1,3.1246543E0,1.2811932E-2,8.7963585E1,2.4583875E-1,2.3292334E3,4.2329165E-1,-1.2456106E1,2.28445E3,9.7042274E-1,8.121995E0,-5.16516E0,1.4274268E1,7.413292E0,1.5477236E1,3.9530626E-1,5.8263307E0,-5.1304626E-1,-2.5366395E0,-1.9240679E0,-5.5913444E0,-5.272507E-1,-4.3171797E0],"split_indices":[17,1,10,8,4,16,4,14,19,5,6,1,22,0,1,0,0,0,0,0,0,0,0,0,0,0,0,0,0],"split_type":[0,0,0,0,0,0,0,0,0,0,0,0,0,0,0,0,0,0,0,0,0,0,0,0,0,0,0,0,0],"sum_hessian":[2.14E2,1.86E2,2.8E1,1.44E2,4.2E1,1.8E1,1E1,8.5E1,5.9E1,1.4E1,2.8E1,5E0,1.3E1,5E0,5E0,6.5E1,2E1,5.8E1,1E0,7E0,7E0,1.9E1,9E0,1E0,4E0,2E0,1.1E1,1E0,4E0],"tree_param":{"num_deleted":"0","num_feature":"26","num_nodes":"29","size_leaf_vector":"1"}},{"base_weights":[4.35691E0,1.5201789E1,-5.1541237E1,9.598925E1,8.338159E0,-2.0997055E1,-5.9813694E1,1.2038201E1,6.264693E0,-7.8795953E0,5.6792892E1,-2.578424E0,-2.827942E0,-8.558087E1,-4.4460102E1,-3.2704906E0,4.254972E0,1.2453647E1,2.8737547E0,6.3201904E-2,-4.873932E-1,-5.4293365E0,-1.11116905E1,-1.5972916E0,-4.8803144E0],"categories":[],"categories_nodes":[],"categories_segments":[],"categories_sizes":[],"default_left":[0,0,0,0,0,0,0,0,0,0,0,0,0,0,0,0,0,0,0,0,0,0,0,0,0],"id":31,"left_children":[1,3,5,7,9,11,13,-1,-1,15,17,-1,19,21,23,-1,-1,-1,-1,-1,-1,-1,-1,-1,-1],"loss_changes":[1.30512164E5,9.900878E4,7.5877266E3,3.8447812E3,1.3168061E5,7.0989355E2,6.8767734E3,0E0,0E0,1.5913394E5,7.624503E4,0E0,2.4317556E1,1.1577188E3,1.571168E3,0E0,0E0,0E0,0E0,0E0,0E0,0E0,0E0,0E0,0E0],"parents":[2147483647,0,0,1,1,2,2,3,3,4,4,5,5,6,6,9,9,10,10,12,12,13,13,14,14],"right_children":[2,4,6,8,10,12,14,-1,-1,16,18,-1,20,22,24,-1,-1,-1,-1,-1,-1,-1,-1,-1,-1],"split_conditions":[9.01875E1,7.849E1,1.632E1,2.283E1,1.6197392E-1,2.1653621E0,9.129E1,1.2038201E1,6.264693E0,2.8739998E0,8.849E1,-2.578424E0,2.392E3,3.269E1,4.2519265E-1,-3.2704906E0,4.254972E0,1.2453647E1,2.8737547E0,6.3201904E-2,-4.873932E-1,-5.4293365E0,-1.11116905E1,-1.5972916E0,-4.8803144E0],"split_indices":[5,4,16,12,22,3,4,0,0,21,4,0,0,8,22,0,0,0,0,0,0,0,0,0,0],"split_type":[0,0,0,0,0,0,0,0,0,0,0,0,0,0,0,0,0,0,0,0,0,0,0,0,0],"sum_hessian":[2.13E2,1.79E2,3.4E1,1.3E1,1.66E2,8E0,2.6E1,6E0,7E0,1.25E2,4.1E1,6E0,2E0,8E0,1.8E1,8.4E1,4.1E1,1.1E1,3E1,1E0,1E0,5E0,3E0,3E0,1.5E1],"tree_param":{"num_deleted":"0","num_feature":"26","num_nodes":"25","size_leaf_vector":"1"}},{"base_weights":[-7.4277616E-1,8.58512E0,-5.555699E1,-2.764987E0,4.972753E1,-4.1749157E1,-7.62416E1,1.6623802E1,-6.400075E1,1.3070312E2,2.3682577E1,-2.0180725E1,-4.6905713E0,-1.0044663E2,-3.5295465E0,-1.3886418E0,6.401754E0,-1.359331E1,-2.8339634E0,1.5808631E1,5.0106783E0,1.12050496E-1,4.4851556E0,-2.2364776E0,-4.630234E-1,-4.4849935E0,-1.1371533E1],"categories":[],"categories_nodes":[],"categories_segments":[],"categories_sizes":[],"default_left":[0,0,0,0,0,0,0,0,0,0,0,0,0,0,0,0,0,0,0,0,0,0,0,0,0,0,0],"id":32,"left_children":[1,3,5,7,9,11,13,15,17,19,21,23,-1,25,-1,-1,-1,-1,-1,-1,-1,-1,-1,-1,-1,-1,-1],"loss_changes":[1.1603106E5,9.072983E4,6.242086E3,1.8271889E5,8.548286E4,1.5002227E3,8.347922E3,1.700702E5,9.105969E4,1.4148641E4,1.571107E4,1.00224365E2,0E0,6.3742188E1,0E0,0E0,0E0,0E0,0E0,0E0,0E0,0E0,0E0,0E0,0E0,0E0,0E0],"parents":[2147483647,0,0,1,1,2,2,3,3,4,4,5,5,6,6,7,7,8,8,9,9,10,10,11,11,13,13],"right_children":[2,4,6,8,10,12,14,16,18,20,22,24,-1,26,-1,-1,-1,-1,-1,-1,-1,-1,-1,-1,-1,-1,-1],"split_conditions":[1.5859499E1,3.14E1,1.7173944E-1,1.2031E1,1.3339583E1,1.632E1,9.129E1,3.41E0,8.749934E1,1.97552E-3,2.1211496E-3,2.1653621E0,-4.6905713E0,-1.4734532E0,-3.5295465E0,-1.3886418E0,6.401754E0,-1.359331E1,-2.8339634E0,1.5808631E1,5.0106783E0,1.12050496E-1,4.4851556E0,-2.2364776E0,-4.630234E-1,-4.4849935E0,-1.1371533E1],"split_indices":[17,8,10,17,17,16,4,16,5,11,7,3,0,3,0,0,0,0,0,0,0,0,0,0,0,0,0],"split_type":[0,0,0,0,0,0,0,0,0,0,0,0,0,0,0,0,0,0,0,0,0,0,0,0,0,0,0],"sum_hessian":[2.25E2,1.93E2,3.2E1,1.52E2,4.1E1,2.1E1,1.1E1,1.16E2,3.6E1,9E0,3.2E1,5E0,1.6E1,6E0,5E0,7.1E1,4.5E1,1.1E1,2.5E1,6E0,3E0,1.6E1,1.6E1,4E0,1E0,2E0,4E0],"tree_param":{"num_deleted":"0","num_feature":"26","num_nodes":"27","size_leaf_vector":"1"}},{"base_weights":[3.2245475E-1,9.739883E0,-4.9913605E1,-1.5005856E0,4.7994995E1,-2.097351E1,-5.556794E1,2.5629486E1,-4.002752E1,1.22371056E2,2.2454489E1,-2.365394E0,-2.4454652E-1,-9.748343E0,-4.1610626E1,5.441132E0,-6.7614955E-1,-8.070914E0,-1.4054657E0,1.48330765E1,4.6348815E0,3.6298301E0,3.051409E-1,-1.5676478E0,-4.4880414E0],"categories":[],"categories_nodes":[],"categories_segments":[],"categories_sizes":[],"default_left":[0,0,0,0,0,0,0,0,0,0,0,0,0,0,0,0,0,0,0,0,0,0,0,0,0],"id":33,"left_children":[1,3,5,7,9,11,13,15,17,19,21,-1,-1,-1,23,-1,-1,-1,-1,-1,-1,-1,-1,-1,-1],"loss_changes":[9.8889805E4,7.575297E4,4.234578E3,1.4422356E5,7.3236305E4,2.8979712E2,1.1739398E4,7.588192E4,5.909289E4,1.28601875E4,8.21623E3,0E0,0E0,0E0,1.1620156E3,0E0,0E0,0E0,0E0,0E0,0E0,0E0,0E0,0E0,0E0],"parents":[2147483647,0,0,1,1,2,2,3,3,4,4,5,5,6,6,7,7,8,8,9,9,10,10,14,14],"right_children":[2,4,6,8,10,12,14,16,18,20,22,-1,-1,-1,24,-1,-1,-1,-1,-1,-1,-1,-1,-1,-1],"split_conditions":[1.6061415E1,2.9533167E1,1.6521667E1,3.0690584E1,1.3339583E1,2.389E3,9.099758E1,1.785E3,8.3333336E-2,1.97552E-3,1.4837917E1,-2.365394E0,-2.4454652E-1,-9.748343E0,4.3711457E-1,5.441132E0,-6.7614955E-1,-8.070914E0,-1.4054657E0,1.48330765E1,4.6348815E0,3.6298301E0,3.051409E-1,-1.5676478E0,-4.4880414E0],"split_indices":[17,13,17,9,17,0,5,0,24,11,17,0,0,0,22,0,0,0,0,0,0,0,0,0,0],"split_type":[0,0,0,0,0,0,0,0,0,0,0,0,0,0,0,0,0,0,0,0,0,0,0,0,0],"sum_hessian":[2.07E2,1.75E2,3.2E1,1.36E2,3.9E1,6E0,2.6E1,8E1,5.6E1,9E0,3E1,5E0,1E0,5E0,2.1E1,4.2E1,3.8E1,2.1E1,3.5E1,6E0,3E0,1.7E1,1.3E1,3E0,1.8E1],"tree_param":{"num_deleted":"0","num_feature":"26","num_nodes":"25","size_leaf_vector":"1"}},{"base_weights":[-1.2888703E0,4.4987556E1,-1.2581435E1,8.233153E1,2.7305586E1,-7.990313E1,-3.1976388E0,1.0515982E1,6.0501194E0,3.7409306E1,-4.2634413E-1,-3.7632557E1,-1.1490978E1,8.474209E1,-9.987352E0,-1.8697754E0,4.097144E0,1.3385447E0,-2.1037445E0,-9.750364E0,-1.3494134E0,3.7926471E0,1.571878E1,2.2043465E-2,-4.654493E0],"categories":[],"categories_nodes":[],"categories_segments":[],"categories_sizes":[],"default_left":[0,0,0,0,0,0,0,0,0,0,0,0,0,0,0,0,0,0,0,0,0,0,0,0,0],"id":34,"left_children":[1,3,5,7,9,11,13,-1,-1,15,17,19,-1,21,23,-1,-1,-1,-1,-1,-1,-1,-1,-1,-1],"loss_changes":[1.1187545E5,2.5485117E4,1.0840259E5,1.16234375E2,8.421818E3,2.6750406E4,9.160334E4,0E0,0E0,5.16301E3,2.8436814E3,1.4581402E4,0E0,3.1345914E4,5.300068E4,0E0,0E0,0E0,0E0,0E0,0E0,0E0,0E0,0E0,0E0],"parents":[2147483647,0,0,1,1,2,2,3,3,4,4,5,5,6,6,9,9,10,10,11,11,13,13,14,14],"right_children":[2,4,6,8,10,12,14,-1,-1,16,18,20,-1,22,24,-1,-1,-1,-1,-1,-1,-1,-1,-1,-1],"split_conditions":[3.027E1,7.849E1,8.6151505E1,4.8783184E-3,2.338E1,8.488E1,8.660451E1,1.0515982E1,6.0501194E0,1.5168189E-1,8.032E1,2.1031322E1,-1.1490978E1,3.3429094E-2,9.066458E1,-1.8697754E0,4.097144E0,1.3385447E0,-2.1037445E0,-9.750364E0,-1.3494134E0,3.7926471E0,1.571878E1,2.2043465E-2,-4.654493E0],"split_indices":[8,4,5,7,12,4,5,0,0,6,4,2,0,15,5,0,0,0,0,0,0,0,0,0,0],"split_type":[0,0,0,0,0,0,0,0,0,0,0,0,0,0,0,0,0,0,0,0,0,0,0,0,0],"sum_hessian":[2.12E2,4.1E1,1.71E2,1.2E1,2.9E1,2E1,1.51E2,4E0,8E0,2.1E1,8E0,1E1,1E1,1E1,1.41E2,1E0,2E1,5E0,3E0,2E0,8E0,7E0,3E0,1.11E2,3E1],"tree_param":{"num_deleted":"0","num_feature":"26","num_nodes":"25","size_leaf_vector":"1"}},{"base_weights":[-3.289833E-1,5.340162E1,-8.400789E0,8.2343056E1,2.8128662E1,-6.798281E1,8.702428E-1,1.08999195E1,5.838486E0,8.588054E-2,3.170739E1,7.3639708E0,-8.201695E1,8.306467E1,-1.079836E1,3.6499238E0,9.404999E-1,-1.828389E0,1.8346909E0,-3.0943086E0,-1.0378856E1,3.032049E0,1.2825751E1,-3.5482643E0,1.4049229E-1],"categories":[],"categories_nodes":[],"categories_segments":[],"categories_sizes":[],"default_left":[0,0,0,0,0,0,0,0,0,0,0,0,0,0,0,0,0,0,0,0,0,0,0,0,0],"id":35,"left_children":[1,3,5,7,9,11,13,-1,-1,-1,15,17,19,21,23,-1,-1,-1,-1,-1,-1,-1,-1,-1,-1],"loss_changes":[9.629698E4,1.889543E4,1.06669805E5,1.9383281E3,1.6318232E3,2.8097094E4,1.6202477E5,0E0,0E0,0E0,1.2597705E3,1.743897E3,2.1251578E4,4.6168016E4,4.4631785E4,0E0,0E0,0E0,0E0,0E0,0E0,0E0,0E0,0E0,0E0],"parents":[2147483647,0,0,1,1,2,2,3,3,4,4,5,5,6,6,10,10,11,11,12,12,13,13,14,14],"right_children":[2,4,6,8,10,12,14,-1,-1,-1,16,18,20,22,24,-1,-1,-1,-1,-1,-1,-1,-1,-1,-1],"split_conditions":[8.175192E1,7.849E1,8.6151505E1,-4.1041043E-1,2.14E0,2.88E0,8.661617E1,1.08999195E1,5.838486E0,8.588054E-2,2.729361E1,1.8035583E3,8.308E1,8.6481415E1,2.084E1,3.6499238E0,9.404999E-1,-1.828389E0,1.8346909E0,-3.0943086E0,-1.0378856E1,3.032049E0,1.2825751E1,-3.5482643E0,1.4049229E-1],"split_indices":[5,4,5,3,21,16,5,0,0,0,2,1,4,5,12,0,0,0,0,0,0,0,0,0,0],"split_type":[0,0,0,0,0,0,0,0,0,0,0,0,0,0,0,0,0,0,0,0,0,0,0,0,0],"sum_hessian":[2.2E2,2.8E1,1.92E2,1.2E1,1.6E1,2.5E1,1.67E2,4E0,8E0,2E0,1.4E1,4E0,2.1E1,2E1,1.47E2,1.1E1,3E0,1E0,3E0,7E0,1.4E1,1E1,1E1,4.8E1,9.9E1],"tree_param":{"num_deleted":"0","num_feature":"26","num_nodes":"25","size_leaf_vector":"1"}},{"base_weights":[2.7905724E0,7.516116E1,-1.4802004E0,1.0027927E1,5.00672E0,-9.393632E0,3.33362E1,-2.5711086E1,1.5344524E1,6.7482925E1,2.4801433E0,2.127093E0,-3.8309753E0,9.785307E0,-8.296469E-1,2.9093206E0,1.1183342E1,-2.327603E0,2.3736944E0],"categories":[],"categories_nodes":[],"categories_segments":[],"categories_sizes":[],"default_left":[0,0,0,0,0,0,0,0,0,0,0,0,0,0,0,0,0,0,0],"id":36,"left_children":[1,3,5,-1,-1,7,9,11,13,15,17,-1,-1,-1,-1,-1,-1,-1,-1],"loss_changes":[6.65631E4,2.5430547E3,5.651866E4,0E0,0E0,6.780637E4,3.987069E4,6.059786E4,1.3150095E5,2.7393266E4,1.2049874E4,0E0,0E0,0E0,0E0,0E0,0E0,0E0,0E0],"parents":[2147483647,0,0,1,1,2,2,5,5,6,6,7,7,8,8,9,9,10,10],"right_children":[2,4,6,-1,-1,8,10,12,14,16,18,-1,-1,-1,-1,-1,-1,-1,-1],"split_conditions":[7.849E1,-4.1041043E-1,2.8825E0,1.0027927E1,5.00672E0,4.2329165E-1,9.769166E0,8.1992584E1,3.192E1,2.102615E-3,1.497049E-1,2.127093E0,-3.8309753E0,9.785307E0,-8.296469E-1,2.9093206E0,1.1183342E1,-2.327603E0,2.3736944E0],"split_indices":[4,3,21,0,0,22,17,5,9,7,22,0,0,0,0,0,0,0,0],"split_type":[0,0,0,0,0,0,0,0,0,0,0,0,0,0,0,0,0,0,0],"sum_hessian":[2.14E2,1.1E1,2.03E2,4E0,7E0,1.66E2,3.7E1,1E2,6.6E1,1.7E1,2E1,2.1E1,7.9E1,1.4E1,5.2E1,1E1,7E0,9E0,1.1E1],"tree_param":{"num_deleted":"0","num_feature":"26","num_nodes":"19","size_leaf_vector":"1"}},{"base_weights":[1.2240185E0,7.9436355E0,-3.7705402E1,-1.9758096E0,5.070724E1,-4.926905E1,-2.0544418E1,1.2155777E1,-4.775458E1,1.2822621E1,3.406785E1,-9.031775E0,-3.592756E0,-2.3613642E1,-3.9631143E-1,5.373602E0,-4.9077612E-1,-1.0372567E1,-9.175413E-1,4.5266943E0,9.590687E-1,-2.595495E0,-7.157642E-1,3.4861755E-2,-9.430847E-2],"categories":[],"categories_nodes":[],"categories_segments":[],"categories_sizes":[],"default_left":[0,0,0,0,0,0,0,0,0,0,0,0,0,0,0,0,0,0,0,0,0,0,0,0,0],"id":37,"left_children":[1,3,5,7,9,11,13,15,17,-1,19,-1,-1,21,23,-1,-1,-1,-1,-1,-1,-1,-1,-1,-1],"loss_changes":[5.863426E4,8.112071E4,5.5364336E3,1.0150105E5,4.2066867E4,7.1604727E3,9.1822754E2,8.540445E4,7.894305E4,0E0,8.0636406E3,0E0,0E0,3.1509375E2,1.5506976E0,0E0,0E0,0E0,0E0,0E0,0E0,0E0,0E0,0E0,0E0],"parents":[2147483647,0,0,1,1,2,2,3,3,4,4,5,5,6,6,7,7,8,8,10,10,13,13,14,14],"right_children":[2,4,6,8,10,12,14,16,18,-1,20,-1,-1,22,24,-1,-1,-1,-1,-1,-1,-1,-1,-1,-1],"split_conditions":[1.6053251E1,2.9533167E1,2.6688685E-3,1.2031E1,1.2974667E1,9.0884575E1,2.519E3,1.371E3,8.756634E1,1.2822621E1,3.252E1,-9.031775E0,-3.592756E0,3.29405E1,2.55E3,5.373602E0,-4.9077612E-1,-1.0372567E1,-9.175413E-1,4.5266943E0,9.590687E-1,-2.595495E0,-7.157642E-1,3.4861755E-2,-9.430847E-2],"split_indices":[17,13,7,17,17,5,0,0,5,0,12,0,0,9,0,0,0,0,0,0,0,0,0,0,0],"split_type":[0,0,0,0,0,0,0,0,0,0,0,0,0,0,0,0,0,0,0,0,0,0,0,0,0],"sum_hessian":[2.22E2,1.9E2,3.2E1,1.55E2,3.5E1,1.8E1,1.4E1,1.19E2,3.6E1,5E0,3E1,3E0,1.5E1,1.2E1,2E0,3.4E1,8.5E1,1.4E1,2.2E1,2E1,1E1,1E1,2E0,1E0,1E0],"tree_param":{"num_deleted":"0","num_feature":"26","num_nodes":"25","size_leaf_vector":"1"}},{"base_weights":[-1.6759335E0,4.7587612E1,-7.7932863E0,7.050967E1,2.9133732E1,-4.166323E1,-1.303952E0,7.395657E1,1.9743775E0,-2.8938803E-1,3.3682625E1,-1.5656502E1,-8.752487E1,7.815469E0,-3.3692337E1,2.2173889E0,7.765767E0,-4.1156005E-2,-2.2521974E-3,3.6702373E0,-1.2771606E-1,-4.273359E-1,-8.253091E0,-1.0562992E1,-5.483235E0,-6.918571E-1,4.0403323E0,-2.3388517E0,-5.2350936E0],"categories":[],"categories_nodes":[],"categories_segments":[],"categories_sizes":[],"default_left":[0,0,0,0,0,0,0,0,0,0,0,0,0,0,0,0,0,0,0,0,0,0,0,0,0,0,0,0,0],"id":38,"left_children":[1,3,5,7,9,11,13,15,-1,17,19,21,23,25,27,-1,-1,-1,-1,-1,-1,-1,-1,-1,-1,-1,-1,-1,-1],"loss_changes":[6.546516E4,8.0978125E3,4.2365805E4,2.8966797E2,2.0173867E3,3.560371E4,4.840754E4,2.9023438E0,0E0,8.854154E-2,1.4192812E3,1.5633375E4,7.1896094E2,6.173883E4,5.6967656E3,0E0,0E0,0E0,0E0,0E0,0E0,0E0,0E0,0E0,0E0,0E0,0E0,0E0,0E0],"parents":[2147483647,0,0,1,1,2,2,3,3,4,4,5,5,6,6,7,7,9,9,10,10,11,11,12,12,13,13,14,14],"right_children":[2,4,6,8,10,12,14,16,-1,18,20,22,24,26,28,-1,-1,-1,-1,-1,-1,-1,-1,-1,-1,-1,-1,-1,-1],"split_conditions":[8.088E1,2.975E1,8.608459E1,3.44E0,2.14E0,8.4422585E1,9.01875E1,2.953E1,1.9743775E0,1.8E3,1.5080595E-1,1.859E3,-6.8934257E-3,1.886E3,1.7173944E-1,2.2173889E0,7.765767E0,-4.1156005E-2,-2.2521974E-3,3.6702373E0,-1.2771606E-1,-4.273359E-1,-8.253091E0,-1.0562992E1,-5.483235E0,-6.918571E-1,4.0403323E0,-2.3388517E0,-5.2350936E0],"split_indices":[4,8,5,16,21,5,5,8,0,0,18,0,15,0,10,0,0,0,0,0,0,0,0,0,0,0,0,0,0],"split_type":[0,0,0,0,0,0,0,0,0,0,0,0,0,0,0,0,0,0,0,0,0,0,0,0,0,0,0,0,0],"sum_hessian":[2.15E2,2.3E1,1.92E2,9E0,1.4E1,3E1,1.62E2,8E0,1E0,2E0,1.2E1,2E1,1E1,1.27E2,3.5E1,1E0,7E0,1E0,1E0,1.1E1,1E0,1.8E1,2E0,5E0,5E0,8.8E1,3.9E1,2.4E1,1.1E1],"tree_param":{"num_deleted":"0","num_feature":"26","num_nodes":"29","size_leaf_vector":"1"}},{"base_weights":[-5.5182284E-1,2.8751732E1,-7.4535117E0,5.5998085E1,1.9338755E1,-5.8964664E1,-7.588245E-1,6.1182513E0,2.3506918E0,1.3974881E1,5.3392153E0,-6.836643E1,1.710082E0,6.963744E1,-6.093998E0,2.0712953E0,1.0659512E-1,-2.5483189E0,-8.768445E0,1.5165224E1,3.4561684E0,5.5522513E-1,-2.8332918E0],"categories":[],"categories_nodes":[],"categories_segments":[],"categories_sizes":[],"default_left":[0,0,0,0,0,0,0,0,0,0,0,0,0,0,0,0,0,0,0,0,0,0,0],"id":39,"left_children":[1,3,5,7,9,11,13,-1,-1,15,-1,17,-1,19,21,-1,-1,-1,-1,-1,-1,-1,-1],"loss_changes":[4.3494523E4,9.432309E3,5.995934E4,2.4626758E2,5.09891E3,1.5472117E4,5.8638695E4,0E0,0E0,2.500378E3,0E0,1.26770625E4,0E0,2.6402688E4,3.7712312E4,0E0,0E0,0E0,0E0,0E0,0E0,0E0,0E0],"parents":[2147483647,0,0,1,1,2,2,3,3,4,4,5,5,6,6,9,9,11,11,13,13,14,14],"right_children":[2,4,6,8,10,12,14,-1,-1,16,-1,18,-1,20,22,-1,-1,-1,-1,-1,-1,-1,-1],"split_conditions":[3.027E1,7.849E1,8.6151505E1,7.7423793E-3,3.0340166E1,1.0101674E-2,8.657917E1,6.1182513E0,2.3506918E0,8.193E1,5.3392153E0,9.1722384E-2,1.710082E0,1.7544849E-1,1.7522466E2,2.0712953E0,1.0659512E-1,-2.5483189E0,-8.768445E0,1.5165224E1,3.4561684E0,5.5522513E-1,-2.8332918E0],"split_indices":[8,4,5,15,9,7,5,0,0,4,0,18,0,6,2,0,0,0,0,0,0,0,0],"split_type":[0,0,0,0,0,0,0,0,0,0,0,0,0,0,0,0,0,0,0,0,0,0,0],"sum_hessian":[2.13E2,4E1,1.73E2,9E0,3.1E1,1.9E1,1.54E2,7E0,2E0,2.8E1,3E0,1.7E1,2E0,1E1,1.44E2,1.8E1,1E1,6E0,1.1E1,2E0,8E0,9.5E1,4.9E1],"tree_param":{"num_deleted":"0","num_feature":"26","num_nodes":"23","size_leaf_vector":"1"}},{"base_weights":[1.3406333E0,4.1721447E1,-4.078139E0,6.696202E1,2.6783302E1,-1.3256274E1,2.6606272E1,7.1407914E0,1.569745E0,3.0560825E1,-2.2912598E-1,-4.365196E1,-6.3322455E-1,4.3483276E1,-5.688528E1,1.3567098E0,3.7051876E0,-2.7873595E0,-1.38935995E1,1.4846872E0,-3.1575828E0,1.1700466E1,2.3107328E0,-6.266805E0,-8.2029575E-1],"categories":[],"categories_nodes":[],"categories_segments":[],"categories_sizes":[],"default_left":[0,0,0,0,0,0,0,0,0,0,0,0,0,0,0,0,0,0,0,0,0,0,0,0,0],"id":40,"left_children":[1,3,5,7,9,11,13,-1,-1,15,-1,17,19,21,23,-1,-1,-1,-1,-1,-1,-1,-1,-1,-1],"loss_changes":[4.8090508E4,8.0097656E3,5.4988082E4,9.303281E2,2.04696E3,5.75253E4,6.5882484E4,0E0,0E0,1.2622275E3,0E0,6.2278094E4,5.172121E4,5.4222906E4,1.738084E3,0E0,0E0,0E0,0E0,0E0,0E0,0E0,0E0,0E0,0E0],"parents":[2147483647,0,0,1,1,2,2,3,3,4,4,5,5,6,6,9,9,11,11,12,12,13,13,14,14],"right_children":[2,4,6,8,10,12,14,-1,-1,16,-1,18,20,22,24,-1,-1,-1,-1,-1,-1,-1,-1,-1,-1],"split_conditions":[8.088E1,7.706E1,2.8739998E0,3.44E0,1.8485E3,3.0817E1,1.2031E1,7.1407914E0,1.569745E0,1.1993869E-4,-2.2912598E-1,1.2674084E1,9.01875E1,2.88425E0,1.3851176E-1,1.3567098E0,3.7051876E0,-2.7873595E0,-1.38935995E1,1.4846872E0,-3.1575828E0,1.1700466E1,2.3107328E0,-6.266805E0,-8.2029575E-1],"split_indices":[4,4,21,16,1,9,17,0,0,11,0,17,5,21,10,0,0,0,0,0,0,0,0,0,0],"split_type":[0,0,0,0,0,0,0,0,0,0,0,0,0,0,0,0,0,0,0,0,0,0,0,0,0],"sum_hessian":[2.18E2,2.5E1,1.93E2,8E0,1.7E1,1.49E2,4.4E1,7E0,1E0,1.5E1,2E0,4.3E1,1.06E2,3.7E1,7E0,5E0,1E1,3.8E1,5E0,7.1E1,3.5E1,7E0,3E1,6E0,1E0],"tree_param":{"num_deleted":"0","num_feature":"26","num_nodes":"25","size_leaf_vector":"1"}},{"base_weights":[2.3844239E-1,5.148535E0,-3.5414024E1,2.8556733E0,6.664784E1,-7.281079E1,-2.3605177E1,3.1935732E1,-2.7964358E0,1.6592325E0,8.335158E0,-1.9092072E0,-7.9736114E0,-5.1853824E0,-2.6240652E1,5.340403E0,2.0725791E0,-4.4481807E0,4.8868784E-1,-7.9636174E-1,1.5746613E-1,-1.2274395E0,-2.8092175E0],"categories":[],"categories_nodes":[],"categories_segments":[],"categories_sizes":[],"default_left":[0,0,0,0,0,0,0,0,0,0,0,0,0,0,0,0,0,0,0,0,0,0,0],"id":41,"left_children":[1,3,5,7,9,11,13,15,17,-1,-1,-1,-1,19,21,-1,-1,-1,-1,-1,-1,-1,-1],"loss_changes":[3.9044965E4,2.744752E4,1.0204832E4,3.1318402E4,4.469801E3,7.09791E2,9.319199E2,6.3535664E3,5.146247E4,0E0,0E0,0E0,0E0,8.766397E1,1.4650293E2,0E0,0E0,0E0,0E0,0E0,0E0,0E0,0E0],"parents":[2147483647,0,0,1,1,2,2,3,3,4,4,5,5,6,6,7,7,8,8,13,13,14,14],"right_children":[2,4,6,8,10,12,14,16,18,-1,-1,-1,-1,20,22,-1,-1,-1,-1,-1,-1,-1,-1],"split_conditions":[1.6521667E1,2.9115E0,9.099758E1,8.175192E1,2.0174231E2,2.315E3,4.3711457E-1,2.975E1,8.608459E1,1.6592325E0,8.335158E0,-1.9092072E0,-7.9736114E0,2.314E3,2.9857332E1,5.340403E0,2.0725791E0,-4.4481807E0,4.8868784E-1,-7.9636174E-1,1.5746613E-1,-1.2274395E0,-2.8092175E0],"split_indices":[17,21,5,5,2,0,22,8,5,0,0,0,0,0,13,0,0,0,0,0,0,0,0],"split_type":[0,0,0,0,0,0,0,0,0,0,0,0,0,0,0,0,0,0,0,0,0,0,0],"sum_hessian":[2.21E2,1.95E2,2.6E1,1.89E2,6E0,5E0,2.1E1,3E1,1.59E2,2E0,4E0,1E0,4E0,3E0,1.8E1,9E0,2.1E1,2.4E1,1.35E2,2E0,1E0,3E0,1.5E1],"tree_param":{"num_deleted":"0","num_feature":"26","num_nodes":"23","size_leaf_vector":"1"}},{"base_weights":[8.947998E-1,6.707905E0,-2.6664507E1,-3.410457E0,2.917375E1,-1.8436802E1,-4.29548E1,2.3641645E1,-1.7884628E1,1.036874E2,1.6412872E1,-5.078904E0,-2.3793869E1,-6.3460537E1,-1.1872309E1,5.26387E0,1.3564905E0,-3.1638267E0,1.47392E0,-1.1446757E0,1.43973255E1,-2.1904607E0,2.2268908E0,-6.59988E-1,1.6300624E-2,-4.3907472E-1,-2.4627893E0,-2.5812547E0,-7.3357224E0,-1.5849005E0,4.0055847E-1],"categories":[],"categories_nodes":[],"categories_segments":[],"categories_sizes":[],"default_left":[0,0,0,0,0,0,0,0,0,0,0,0,0,0,0,0,0,0,0,0,0,0,0,0,0,0,0,0,0,0,0],"id":42,"left_children":[1,3,5,7,9,11,13,15,17,19,21,23,25,27,29,-1,-1,-1,-1,-1,-1,-1,-1,-1,-1,-1,-1,-1,-1,-1,-1],"loss_changes":[3.494338E4,4.1016652E4,4.301258E3,4.9367418E4,5.1546324E4,1.81125E3,6.895008E3,1.2142576E4,3.725942E4,3.8754242E4,1.1482826E4,7.283118E1,1.9933496E2,7.1459766E2,4.423338E2,0E0,0E0,0E0,0E0,0E0,0E0,0E0,0E0,0E0,0E0,0E0,0E0,0E0,0E0,0E0,0E0],"parents":[2147483647,0,0,1,1,2,2,3,3,4,4,5,5,6,6,7,7,8,8,9,9,10,10,11,11,12,12,13,13,14,14],"right_children":[2,4,6,8,10,12,14,16,18,20,22,24,26,28,30,-1,-1,-1,-1,-1,-1,-1,-1,-1,-1,-1,-1,-1,-1,-1,-1],"split_conditions":[9.03E1,1.5838926E-1,1.7173944E-1,3.027E1,1.275E1,4.3711457E-1,9.129E1,2.975E1,2.8739998E0,1.2449333E3,1.6197392E-1,2.314E3,4.538768E-1,2.306E3,2.366E3,5.26387E0,1.3564905E0,-3.1638267E0,1.47392E0,-1.1446757E0,1.43973255E1,-2.1904607E0,2.2268908E0,-6.59988E-1,1.6300624E-2,-4.3907472E-1,-2.4627893E0,-2.5812547E0,-7.3357224E0,-1.5849005E0,4.0055847E-1],"split_indices":[4,22,10,8,16,22,4,8,21,1,22,0,18,0,0,0,0,0,0,0,0,0,0,0,0,0,0,0,0,0,0],"split_type":[0,0,0,0,0,0,0,0,0,0,0,0,0,0,0,0,0,0,0,0,0,0,0,0,0,0,0,0,0,0,0],"sum_hessian":[2.16E2,1.79E2,3.7E1,1.24E2,5.5E1,2.6E1,1.1E1,4.3E1,8.1E1,7E0,4.8E1,8E0,1.8E1,6E0,5E0,1E1,3.3E1,5.7E1,2.4E1,2E0,5E0,6E0,4.2E1,6E0,2E0,1E0,1.7E1,2E0,4E0,4E0,1E0],"tree_param":{"num_deleted":"0","num_feature":"26","num_nodes":"31","size_leaf_vector":"1"}},{"base_weights":[2.060057E0,-3.8606162E0,2.7663485E1,2.825922E1,-1.0715862E1,3.672058E1,-6.076627E0,5.180759E1,1.7341286E1,-4.183375E1,-3.3999485E-1,1.672444E1,8.064596E1,2.9028769E0,7.3023925E0,-3.35347E-1,2.0785377E0,-2.374888E0,-9.144018E0,1.2830403E0,-2.153283E0,4.200205E-1,4.4378943E0,1.6270765E1,2.9534364E0],"categories":[],"categories_nodes":[],"categories_segments":[],"categories_sizes":[],"default_left":[0,0,0,0,0,0,0,0,0,0,0,0,0,0,0,0,0,0,0,0,0,0,0,0,0],"id":43,"left_children":[1,3,5,7,9,11,-1,13,15,17,19,21,23,-1,-1,-1,-1,-1,-1,-1,-1,-1,-1,-1,-1],"loss_changes":[3.148583E4,3.751483E4,3.3467133E4,6.814576E3,4.5188285E4,3.0271414E4,0E0,2.229752E3,1.6377456E3,2.9227809E4,2.986279E4,8.818738E3,4.1331875E4,0E0,0E0,0E0,0E0,0E0,0E0,0E0,0E0,0E0,0E0,0E0,0E0],"parents":[2147483647,0,0,1,1,2,2,3,3,4,4,5,5,7,7,8,8,9,9,10,10,11,11,12,12],"right_children":[2,4,6,8,10,12,-1,14,16,18,20,22,24,-1,-1,-1,-1,-1,-1,-1,-1,-1,-1,-1,-1],"split_conditions":[2.8739998E0,8.175192E1,8.733925E1,7.6714424E1,8.738517E1,3.063E1,-6.076627E0,2.4651144E1,2.1430001E0,1.1356157E-1,9.001133E1,2.0301284E-1,1.076E1,2.9028769E0,7.3023925E0,-3.35347E-1,2.0785377E0,-2.374888E0,-9.144018E0,1.2830403E0,-2.153283E0,4.200205E-1,4.4378943E0,1.6270765E1,2.9534364E0],"split_indices":[21,5,5,5,5,8,0,2,21,10,5,6,16,0,0,0,0,0,0,0,0,0,0,0,0],"split_type":[0,0,0,0,0,0,0,0,0,0,0,0,0,0,0,0,0,0,0,0,0,0,0,0,0],"sum_hessian":[2.06E2,1.68E2,3.8E1,2.9E1,1.39E2,3.5E1,3E0,8E0,2.1E1,3.4E1,1.05E2,2.5E1,1E1,5E0,3E0,3E0,1.8E1,2.6E1,8E0,6.5E1,4E1,1.8E1,7E0,3E0,7E0],"tree_param":{"num_deleted":"0","num_feature":"26","num_nodes":"25","size_leaf_vector":"1"}},{"base_weights":[3.7879027E-2,1.8264452E1,-6.2628984E0,-8.116004E0,2.1547808E1,-4.7931515E1,-1.6849344E0,1.581393E1,6.573882E1,-2.7478333E0,-6.2763756E1,7.916744E1,-5.0893664E0,4.061565E0,6.9129753E-1,1.4120178E0,7.323851E0,-1.5465996E0,2.406241E0,-3.2342408E0,-7.3931627E0,2.7561517E0,1.2158621E1,3.325871E-1,-2.9060333E0],"categories":[],"categories_nodes":[],"categories_segments":[],"categories_sizes":[],"default_left":[0,0,0,0,0,0,0,0,0,0,0,0,0,0,0,0,0,0,0,0,0,0,0,0,0],"id":44,"left_children":[1,3,5,-1,7,9,11,13,15,17,19,21,23,-1,-1,-1,-1,-1,-1,-1,-1,-1,-1,-1,-1],"loss_changes":[2.5035014E4,2.0029791E4,3.082194E4,0E0,1.2896635E4,1.0550344E4,4.086561E4,1.0757173E4,1.2886055E3,2.0770342E3,1.6857734E3,9.783254E3,2.8741086E4,0E0,0E0,0E0,0E0,0E0,0E0,0E0,0E0,0E0,0E0,0E0,0E0],"parents":[2147483647,0,0,1,1,2,2,4,4,5,5,6,6,7,7,8,8,9,9,10,10,11,11,12,12],"right_children":[2,4,6,-1,8,10,12,14,16,18,20,22,24,-1,-1,-1,-1,-1,-1,-1,-1,-1,-1,-1,-1],"split_conditions":[3.0433666E1,1.9070992E1,8.6151505E1,-8.116004E0,3.0383665E1,8.4422585E1,8.6548836E1,7.792333E1,3.025E1,1.834E3,2.1489167E0,8.64645E1,8.043552E-1,4.061565E0,6.9129753E-1,1.4120178E0,7.323851E0,-1.5465996E0,2.406241E0,-3.2342408E0,-7.3931627E0,2.7561517E0,1.2158621E1,3.325871E-1,-2.9060333E0],"split_indices":[9,2,5,0,9,5,5,5,8,0,21,5,18,0,0,0,0,0,0,0,0,0,0,0,0],"split_type":[0,0,0,0,0,0,0,0,0,0,0,0,0,0,0,0,0,0,0,0,0,0,0,0,0],"sum_hessian":[2.16E2,5.5E1,1.61E2,1E0,5.4E1,1.5E1,1.46E2,4.9E1,5E0,4E0,1.1E1,5E0,1.41E2,1.2E1,3.7E1,1E0,4E0,3E0,1E0,4E0,7E0,3E0,2E0,1.05E2,3.6E1],"tree_param":{"num_deleted":"0","num_feature":"26","num_nodes":"25","size_leaf_vector":"1"}},{"base_weights":[1.4542675E0,1.1044096E1,-1.0819887E1,-4.2659516E0,2.8539425E1,-1.1118426E1,-1.7783881E0,2.0921232E1,-2.4038307E1,5.0484425E1,1.1564001E1,1.2086329E1,-2.2911196E1,3.8112462E0,1.5035405E0,4.4055516E-1,-3.9005337E0,1.7028548E0,8.530925E0,5.8944624E-2,9.372581E0,4.8509087E-2,2.820609E0,-1.8970906E0,-4.9690785E0],"categories":[],"categories_nodes":[],"categories_segments":[],"categories_sizes":[],"default_left":[0,0,0,0,0,0,0,0,0,0,0,0,0,0,0,0,0,0,0,0,0,0,0,0,0],"id":45,"left_children":[1,3,5,7,9,-1,11,13,15,17,19,21,23,-1,-1,-1,-1,-1,-1,-1,-1,-1,-1,-1,-1],"loss_changes":[2.6015043E4,3.333568E4,8.7824375E4,3.386958E4,2.1022691E4,0E0,2.664695E4,2.462503E3,1.6349199E4,2.767468E4,3.0602184E4,1.0271822E4,2.8560176E3,0E0,0E0,0E0,0E0,0E0,0E0,0E0,0E0,0E0,0E0,0E0,0E0],"parents":[2147483647,0,0,1,1,2,2,3,3,4,4,6,6,7,7,8,8,9,9,10,10,11,11,12,12],"right_children":[2,4,6,8,10,-1,12,14,16,18,20,22,24,-1,-1,-1,-1,-1,-1,-1,-1,-1,-1,-1,-1],"split_conditions":[1.277475E1,3.3614166E0,8.749934E1,8.1992584E1,8.661617E1,-1.1118426E1,9.001133E1,7.706E1,2.94E0,8.647E1,1.782E3,2.3096833E3,1.9575179E-1,3.8112462E0,1.5035405E0,4.4055516E-1,-3.9005337E0,1.7028548E0,8.530925E0,5.8944624E-2,9.372581E0,4.8509087E-2,2.820609E0,-1.8970906E0,-4.9690785E0],"split_indices":[17,17,5,5,5,0,5,4,16,4,0,1,10,0,0,0,0,0,0,0,0,0,0,0,0],"split_type":[0,0,0,0,0,0,0,0,0,0,0,0,0,0,0,0,0,0,0,0,0,0,0,0,0],"sum_hessian":[2.19E2,1.23E2,9.6E1,6.6E1,5.7E1,7E0,8.9E1,2.9E1,3.7E1,2.4E1,3.3E1,5.4E1,3.5E1,6E0,2.3E1,1.3E1,2.4E1,1.3E1,1.1E1,3E1,3E0,3.2E1,2.2E1,3.2E1,3E0],"tree_param":{"num_deleted":"0","num_feature":"26","num_nodes":"25","size_leaf_vector":"1"}},{"base_weights":[1.4503696E0,8.272026E0,-9.964476E0,2.396498E0,6.9275734E1,-9.7578535E0,-4.2204404E0,7.001725E0,-5.8249428E1,1.2717743E1,8.671532E1,8.161098E0,-1.7468405E1,3.5314522E0,-3.9439023E-1,-7.9690204E0,-2.5158772E0,1.8620157E0,-2.494751E-1,1.8605957E0,9.290324E0,6.0121555E-2,3.153661E0,-2.7842424E0,-8.6580986E-1],"categories":[],"categories_nodes":[],"categories_segments":[],"categories_sizes":[],"default_left":[0,0,0,0,0,0,0,0,0,0,0,0,0,0,0,0,0,0,0,0,0,0,0,0,0],"id":46,"left_children":[1,3,5,7,9,-1,11,13,15,17,19,21,23,-1,-1,-1,-1,-1,-1,-1,-1,-1,-1,-1,-1],"loss_changes":[1.7057684E4,4.8938758E4,4.0855348E4,3.5598168E4,1.0733344E4,0E0,1.2936914E4,3.6707633E4,4.380496E3,4.0561444E2,2.0645547E3,7.2263994E3,3.2320732E3,0E0,0E0,0E0,0E0,0E0,0E0,0E0,0E0,0E0,0E0,0E0,0E0],"parents":[2147483647,0,0,1,1,2,2,3,3,4,4,6,6,7,7,8,8,9,9,10,10,11,11,12,12],"right_children":[2,4,6,8,10,-1,12,14,16,18,20,22,24,-1,-1,-1,-1,-1,-1,-1,-1,-1,-1,-1,-1],"split_conditions":[1.346E1,2.18E3,8.738517E1,1.2681666E1,4.3662518E-1,-9.7578535E0,1.5344084E1,1.7368168E1,8.756634E1,2.351E3,-3.5079385E-3,2.4919003E-1,2.061685E-1,3.5314522E0,-3.9439023E-1,-7.9690204E0,-2.5158772E0,1.8620157E0,-2.494751E-1,1.8605957E0,9.290324E0,6.0121555E-2,3.153661E0,-2.7842424E0,-8.6580986E-1],"split_indices":[16,0,5,17,18,0,17,13,5,0,7,6,6,0,0,0,0,0,0,0,0,0,0,0,0],"split_type":[0,0,0,0,0,0,0,0,0,0,0,0,0,0,0,0,0,0,0,0,0,0,0,0,0],"sum_hessian":[2.17E2,1.36E2,8.1E1,1.25E2,1.1E1,4E0,7.7E1,1.17E2,8E0,3E0,8E0,4E1,3.7E1,3.2E1,8.5E1,4E0,4E0,2E0,1E0,1E0,7E0,3.1E1,9E0,1.6E1,2.1E1],"tree_param":{"num_deleted":"0","num_feature":"26","num_nodes":"25","size_leaf_vector":"1"}},{"base_weights":[2.4993615E0,4.772873E0,-3.1619438E1,1.28263645E1,-7.6074443E0,1.4193078E1,-5.1363754E1,7.028877E0,6.3125187E1,-6.9511116E1,-2.748092E0,-9.316011E-1,2.4586732E0,-1.5896161E1,-6.4293265E0,-2.6726705E-1,2.675761E0,9.834438E0,3.654506E0,-8.977224E0,1.5897248E0,1.0324442E0,-1.6085356E0,-2.0352896E-1,6.378879E-2,-2.2019715E0,1.2372489E-1],"categories":[],"categories_nodes":[],"categories_segments":[],"categories_sizes":[],"default_left":[0,0,0,0,0,0,0,0,0,0,0,0,0,0,0,0,0,0,0,0,0,0,0,0,0,0,0],"id":47,"left_children":[1,3,5,7,9,11,13,15,17,19,21,23,-1,25,-1,-1,-1,-1,-1,-1,-1,-1,-1,-1,-1,-1,-1],"loss_changes":[1.737134E4,2.0935875E4,1.3392521E4,3.659036E4,2.4776354E4,8.089083E2,3.5637734E3,2.2082424E4,8.575703E3,1.1809945E4,1.3765514E4,6.494967E0,0E0,4.4691327E2,0E0,0E0,0E0,0E0,0E0,0E0,0E0,0E0,0E0,0E0,0E0,0E0,0E0],"parents":[2147483647,0,0,1,1,2,2,3,3,4,4,5,5,6,6,7,7,8,8,9,9,10,10,11,11,13,13],"right_children":[2,4,6,8,10,12,14,16,18,20,22,24,-1,26,-1,-1,-1,-1,-1,-1,-1,-1,-1,-1,-1,-1,-1],"split_conditions":[2.2920811E2,1.346E1,-2.4391622E-3,2.18E3,8.738517E1,-3.5766356E-3,3.1697178E0,2.9088855E0,1.2949833E1,1.387E3,1.5344084E1,1E3,2.4586732E0,1.228E3,-6.4293265E0,-2.6726705E-1,2.675761E0,9.834438E0,3.654506E0,-8.977224E0,1.5897248E0,1.0324442E0,-1.6085356E0,-2.0352896E-1,6.378879E-2,-2.2019715E0,1.2372489E-1],"split_indices":[2,16,19,0,5,3,14,14,17,0,17,0,0,0,0,0,0,0,0,0,0,0,0,0,0,0,0],"split_type":[0,0,0,0,0,0,0,0,0,0,0,0,0,0,0,0,0,0,0,0,0,0,0,0,0,0,0],"sum_hessian":[2.21E2,2.08E2,1.3E1,1.26E2,8.2E1,4E0,9E0,1.14E2,1.2E1,5E0,7.7E1,2E0,2E0,3E0,6E0,7.7E1,3.7E1,4E0,8E0,4E0,1E0,3.9E1,3.8E1,1E0,1E0,2E0,1E0],"tree_param":{"num_deleted":"0","num_feature":"26","num_nodes":"27","size_leaf_vector":"1"}},{"base_weights":[1.7670584E0,8.848094E0,-7.270546E0,3.5368636E0,6.163887E1,-6.0907825E1,-1.6382921E0,-2.5799096E0,3.1497177E1,-3.6054475E0,8.735455E1,-8.7349E0,2.109086E0,8.5624895E0,-1.5017261E1,1.8921887E0,-1.2282599E0,6.8663287E0,6.2028664E-1,2.6177857E0,1.1357993E1,2.632728E0,-3.1748748E-1,-2.3563957E0,-7.7303916E-1],"categories":[],"categories_nodes":[],"categories_segments":[],"categories_sizes":[],"default_left":[0,0,0,0,0,0,0,0,0,0,0,0,0,0,0,0,0,0,0,0,0,0,0,0,0],"id":48,"left_children":[1,3,5,7,9,11,13,15,17,-1,19,-1,-1,21,23,-1,-1,-1,-1,-1,-1,-1,-1,-1,-1],"loss_changes":[1.3823384E4,3.3708453E4,2.85996E4,1.9065244E4,3.0784281E4,2.135554E4,1.2001992E4,1.9425934E4,1.8375914E4,0E0,1.1466156E4,0E0,0E0,1.0509176E4,2.1844307E3,0E0,0E0,0E0,0E0,0E0,0E0,0E0,0E0,0E0,0E0],"parents":[2147483647,0,0,1,1,2,2,3,3,4,4,5,5,6,6,7,7,8,8,10,10,13,13,14,14],"right_children":[2,4,6,8,10,12,14,16,18,-1,20,-1,-1,22,24,-1,-1,-1,-1,-1,-1,-1,-1,-1,-1],"split_conditions":[1.289E1,1.5661079E-1,8.749934E1,8.342911E-1,1.24895E3,2.2042502E-1,1.5344084E1,8.156184E1,8.600571E-1,-3.6054475E0,-1.5729566E-3,-8.7349E0,2.109086E0,9.527283E1,2.061685E-1,1.8921887E0,-1.2282599E0,6.8663287E0,6.2028664E-1,2.6177857E0,1.1357993E1,2.632728E0,-3.1748748E-1,-2.3563957E0,-7.7303916E-1],"split_indices":[16,22,5,18,1,3,17,5,18,0,11,0,0,2,6,0,0,0,0,0,0,0,0,0,0],"split_type":[0,0,0,0,0,0,0,0,0,0,0,0,0,0,0,0,0,0,0,0,0,0,0,0,0],"sum_hessian":[2.14E2,1.2E2,9.4E1,1.1E2,1E1,8E0,8.6E1,9.1E1,1.9E1,2E0,8E0,6E0,2E0,4.9E1,3.7E1,2.8E1,6.3E1,7E0,1.2E1,3E0,5E0,1.9E1,3E1,1.6E1,2.1E1],"tree_param":{"num_deleted":"0","num_feature":"26","num_nodes":"25","size_leaf_vector":"1"}},{"base_weights":[1.7466127E0,8.211795E0,-8.918585E0,1.5682464E0,4.2264194E1,-5.2819706E1,-5.99007E0,4.531397E0,-4.4372967E1,-1.15213995E1,6.3153877E1,-7.3048553E0,1.4047836E0,7.6699567E-1,-2.2181618E1,-1.3799511E-1,3.0610325E0,-1.2638217E0,-5.4539223E0,-3.6267228E0,1.6104778E0,1.1172991E1,3.7651043E0,-6.4204043E-1,1.4025337E0,-5.271305E0,-1.0772161E0],"categories":[],"categories_nodes":[],"categories_segments":[],"categories_sizes":[],"default_left":[0,0,0,0,0,0,0,0,0,0,0,0,0,0,0,0,0,0,0,0,0,0,0,0,0,0,0],"id":49,"left_children":[1,3,5,7,9,11,13,15,17,19,21,-1,-1,23,25,-1,-1,-1,-1,-1,-1,-1,-1,-1,-1,-1,-1],"loss_changes":[1.4966967E4,3.0474604E4,1.0225945E4,1.5719973E4,2.5446027E4,7.7894404E3,8.550787E3,1.6691695E4,1.5690869E3,5.3695044E3,1.5614484E4,0E0,0E0,5.426456E3,7.4441484E3,0E0,0E0,0E0,0E0,0E0,0E0,0E0,0E0,0E0,0E0,0E0,0E0],"parents":[2147483647,0,0,1,1,2,2,3,3,4,4,5,5,6,6,7,7,8,8,9,9,10,10,13,13,14,14],"right_children":[2,4,6,8,10,12,14,16,18,20,22,-1,-1,24,26,-1,-1,-1,-1,-1,-1,-1,-1,-1,-1,-1,-1],"split_conditions":[1.355E1,1.565896E-1,8.738517E1,1.2681666E1,1.2520917E3,1.387E3,1.6883917E1,8.3550704E-1,1.218E3,7.866518E-2,1.244E1,-7.3048553E0,1.4047836E0,9.0341E-3,9.099758E1,-1.3799511E-1,3.0610325E0,-1.2638217E0,-5.4539223E0,-3.6267228E0,1.6104778E0,1.1172991E1,3.7651043E0,-6.4204043E-1,1.4025337E0,-5.271305E0,-1.0772161E0],"split_indices":[16,22,5,17,1,0,17,18,0,3,16,0,0,19,5,0,0,0,0,0,0,0,0,0,0,0,0],"split_type":[0,0,0,0,0,0,0,0,0,0,0,0,0,0,0,0,0,0,0,0,0,0,0,0,0,0,0],"sum_hessian":[2.15E2,1.34E2,8.1E1,1.13E2,2.1E1,4E0,7.7E1,1.07E2,6E0,6E0,1.5E1,3E0,1E0,5.5E1,2.2E1,8.8E1,1.9E1,2E0,4E0,3E0,3E0,4E0,1.1E1,3.6E1,1.9E1,5E0,1.7E1],"tree_param":{"num_deleted":"0","num_feature":"26","num_nodes":"27","size_leaf_vector":"1"}}]},"name":"gbtree"},"learner_model_param":{"base_score":"[6.7287915E2]","boost_from_average":"1","num_class":"0","num_feature":"26","num_target":"1"},"objective":{"name":"reg:squarederror","reg_loss_param":{"scale_pos_weight":"1"}}},"version":[3,2,0]}